model.0.weight
-0.382534 -0.064944 -0.177623 0.291697 0.009430 0.196303 0.036493 0.213123 -0.249325 -0.229606 0.011687
0.261832 0.285739 -0.103682 -0.221148 0.054183 0.074854 -0.190229 0.175030 0.139484 0.221317 -0.124693
-0.245108 -0.272680 -0.614542 0.173273 -0.083566 0.089669 -0.080075 -0.065782 -0.411997 -0.013275 -0.013742
-0.403771 0.006588 -0.007117 -0.151019 0.272027 0.219969 0.230441 -0.075479 0.078286 -0.042131 -0.058544
-0.204252 -0.147737 -0.076469 -0.007176 -0.054639 -0.117792 0.132876 0.112445 -0.006497 0.347362 0.011407
-0.032571 -0.745886 -0.041685 0.105876 0.151376 -0.099726 0.128110 0.158547 -0.017822 0.112967 -0.129846
-0.151416 -0.369425 -0.503605 0.162812 -0.000983 0.282265 -0.002757 -0.039960 0.088797 -0.079035 -0.130064
0.255235 -0.061846 -0.030425 0.260386 0.091173 0.235973 -0.178623 0.161792 0.304867 0.337933 0.166462
-0.250688 0.294968 0.042239 -0.002958 -0.194382 -0.156021 0.256296 -0.164316 0.423758 0.043550 0.087391
0.069604 0.302683 -0.014501 -0.267514 0.378432 0.066681 -0.029076 -0.151676 -0.012894 -0.111484 -0.067064
0.260964 0.429141 -0.110476 0.148385 0.106893 0.283182 0.012035 0.127652 0.166620 0.026398 -0.198090
0.137500 0.211321 -1.033792 -0.167771 -0.166064 -0.062297 -0.221942 0.073519 -0.147346 0.095652 0.039759
-0.120542 -0.515738 0.156343 -0.369020 0.211201 -0.086563 0.197006 0.095293 -0.269149 0.197007 0.132353
0.279638 0.275493 -0.029243 -0.143920 0.093188 0.279363 -0.148249 -0.105945 -0.238110 -0.031984 -0.066739
0.028885 0.437991 -0.414303 0.011691 0.121468 0.236265 0.237629 0.045625 -0.301796 -0.121491 0.012912
-0.297397 -0.719304 -0.018012 -0.024424 -0.006222 0.110015 -0.213756 0.014890 -0.154081 0.021586 -0.027403
0.048531 -1.175557 -0.010334 -0.195296 -0.007180 0.002516 -0.046331 0.004108 0.101418 -0.003090 -0.008856
-0.298163 0.092088 0.010673 0.074357 0.076129 -0.156374 -0.254726 -0.064180 0.209256 0.185901 -0.033049
-0.112350 -0.019797 0.176269 -0.035932 -0.397713 -0.113305 -0.172735 0.167062 0.281979 0.261803 -0.221456
0.155938 0.516536 -0.384604 0.148624 -0.113762 0.149054 -0.285413 -0.190235 -0.163427 -0.065531 0.078126
-0.283612 -0.001999 -0.147849 -0.308370 -0.063797 -0.213665 -0.001645 -0.000782 0.108215 -0.153905 0.033670
0.013142 -0.364814 -0.039759 0.266546 0.247053 -0.279198 0.265461 0.152506 0.301129 0.202092 -0.112455
0.156230 -0.881925 -0.010340 -0.152663 0.108032 -0.206747 -0.014123 -0.003482 -0.143114 0.032244 0.134716
-0.473286 -0.221853 0.003382 0.032663 0.022289 -0.075014 0.015907 -0.002002 0.064886 0.006529 0.013134
0.109118 -1.072982 0.047714 -0.277525 -0.054608 0.078514 -0.179793 0.077644 0.005028 0.118313 -0.001047
0.335661 -0.168848 0.002715 -0.010233 0.148453 0.237302 0.200551 -0.007467 0.027570 0.067861 -0.003205
0.011459 0.171887 0.158803 -0.107196 0.076672 0.027934 -0.278756 0.067517 0.193289 -0.283625 0.203536
0.105702 -1.047327 0.023847 0.164200 0.167997 0.231767 0.097088 -0.117033 -0.109152 -0.091070 0.002431
-0.188868 -0.165721 -0.022175 0.162087 -0.047314 -0.073599 -0.127297 0.249997 -0.022954 -0.178859 0.012132
0.229307 -0.676446 -0.180907 -0.286370 0.054173 0.309373 0.122947 -0.152630 0.141949 0.192542 0.185707
-0.382877 -0.077610 0.030327 -0.217782 0.076822 0.182040 -0.541404 0.067693 0.086227 0.065526 -0.097876
0.358717 0.086367 -0.211719 -0.196930 -0.182184 0.149554 -0.143723 -0.228593 0.057567 0.213930 0.301542
0.089518 -0.461201 0.120938 -0.274543 -0.078163 0.127929 -0.078450 0.106101 -0.051618 -0.060179 0.218006
0.036318 -0.479262 -0.307217 -0.278958 -0.028307 -0.124994 0.010184 0.076250 -0.407998 0.027242 -0.024130
-0.018983 0.165221 -0.072815 -0.295458 -0.130725 0.165583 -0.089889 -0.173086 -0.172178 -0.125555 -0.233517
-0.000248 0.429474 -0.232377 -0.039054 0.026807 -0.061672 -0.189306 0.136183 0.205672 -0.144788 -0.015621
0.250137 -0.836564 -0.029975 0.041127 0.244053 0.298644 0.105326 0.011671 -0.231675 0.100742 -0.118872
-0.176819 -0.291876 -0.566656 0.217951 -0.282480 -0.014884 -0.012303 0.006222 -0.111896 0.054485 -0.126261
-0.094869 0.281895 -0.319806 -0.350817 0.268613 0.179051 0.253839 -0.018308 -0.000567 -0.161606 0.057553
0.176088 0.163113 -0.008864 0.014456 -0.321621 -0.139329 0.138077 -0.079000 0.382819 -0.081097 -0.098126
0.012088 0.568313 0.009270 0.403677 0.034644 0.211319 0.044250 0.053867 0.034437 -0.101480 -0.090344
-0.211470 -0.651813 0.150030 -0.118474 0.030126 0.062432 0.113244 0.092554 -0.070385 -0.053914 0.074430
0.115169 -0.589766 0.025248 -0.191328 -0.096193 -0.266532 0.114520 -0.030611 0.156842 -0.046917 0.196908
-0.039727 0.095980 -0.254771 0.291953 -0.017794 -0.302971 0.133777 -0.134911 0.392551 -0.235150 -0.160679
0.059648 -1.213134 -0.000686 -0.001523 -0.031312 -0.137065 -0.097648 -0.024267 -0.004904 -0.018243 0.030161
0.055749 -0.125331 -0.262114 0.215004 -0.156399 -0.029252 0.050433 -0.138915 0.154821 0.000925 -0.168981
-0.150137 -0.126412 0.075776 0.252886 -0.059988 -0.445314 -0.153539 -0.089785 0.056897 0.059841 -0.019652
-0.125325 0.305682 -0.235591 -0.528306 0.007948 -0.079178 -0.317108 -0.077606 -0.293370 0.046747 0.199993
0.218470 -0.366641 -0.085533 0.200670 -0.062178 0.054538 -0.057675 -0.183766 0.287489 -0.078146 -0.077535
-0.015179 0.274605 -0.380411 0.179789 -0.033694 -0.260654 -0.191719 0.263583 -0.017853 0.168845 0.027298
-0.042818 -0.289720 -0.317542 0.001548 -0.351441 0.263371 0.149472 0.069285 0.079792 0.151158 -0.193986
0.053832 0.208367 -0.282680 0.267971 0.114455 0.395566 0.085749 0.223169 -0.331494 -0.172118 -0.177737
-0.075915 -0.631085 0.001528 -0.087754 0.030099 -0.195147 -0.026018 -0.081866 -0.430683 0.049358 0.120072
0.154206 0.199682 -0.013525 0.429017 0.167687 0.271734 -0.027288 -0.083616 0.018726 -0.205913 0.263834
-0.000950 0.089178 -0.033965 0.098773 0.428710 -0.024291 -0.104896 0.000186 -0.008397 -0.002284 -0.008893
-0.210663 -0.037148 0.327953 0.126716 -0.148249 -0.002758 -0.060745 0.084668 -0.002815 -0.268638 -0.003158
0.369515 -0.045909 -0.091245 0.050747 -0.059530 -0.169720 -0.388953 0.012272 -0.106278 -0.042882 -0.066351
-0.077175 -0.764610 0.015777 0.190994 0.079846 -0.047665 -0.088529 -0.070347 0.064469 0.010686 -0.018699
-0.322956 0.154584 0.264201 -0.225285 -0.277820 -0.164412 0.094080 -0.255639 0.004872 0.164859 0.199203
-0.018187 0.288005 -0.395762 -0.502499 -0.121004 -0.389122 -0.180132 -0.070546 -0.328320 -0.010455 -0.210265
0.220436 -0.502966 -0.079867 0.051421 0.055641 -0.339354 0.057591 -0.165902 0.340770 0.166570 -0.169014
0.044306 0.367481 -0.165664 0.260468 -0.021429 0.310925 -0.102643 0.075935 -0.245078 -0.297795 0.192563
0.168222 -0.239680 -0.100654 0.027769 -0.067502 0.089612 0.257009 -0.066184 0.087985 0.176055 0.178607
0.175070 -0.688950 0.072435 -0.221834 0.206560 0.247872 0.374526 0.178379 -0.056850 0.137234 0.164358
0.131290 0.097689 0.180116 0.025621 -0.175651 -0.455263 0.362978 -0.310435 0.164757 -0.063334 0.192705
0.084260 -0.514001 -0.026514 -0.109218 -0.190248 -0.137294 -0.318934 0.099088 -0.142003 -0.230585 -0.035290
0.016593 0.229353 -0.138398 0.057719 -0.102701 0.099634 -0.242764 0.079923 -0.029608 0.251731 0.084252
0.090175 0.249155 0.061646 -0.353027 0.176664 -0.265817 -0.464261 -0.164175 -0.296769 -0.151509 -0.105320
0.125516 0.307191 0.083655 0.301683 -0.257402 0.049529 0.006771 0.158316 -0.130569 -0.185762 -0.070935
0.034966 -0.838001 -0.123448 -0.410622 -0.073059 -0.447955 0.105992 -0.026061 -0.268251 -0.112191 -0.070333
-0.550584 -0.451209 -0.038558 0.227315 0.057477 0.215986 0.205694 0.060581 -0.288534 0.152245 0.256578
-0.170230 -0.081494 0.026174 0.145481 -0.192880 0.199161 0.127951 0.202810 -0.405342 -0.034743 0.257811
-0.397005 -0.074382 -0.011882 0.039414 -0.035492 -0.042440 -0.023099 0.138342 -0.094241 0.050214 -0.153631
0.181323 0.230772 -0.206349 -0.200046 0.251685 -0.151071 -0.020082 -0.318606 0.038569 -0.099490 0.269960
0.153170 0.251669 -0.311967 0.171049 -0.166059 0.017892 0.207621 0.009609 0.301204 0.235351 0.136131
-0.169739 0.087281 0.294196 0.034322 -0.319836 -0.113501 0.347915 0.071838 0.250501 0.196465 0.094530
0.114782 0.162915 -0.350471 -0.153451 -0.094640 -0.129813 -0.191013 -0.076029 -0.114790 -0.107013 0.135770
-0.051316 0.012318 -0.227607 0.020703 0.263759 -0.079989 -0.221847 0.042526 -0.301792 -0.037602 -0.294502
0.383743 0.097118 0.011733 0.004135 0.005766 -0.120582 0.131595 -0.032958 -0.087747 -0.125558 -0.015050
-0.189923 0.237979 -0.387390 0.377794 0.168752 0.352144 0.018081 0.010379 0.090255 -0.214911 0.289038
0.290057 -0.696035 0.009882 0.006613 0.186458 -0.311189 0.180180 -0.054292 -0.328466 -0.072818 0.094817
-0.318371 -0.134462 -0.215002 0.141127 -0.123488 0.234980 -0.227226 -0.053930 0.136629 0.221902 -0.362213
0.086142 -0.227478 -0.230757 0.265514 -0.088341 0.214247 -0.121201 -0.219478 -0.404315 0.097466 -0.039777
-0.420376 -0.079553 -0.251257 -0.195129 -0.130357 0.069437 0.024647 -0.189572 0.274791 0.086847 -0.055363
0.389355 0.172094 -0.241557 0.216987 -0.094872 -0.190223 -0.185910 -0.030423 0.161029 -0.034021 -0.111578
-0.302225 0.071211 -0.090396 -0.264262 -0.183765 -0.290765 0.058590 -0.038486 -0.004914 -0.183965 0.019386
0.070273 -0.631623 -0.252330 0.012137 0.005693 -0.160639 -0.062823 0.014275 0.123816 -0.241014 0.195295
-0.067222 -0.070296 -0.020027 0.308473 -0.100704 0.146245 0.318295 0.037049 -0.051095 -0.184607 -0.089943
0.053357 0.100898 0.030387 -0.005501 -0.341046 -0.096090 -0.470130 -0.010876 0.049288 -0.069620 0.305394
-0.125813 0.330435 -0.121867 0.264595 0.035654 -0.185865 0.121852 0.006819 0.047235 -0.116660 0.178526
0.392289 0.374755 0.176681 0.306235 -0.317318 0.251073 0.193985 -0.031490 0.096919 -0.258641 -0.146166
-0.062877 0.143327 0.188839 -0.083016 0.185630 0.011429 0.119508 -0.281389 0.076259 -0.094507 -0.115644
0.056501 -0.491971 -0.061743 -0.049565 0.013831 0.118871 -0.031067 -0.192250 -0.290914 -0.097677 -0.078972
0.121730 -0.342647 -0.668571 0.032295 0.009083 0.401966 0.140478 0.198987 0.085476 0.080660 -0.040850
0.003687 -0.483473 -0.003805 -0.098543 0.294191 0.253159 0.036915 0.081788 0.002874 0.066396 0.007228
0.049568 0.366839 -0.267757 0.202500 0.052015 0.164998 0.137010 -0.017427 -0.037602 -0.088886 0.022355
0.054853 -0.326063 0.250256 -0.011533 -0.374096 0.326689 0.237616 0.077282 -0.032788 0.175715 0.063324
0.062821 0.302130 -0.179578 0.404143 0.103111 0.381057 -0.027795 -0.047250 0.020171 0.065133 -0.187940
0.275480 0.486391 0.056236 -0.423972 0.002241 -0.230334 0.311927 -0.196944 -0.020705 0.053076 -0.062383
0.000222 0.295550 0.242048 0.390637 0.135448 0.095722 -0.272295 0.096588 0.070665 0.261163 0.347174
0.085184 0.249780 0.155045 0.125232 -0.370699 0.379499 -0.285268 -0.084835 -0.291861 0.259006 0.181207
0.064059 -0.214689 -0.023865 -0.226756 -0.093260 -0.167193 0.294268 -0.157395 -0.420159 0.006008 -0.178189
-0.129398 0.025241 -0.363568 -0.250934 -0.058342 -0.138914 -0.323017 0.035402 -0.398622 0.251900 0.077942
-0.211047 0.124592 -0.162942 0.089762 0.019928 0.269456 0.092568 -0.227813 -0.218612 0.272965 0.313915
0.038894 -0.088621 -0.054504 0.422371 -0.183509 0.412064 -0.084761 0.146669 0.206511 -0.070695 -0.108382
-0.065801 0.141871 -0.057454 -0.042367 0.350574 -0.236055 0.224873 -0.120251 -0.097101 0.237450 0.187924
-0.125612 -0.433531 -0.137622 -0.284245 -0.150816 0.210368 0.262774 -0.106274 -0.045565 -0.085463 0.154981
-0.217600 0.446794 -0.026330 -0.034523 -0.038980 -0.218560 0.133658 0.009153 0.269693 -0.092918 -0.176191
0.293049 0.014819 0.038390 -0.103579 0.125040 -0.141160 0.175606 0.196299 -0.263899 0.230504 0.139120
0.319018 -0.562462 0.071764 -0.287709 -0.086053 -0.094359 0.061530 0.233703 -0.143941 0.030006 -0.142226
-0.319668 0.244057 -0.017331 0.307840 0.165738 0.047884 0.319573 -0.067392 -0.107528 0.106661 -0.077322
0.066850 0.031860 -0.207872 -0.176788 -0.019442 -0.286464 0.272171 0.223672 -0.314653 0.167655 0.327681
0.325402 0.043929 0.122598 -0.295277 -0.271133 0.190013 0.085184 -0.228856 0.231167 -0.170899 -0.164758
0.396643 0.238270 0.089694 -0.042895 0.053003 -0.095809 0.132479 0.065462 0.004370 0.210820 0.200127
0.280886 0.130220 -0.270794 -0.078037 0.054653 0.313064 0.240829 -0.230914 -0.308677 -0.037037 -0.098499
-0.012099 0.103418 -0.000844 0.131915 0.458068 -0.009132 0.241575 0.006199 -0.013615 -0.045751 -0.002926
-0.221966 -0.859090 0.162896 -0.219925 -0.106598 -0.219723 0.304028 -0.133299 0.167590 0.175542 0.036568
-0.425462 0.104012 0.037779 0.359920 0.300174 -0.280368 0.158214 0.070661 -0.256263 0.098543 0.138159
-0.019190 -0.754500 -0.176427 -0.238329 0.136657 0.270965 -0.077142 0.096148 -0.019431 -0.224075 -0.096232
-0.088169 0.451454 0.016502 -0.360613 -0.014057 -0.243176 0.202782 0.229837 -0.146796 0.166303 -0.064042
-0.462833 0.041572 0.209874 0.113987 -0.175240 0.000674 0.052860 0.209635 -0.120320 -0.023040 0.098028
-0.101695 0.067228 0.144209 -0.130536 0.144243 0.005243 -0.149385 0.107682 -0.393833 -0.107324 0.013825
0.379055 0.183650 -0.050565 -0.110714 0.204341 -0.094004 0.170177 0.031284 -0.006614 -0.039295 0.018371
0.017010 -0.133777 0.004354 0.294919 0.347220 0.115491 0.192020 0.174993 0.114564 0.238557 0.040812
-0.045060 -0.135532 -0.055054 -0.014004 -0.208912 0.045546 -0.102542 -0.040261 -0.686909 -0.171096 -0.087758
0.143319 -0.737496 0.029729 -0.240744 0.070850 -0.300559 -0.122460 -0.068332 -0.059153 -0.081573 -0.061833
-0.030274 -0.340432 -0.466059 -0.100599 -0.042664 -0.085305 0.238016 -0.147548 -0.238407 -0.245818 -0.054100
0.185088 0.254780 0.199952 0.236475 0.059407 -0.041669 -0.080110 0.348299 0.128741 0.018086 -0.143180
model.0.bias
-0.107216 -0.096034 -0.229632 -0.341906 0.005073 -0.250027 -0.000078 0.332216 0.166745 -0.241463 0.096413 -0.128337 -0.039486 -0.200536 0.289602 -0.312949 -0.285292 -0.201213 -0.213031 0.172499 0.096065 -0.113885 -0.091764 -0.361101 -0.069478 -0.267688 -0.144872 -0.184131 -0.206794 -0.040382 -0.044823 -0.186448 0.131853 -0.160968 -0.327301 -0.132013 -0.216518 -0.207973 -0.133788 -0.199874 -0.208543 -0.075222 -0.179129 -0.189764 -0.172569 -0.285147 -0.211169 -0.049555 0.216123 -0.200104 0.162677 -0.230071 -0.317069 0.085067 -0.423022 -0.407667 -0.381748 -0.229440 -0.121972 0.212849 -0.014580 -0.239127 -0.277324 0.030600 0.205993 -0.045160 -0.248641 -0.083624 -0.058200 -0.093650 -0.182002 -0.105683 -0.295028 0.056610 0.154441 -0.059263 -0.291955 -0.287648 -0.392579 0.113077 -0.074833 -0.234234 -0.086345 -0.501215 -0.141929 -0.075869 -0.307369 -0.164908 -0.249107 -0.264885 -0.279875 -0.183149 -0.141696 0.156195 -0.493406 0.124116 0.211607 -0.187270 0.062036 -0.197869 0.003536 -0.500548 0.134567 0.203930 -0.058703 -0.141550 -0.081762 0.213972 0.253372 -0.352146 -0.161994 -0.280577 -0.377958 -0.127928 -0.255721 -0.275007 0.097934 -0.286515 -0.228673 0.270483 -0.205808 0.255651 -0.294791 -0.313038 -0.276491 -0.375666 -0.086947 -0.334834
model.2.weight
0.844692 0.891725 1.043480 1.053069 0.564880 0.884650 0.958721 0.754636 0.824328 0.932591 0.897255 1.138012 0.818570 0.904567 0.955843 1.074375 1.650730 0.869366 0.801508 0.949553 0.915148 0.869559 1.058363 1.472461 1.042042 1.112770 0.878569 1.155643 0.840407 0.859110 0.989154 0.933422 0.718974 0.991983 0.782651 0.990694 1.022548 0.927817 1.043413 0.926966 1.005359 0.947231 0.948748 0.893770 1.287324 0.690358 0.676297 1.007485 0.910595 0.982185 0.874750 0.907558 1.018507 0.880563 1.368335 0.845249 1.080819 0.972190 0.884220 0.858370 0.717830 1.032872 0.931021 0.946126 0.766624 0.820068 0.787605 0.902540 0.809419 1.017647 1.049548 0.910653 1.032949 0.936906 0.990968 0.881206 0.976528 0.739655 1.042980 0.851535 0.941815 0.639123 0.919289 0.941653 0.897730 0.921148 1.010579 0.881257 0.982153 1.077667 0.962293 0.776336 0.818503 0.963576 1.093930 0.899516 0.981872 0.910444 0.808116 0.789557 0.896786 0.786209 0.796025 0.811489 0.922167 0.905999 0.854446 0.936965 0.851499 0.896679 0.867697 0.936985 0.770613 1.020887 0.826043 1.031960 0.865894 1.005774 0.987656 0.933065 0.917893 0.766912 1.203936 0.816532 1.054562 0.975294 0.819917 0.882861
model.2.bias
0.140128 0.060934 0.284032 0.184490 0.173986 0.179524 0.135099 -0.049566 0.134021 0.083356 0.151292 0.260025 -0.250356 0.026938 0.022998 0.095811 0.002987 0.140158 0.170078 0.152673 -0.069432 0.043757 -0.105686 0.172460 0.062566 0.149652 0.114389 -0.033049 -0.078586 0.052549 -0.104131 0.083668 -0.080586 -0.092449 -0.030482 -0.069833 -0.069578 0.006201 0.199778 -0.028307 -0.002408 -0.021835 -0.017377 0.291988 0.016029 0.079550 0.147890 -0.001402 -0.043600 0.165425 0.184396 0.069223 -0.067794 -0.005082 0.120726 0.163856 0.061958 0.012726 0.099925 -0.062302 -0.030321 0.054571 -0.127587 -0.205117 0.119362 -0.153980 0.183860 -0.220791 0.184450 -0.102463 0.248172 -0.163295 0.164167 0.043093 0.178486 -0.028165 0.022021 0.068765 0.227284 0.210813 -0.062503 0.198320 0.082969 0.012224 0.186108 -0.153960 0.091770 0.392997 0.256248 0.311397 0.127064 0.097234 -0.145249 -0.033346 0.115997 -0.066248 0.070520 -0.096558 -0.088653 0.052476 0.204208 -0.169747 -0.098399 0.272069 0.101976 -0.022751 -0.096717 0.091605 -0.142541 0.049486 0.204713 -0.255774 0.353597 0.171987 0.156092 0.295600 0.188340 0.223718 -0.078537 -0.015859 0.367389 0.089544 0.156392 0.281935 0.068295 0.063337 0.039569 0.337637
model.2.running_mean
0.202898 0.150209 0.080775 0.086373 0.176944 0.121103 0.126439 0.445083 0.302672 0.077591 0.326166 0.126181 0.361362 0.119941 0.356201 0.122494 0.153496 0.088351 0.118714 0.331928 0.277302 0.154288 0.321882 0.081476 0.319762 0.054759 0.148113 0.136750 0.080888 0.193752 0.237674 0.150373 0.323112 0.213471 0.047615 0.135005 0.146034 0.098893 0.086974 0.146296 0.289849 0.228091 0.173290 0.106210 0.252998 0.041246 0.040095 0.198107 0.264958 0.093049 0.307174 0.185325 0.118138 0.323643 0.028783 0.016384 0.074624 0.066639 0.188944 0.425889 0.240978 0.216218 0.057363 0.314126 0.347423 0.255120 0.108425 0.239844 0.214642 0.487899 0.240439 0.178869 0.070069 0.222735 0.304817 0.216484 0.025670 0.089132 0.041998 0.387766 0.337602 0.137165 0.128349 0.049091 0.174006 0.200375 0.092225 0.152483 0.123241 0.090780 0.302820 0.088136 0.127150 0.263164 0.012761 0.233896 0.329618 0.256303 0.260749 0.247413 0.285053 0.135179 0.330443 0.303655 0.254377 0.126433 0.211317 0.269914 0.367388 0.129703 0.174395 0.138450 0.105031 0.130717 0.135767 0.059459 0.497766 0.109157 0.121887 0.330954 0.148600 0.358974 0.070227 0.063096 0.056137 0.120440 0.229284 0.135686
model.2.running_var
0.121376 0.080803 0.016686 0.031035 0.114782 0.039200 0.030090 0.491185 0.293608 0.022527 0.670029 0.036172 0.126776 0.082353 0.304610 0.030107 0.011746 0.054129 0.103715 0.530732 0.072461 0.063956 0.052994 0.016072 0.058895 0.012161 0.078284 0.023711 0.018140 0.063631 0.084378 0.075776 0.082084 0.029546 0.011253 0.184887 0.045899 0.029272 0.024141 0.150982 0.861306 0.072002 0.035890 0.143108 0.024624 0.016010 0.015080 0.042043 0.093205 0.042132 0.144699 0.364577 0.023288 0.609162 0.002337 0.048366 0.021060 0.011446 0.136227 0.092554 0.096852 0.487594 0.021267 0.120011 0.252455 0.063184 0.105861 0.085882 0.315790 0.121949 0.099921 0.074984 0.017055 0.082686 0.404070 0.204877 0.004127 0.036844 0.007878 0.753452 0.093408 0.106182 0.061771 0.017205 0.126410 0.074600 0.009939 0.127685 0.049454 0.097099 0.676077 0.044883 0.028858 0.084476 0.001262 0.371617 0.162536 0.685489 0.141736 0.454790 0.446174 0.103968 0.118417 0.215718 0.596464 0.044964 0.119826 0.190330 0.122263 0.044396 0.141084 0.038692 0.061038 0.051801 0.077463 0.005449 0.308381 0.037901 0.023944 0.108786 0.071096 0.083080 0.021800 0.028780 0.009218 0.023074 0.140864 0.191802
model.3.weight
0.059152 -0.040904 -0.017849 0.150273 -0.035149 0.134930 0.108480 -0.025845 0.008127 -0.000542 -0.037053 0.026077 0.037066 0.049300 -0.019542 0.072308 0.128054 -0.062942 -0.039983 -0.084664 0.007884 -0.008716 -0.001202 0.107730 0.141650 0.119052 0.129547 0.183562 0.010814 0.045648 -0.032846 -0.221750 0.014256 0.072776 0.009955 -0.272553 0.088075 -0.001325 0.052067 -0.012458 -0.030739 0.069401 -0.014387 -0.062135 0.052880 -0.004233 -0.007037 -0.233679 -0.103356 -0.140913 0.111348 -0.141913 -0.139332 -0.055151 0.203417 -0.091228 0.154563 0.061328 -0.039476 -0.029390 0.005871 -0.182542 -0.193894 0.060895 -0.124782 0.001637 -0.075770 -0.009766 0.162692 -0.082280 -0.000247 -0.064377 0.134194 -0.100489 -0.191168 -0.089079 -0.227542 -0.057805 -0.007207 -0.043859 0.069349 0.031863 0.026169 0.031445 0.040279 0.020192 0.014867 -0.139991 0.085266 -0.004006 0.117850 0.010362 0.071557 0.051886 0.023332 -0.034080 -0.064330 0.034670 -0.053559 -0.135622 -0.106753 -0.057878 -0.157823 -0.068900 -0.085015 0.154934 -0.011909 0.057583 -0.026488 0.097517 -0.086385 -0.125403 0.051509 0.093989 -0.182503 0.063485 0.006997 0.033980 0.193499 -0.056094 -0.003973 -0.026275 0.220860 -0.057094 0.127667 0.030047 0.042512 -0.016809
-0.007300 -0.079936 0.035888 -0.013467 0.024136 0.098446 0.024014 -0.003398 0.099049 -0.105185 0.018485 -0.058513 -0.041937 -0.023059 -0.074277 0.016965 0.214975 0.054150 -0.047570 0.033686 -0.070346 0.080278 -0.038818 0.223181 0.155336 -0.252830 -0.000181 0.079961 0.123824 0.088820 0.083439 0.107450 0.120865 -0.044886 -0.156205 0.039092 0.005603 -0.034318 -0.237579 -0.142014 -0.111991 0.098286 -0.037035 0.095539 0.168835 -0.177050 -0.004911 -0.081987 -0.019630 -0.132826 -0.110218 -0.003993 0.070045 0.064161 -0.119930 0.022654 -0.054818 0.139069 -0.039370 -0.107295 -0.062108 0.017814 -0.079917 -0.151205 -0.083839 0.074655 -0.013193 -0.096399 0.067764 -0.152570 -0.005335 0.009234 0.066215 -0.075938 -0.029710 0.100130 0.003019 -0.006398 0.263370 -0.001223 0.100259 -0.057729 0.157294 0.094174 -0.037235 -0.014362 -0.157904 -0.053137 0.063110 0.090074 -0.021030 -0.025902 -0.022765 -0.201343 -0.122252 -0.102777 0.083128 0.039475 -0.172740 -0.033495 -0.005842 -0.130857 -0.008066 0.025434 0.013811 -0.092036 0.080073 -0.067248 -0.028182 -0.175258 0.097256 -0.177727 -0.063445 -0.023251 0.163966 -0.194669 0.059695 -0.039782 -0.094194 0.017329 0.126940 -0.050975 -0.289768 -0.035175 -0.036395 0.157488 -0.011862 0.071180
-0.078342 0.012041 -0.165335 -0.013604 0.042929 0.036574 0.072332 0.080297 -0.051836 0.045025 -0.078456 -0.179809 0.057708 -0.014863 -0.214953 -0.018457 0.184914 -0.127552 0.031240 -0.149808 -0.039872 -0.020410 0.113389 -0.177384 0.048563 -0.006084 0.010390 0.074757 0.072720 0.137344 0.002188 -0.114334 0.100396 -0.205396 -0.011986 -0.106834 -0.003910 0.039724 -0.075910 -0.001416 -0.057913 0.052691 0.119570 0.005937 0.123059 0.078237 -0.090402 -0.191248 0.151103 -0.244405 0.147359 -0.034749 -0.030430 -0.061432 0.117123 -0.021852 0.064335 0.077022 0.026447 -0.172295 0.053887 -0.088426 -0.051999 0.135735 -0.001756 0.042296 0.057949 0.024111 0.101241 -0.087377 0.019318 0.137528 -0.164665 -0.097801 -0.015011 -0.023024 -0.212071 -0.139836 -0.033352 -0.063604 0.033979 -0.033216 -0.054702 -0.022126 -0.023966 0.027470 0.048298 -0.038615 0.110852 -0.264212 0.018067 0.041429 -0.049310 0.011091 0.108430 -0.139623 0.239396 0.048977 0.053916 -0.121239 -0.041769 0.012146 -0.148146 -0.107424 0.182284 0.079827 0.036440 -0.102506 -0.021072 0.046402 -0.109073 -0.026865 -0.037557 -0.096834 -0.008961 0.083599 0.064207 -0.056546 -0.000261 -0.038356 -0.119964 -0.090110 -0.002037 0.000371 -0.069409 -0.067568 0.031953 -0.099195
-0.012103 -0.036490 -0.049354 0.084741 0.020705 0.104854 -0.023299 0.015253 0.112233 -0.035413 0.018080 0.036917 0.083063 -0.173230 -0.006441 -0.159370 -0.504755 0.123696 -0.051388 0.083236 0.005043 0.090049 -0.194653 0.070233 -0.211703 -0.122431 -0.121263 0.033768 0.113207 -0.016885 -0.008416 0.018216 -0.041640 -0.112885 0.008500 0.098876 0.071593 0.033283 -0.013513 -0.053642 -0.074006 -0.102113 -0.095425 -0.178504 -0.300269 0.081482 -0.032238 0.093662 -0.131406 0.029184 0.115012 0.099360 -0.092204 0.036207 0.094775 0.028483 0.043278 0.041367 0.006506 0.035492 0.056346 0.033757 0.169079 0.043909 -0.024145 -0.124790 0.057604 0.035219 0.043254 -0.114055 0.056483 -0.086726 0.009356 0.063561 0.157376 0.008691 -0.143953 0.010250 0.046877 0.016537 -0.032241 0.008502 0.093238 0.002208 -0.068598 0.036147 -0.319201 -0.149318 -0.065270 -0.016358 -0.142059 0.020263 -0.088680 0.064535 0.242078 0.022060 0.134817 0.063392 0.109144 -0.010931 0.036688 0.104147 0.143490 0.047486 -0.009213 0.231897 -0.015742 -0.033806 0.035073 -0.032242 0.068622 -0.030959 -0.079245 0.038587 -0.114382 0.021838 -0.066830 0.076959 -0.067598 0.122795 -0.100666 0.008215 -0.077871 0.082542 -0.075673 -0.134216 -0.071291 -0.126777
0.111108 -0.012466 0.101076 -0.035624 -0.055641 -0.061329 0.013338 0.088916 -0.054869 0.034301 0.077110 0.002534 -0.041300 0.072937 0.060274 0.155536 -0.004098 -0.196371 0.019596 -0.097551 0.164664 -0.101591 0.006546 -0.016121 0.081236 0.240607 0.003141 0.042959 0.103921 0.058426 0.102995 -0.013671 0.072544 0.092949 -0.134436 0.062826 0.165067 0.096381 -0.131423 -0.136873 0.029489 0.054109 -0.047507 0.107472 -0.055814 0.105858 0.084484 0.146638 0.081841 -0.044638 -0.022360 0.009133 -0.130738 -0.056290 -0.215581 0.059735 0.082415 -0.073254 0.008023 0.073408 0.087050 -0.015720 -0.005219 0.041525 -0.098499 0.082881 -0.099514 0.010030 0.037833 -0.061540 0.054915 0.099821 0.037684 0.039758 -0.025449 0.008713 -0.043796 -0.029099 0.135855 -0.205272 -0.046830 -0.028248 -0.071567 -0.086046 0.124533 0.126336 -0.022296 -0.030884 -0.075582 -0.115714 -0.123217 0.001614 -0.044659 0.100976 -0.241871 0.078097 -0.127344 0.067681 0.111622 0.057550 -0.130112 -0.017107 0.100688 -0.037826 0.100143 -0.058074 -0.008984 -0.017749 0.065288 0.152007 0.032869 0.070589 0.036535 0.112187 0.031236 -0.202532 0.010895 -0.003757 -0.042720 -0.018465 -0.009078 0.000797 0.232214 -0.190649 -0.079942 0.101440 -0.020324 0.159114
-0.068640 -0.122673 0.101478 -0.116094 -0.090081 -0.060362 0.043901 0.097289 -0.082541 -0.066768 -0.037342 0.071626 -0.044272 -0.017061 0.079399 -0.051317 0.238511 -0.060215 -0.012522 0.071327 -0.082484 -0.161490 0.140646 -0.062246 -0.056387 0.044227 -0.085834 0.130703 -0.013541 -0.005367 -0.013858 0.058287 -0.070472 0.043224 0.050419 -0.044599 0.025634 0.093670 -0.081242 -0.097743 0.031167 0.013565 0.112745 -0.002302 0.074711 0.050646 -0.031120 0.047227 0.093712 0.082418 -0.097402 0.006797 0.055930 0.059808 -0.491303 -0.068776 -0.032395 -0.020692 -0.120590 0.005060 0.073186 0.023637 0.061165 0.060924 0.038205 0.010988 0.074837 -0.070710 -0.039838 0.079346 -0.014079 0.041991 -0.012577 -0.010682 -0.077169 -0.104076 0.037472 -0.029795 0.030082 -0.095575 0.163662 0.043538 0.104725 0.042449 0.003821 -0.092460 0.019216 0.027481 -0.132573 0.054846 -0.009532 -0.050720 -0.033191 -0.036114 0.025558 -0.016966 -0.281718 0.118601 -0.065264 0.075133 -0.026384 -0.039471 0.082806 -0.099854 0.001862 -0.136937 0.002479 0.029059 0.036178 -0.001647 0.021022 0.009832 -0.019124 -0.116475 0.140164 -0.313034 -0.001791 -0.038507 0.069485 -0.149776 0.001390 -0.036171 0.064538 -0.087709 0.014971 0.013443 0.044863 -0.024958
-0.075897 -0.126892 0.022327 0.033710 0.000739 -0.009389 0.045963 0.009428 0.015543 -0.049133 0.058692 0.145441 -0.018301 -0.044461 0.090955 -0.313103 -0.362099 -0.032442 -0.076128 0.091032 0.038936 0.002101 -0.139050 0.009492 -0.199915 -0.120265 -0.104636 -0.022786 0.040959 0.003520 -0.042746 0.183279 0.022582 -0.096061 -0.055581 0.132937 -0.136162 0.074640 0.125578 0.035500 0.020859 -0.140188 0.044421 0.058907 -0.300884 -0.022058 -0.087567 0.012136 0.073467 0.080819 -0.085985 0.134378 -0.161762 0.070947 -0.000264 0.054644 0.198489 -0.067253 0.110333 0.030706 -0.186110 0.046856 0.005122 -0.082900 0.126998 -0.001915 -0.066263 -0.003384 -0.019573 -0.033428 -0.094537 -0.119984 0.130037 0.117745 0.129951 -0.011407 0.210628 0.160030 0.046233 -0.006990 0.011806 0.116293 -0.041297 -0.005509 0.055039 -0.011090 -0.133064 0.069113 0.009514 0.053091 -0.082319 0.096104 0.041039 0.153693 -0.183026 0.129496 -0.045011 0.018059 0.090504 -0.085558 -0.055328 -0.019519 0.047940 -0.022899 -0.034136 0.059721 -0.042641 -0.013511 -0.002504 -0.023813 -0.041252 0.014277 -0.033171 -0.001053 -0.009141 -0.021598 -0.026932 0.121174 -0.088642 0.007086 -0.061512 0.016852 0.064094 0.025630 -0.012789 -0.143423 0.149450 0.027212
-0.098205 -0.059634 -0.026197 -0.036434 -0.169794 -0.061564 -0.099609 0.047202 0.036318 -0.062535 -0.000329 -0.000390 -0.143583 0.012179 0.091623 -0.382794 -0.110241 -0.114277 0.155128 -0.081419 -0.141529 -0.011644 0.040895 -0.071112 -0.138642 0.034211 -0.020126 -0.033439 0.019113 -0.038177 0.019119 0.039201 -0.046719 -0.064706 0.140014 0.026657 -0.070723 0.085156 0.041465 0.005543 -0.126502 -0.198593 0.027536 -0.055264 -0.169618 0.096328 0.049401 -0.084519 0.040176 -0.014290 0.104780 -0.022694 -0.139794 -0.146118 0.044063 -0.026401 -0.036752 -0.149202 0.035987 -0.035759 -0.012817 -0.081474 -0.020979 0.039853 0.015871 0.058562 -0.079128 -0.038934 0.002247 0.007258 -0.122011 -0.192033 -0.041143 0.019331 0.018908 -0.121610 0.005195 -0.063418 -0.064907 -0.023763 -0.016052 0.031400 -0.046972 -0.177435 0.023352 -0.084570 -0.031382 -0.073367 -0.156813 -0.108914 -0.110369 -0.127620 -0.038306 -0.002398 0.056561 0.003815 -0.047687 -0.108944 0.030836 -0.036195 -0.199196 0.097095 -0.061424 -0.022625 -0.071073 0.004622 -0.166170 -0.026151 0.027125 0.052279 0.013541 0.091817 0.043010 0.073135 -0.012999 0.053122 -0.250841 0.138623 -0.196330 0.065368 -0.140840 0.064325 0.105450 -0.041462 0.150926 -0.027684 0.027833 -0.109406
-0.166277 -0.158019 -0.201960 -0.004090 -0.110563 -0.126281 0.034992 -0.085968 0.030254 0.006868 -0.029530 -0.084648 0.050511 -0.147143 0.028919 -0.378073 -0.097699 -0.114100 -0.049269 -0.067765 -0.020240 -0.022573 0.022835 -0.231392 -0.161245 -0.156733 -0.030719 -0.012118 0.100993 -0.037620 -0.002277 -0.156083 0.039694 0.047164 -0.060672 0.016524 0.010158 -0.129685 -0.026252 0.069763 -0.074975 -0.155071 -0.075528 -0.066568 -0.081146 -0.016616 -0.112683 0.120346 0.046362 0.038035 0.044122 -0.031207 0.047158 -0.024504 -0.052842 0.077566 -0.374882 -0.074340 -0.001139 0.004438 0.005380 0.070812 0.120190 0.077775 -0.052185 -0.093428 -0.120946 -0.046227 -0.118560 -0.060193 -0.343304 0.029931 -0.188150 -0.024600 -0.016805 0.094963 0.006196 0.010666 -0.036305 0.009618 0.004381 -0.109994 0.011433 -0.093676 -0.240915 0.002365 -0.050220 -0.062936 -0.079343 -0.114737 -0.011230 0.043798 -0.025212 0.107336 -0.067336 0.134956 0.063232 0.025776 0.044405 0.046932 -0.093335 0.082597 -0.044682 -0.094507 -0.023928 -0.023958 0.059860 -0.004980 0.046460 -0.000872 -0.002557 0.015755 -0.051720 -0.204982 -0.020654 -0.053346 -0.063254 -0.112423 0.053490 0.071222 -0.193589 0.090048 -0.108007 -0.023297 0.114071 -0.150443 0.096534 -0.044026
0.018119 -0.151875 -0.208296 0.019155 -0.011000 0.102097 0.079820 -0.042200 -0.125771 -0.206845 -0.215162 -0.012042 0.008448 -0.048486 -0.008726 0.005570 0.236732 -0.141681 0.021407 -0.081462 -0.132198 -0.011314 -0.019499 -0.245955 0.108268 0.083846 -0.126326 0.069433 -0.068636 -0.065747 -0.067806 0.094503 -0.132908 0.042936 0.026612 -0.172135 0.000477 -0.033109 -0.046069 0.004125 -0.036943 0.041928 -0.070624 0.054859 0.110055 0.148295 -0.108144 -0.078690 0.031182 0.001759 0.083503 0.069030 -0.234895 -0.030293 -0.076839 -0.194964 -0.193639 0.054268 -0.116343 -0.046504 -0.034994 0.126629 0.020869 0.005546 0.046396 -0.041376 0.063139 -0.145249 -0.111989 0.033379 -0.093819 -0.056718 -0.098913 -0.094608 -0.002049 -0.076099 0.100035 -0.016722 -0.158751 0.043661 0.050639 0.083763 0.137313 -0.139443 -0.048075 -0.067913 -0.001699 -0.030336 -0.150607 -0.014308 -0.081659 -0.067558 -0.007741 0.037536 -0.059729 -0.001062 0.016161 0.081556 -0.035492 0.033420 -0.028371 -0.010235 -0.075514 -0.136332 0.021145 -0.035217 -0.018366 -0.066125 -0.081802 -0.027330 0.047020 0.005137 0.135640 0.027449 -0.035757 -0.162737 -0.065398 -0.043061 0.031743 0.036862 -0.178259 -0.063167 -0.079875 0.005992 -0.031513 0.110656 0.073365 -0.050258
-0.066974 0.009701 -0.002251 0.019393 -0.014752 -0.152732 0.067986 0.087967 -0.030005 -0.041770 -0.038925 -0.052592 0.031809 0.117813 -0.042124 0.061041 -0.524098 -0.028936 0.124256 -0.019610 0.011312 -0.090045 -0.027888 0.070037 0.061622 0.119812 -0.016936 -0.205310 0.100221 -0.001869 0.065788 -0.051124 -0.026602 0.010783 0.079088 0.005813 -0.051967 0.138223 0.097050 -0.028098 -0.055344 0.063481 -0.151772 -0.030309 -0.182178 0.106059 0.046346 0.104701 0.027411 -0.130221 0.003714 -0.126925 -0.129456 0.019228 -0.102143 0.004527 -0.006710 -0.043391 0.098334 0.075567 0.004811 -0.113273 -0.044351 0.007811 0.001976 -0.065267 -0.003616 0.174748 -0.112218 -0.129587 -0.060093 -0.119730 -0.024575 0.100720 -0.159789 -0.035807 0.018008 0.026706 0.048599 -0.006349 0.035762 0.050294 -0.060268 0.065228 0.099677 0.053660 -0.044778 -0.102813 -0.243561 -0.222177 -0.054221 0.035303 0.086100 0.147233 -0.129942 -0.124012 0.007171 0.043078 0.051737 0.025239 -0.111795 -0.011744 0.073013 -0.037527 0.049883 0.028988 -0.147874 -0.053054 0.034572 0.053002 -0.070066 0.002384 0.002966 0.051580 -0.019588 -0.029682 -0.110477 0.007419 0.032854 -0.055959 0.028453 -0.009686 0.059870 0.036388 0.090184 -0.040163 -0.020736 -0.060599
0.088459 -0.068575 0.125033 0.019408 0.058503 0.044487 -0.010159 -0.020187 0.057334 -0.009077 0.116156 0.011847 -0.027924 0.104983 -0.132442 0.179690 0.319111 -0.038504 -0.054835 -0.086477 0.094235 0.072043 0.081644 -0.146231 0.074018 0.180666 -0.037106 0.240072 0.065168 0.002875 -0.098072 -0.040272 -0.035022 0.090508 -0.090574 -0.184897 0.157692 0.111788 -0.180231 -0.103463 0.032020 0.112104 0.009015 0.017389 0.193728 0.030128 0.091614 0.075715 0.045044 -0.037923 0.055129 0.040422 0.028850 0.131226 -0.005249 -0.075894 0.014666 0.022335 0.016662 -0.126785 0.098874 0.021020 -0.120656 0.002760 -0.140869 0.093795 -0.016698 -0.048906 -0.018240 -0.099190 0.079542 0.014735 0.044177 -0.053424 -0.218369 -0.208672 -0.129399 -0.085075 0.047649 0.060281 0.073479 -0.035573 -0.007045 -0.120157 -0.009213 0.073035 0.050242 0.125109 0.208939 0.235434 0.022067 -0.000286 0.089993 -0.028823 -0.116199 -0.072238 -0.082256 0.011737 -0.060257 -0.014574 -0.096842 -0.007220 0.053466 0.040809 0.073098 -0.022105 0.003735 -0.161946 0.070774 0.014718 -0.028616 -0.032113 -0.064078 0.015931 0.113331 0.094832 0.059365 -0.146386 -0.033403 0.014098 -0.036312 0.036524 0.071508 0.039830 0.113242 -0.048011 0.088747 0.103164
-0.004430 -0.077153 -0.012796 0.129918 0.032785 -0.090126 -0.137420 -0.038863 0.070293 -0.000249 -0.027153 -0.044953 -0.052134 0.009382 -0.002916 0.178432 -0.058017 0.096287 0.045955 0.011829 0.175041 -0.033203 -0.114934 0.390036 -0.058571 -0.012756 -0.091280 -0.143762 0.093540 0.021916 0.020094 0.060907 0.055901 -0.202075 -0.012682 0.027801 -0.096611 0.071549 -0.017025 -0.095820 -0.022883 0.025364 -0.038042 0.014666 0.027146 -0.106016 0.025356 -0.005791 -0.070108 -0.065810 0.067128 0.011646 0.030958 -0.094179 0.033869 -0.066259 0.034811 0.067264 0.057960 0.021518 -0.024705 -0.036274 -0.003819 -0.193233 -0.046866 0.146203 -0.053720 -0.106915 0.066126 -0.140915 0.086393 0.042666 0.096870 0.060386 -0.009817 0.030857 -0.054424 0.023987 -0.079011 0.020218 -0.155629 -0.039662 -0.087322 0.110581 0.055501 0.090776 -0.049731 -0.090971 0.036284 -0.118859 -0.024488 0.059908 0.035427 -0.199517 0.025196 0.041877 -0.067020 -0.035937 -0.032331 -0.113234 0.060999 0.003922 0.065677 0.139951 0.081568 0.198685 0.087422 -0.035310 -0.080308 -0.242732 0.060499 -0.109216 0.057056 -0.088263 -0.125509 -0.082512 0.015930 0.151178 -0.119953 0.035911 0.102279 -0.036509 0.125334 -0.051874 0.091719 -0.122411 -0.112818 -0.028350
-0.002189 0.005200 -0.193400 0.005913 0.020574 0.062775 0.067253 0.089553 -0.078214 -0.049042 0.085920 -0.048657 0.073439 0.116123 -0.083038 -0.107451 0.485383 -0.048528 0.047978 -0.047949 -0.098058 0.056925 -0.001668 -0.319455 0.095799 -0.009884 -0.049472 0.154767 -0.000021 0.055299 0.023026 -0.099845 -0.016092 -0.095936 0.083598 -0.051085 0.081040 0.016819 0.035860 0.061047 0.073665 0.028163 0.034649 -0.016514 0.212288 0.027906 -0.070731 -0.063742 -0.010752 0.025054 0.039266 0.135368 0.071143 0.135096 -0.078136 -0.031557 0.028017 0.013212 -0.111527 -0.028025 0.098172 0.084302 -0.042268 0.076009 0.057141 0.066520 0.039927 0.052203 0.098037 -0.002192 -0.145065 -0.016850 -0.102743 -0.096848 -0.099768 0.137801 0.008269 -0.027440 -0.111329 0.084535 0.034354 -0.021495 -0.006342 -0.124430 -0.105094 -0.110567 0.043031 0.039353 -0.005262 0.226134 -0.007950 0.018974 0.095396 0.033822 -0.031602 -0.050567 0.176796 -0.011066 -0.064219 0.046765 -0.061478 0.022475 -0.033306 -0.094695 0.155783 -0.091967 0.068041 -0.096461 0.046212 0.061648 -0.022781 0.063306 -0.039394 -0.036641 0.087614 -0.074202 -0.029089 0.001632 0.089739 -0.072365 -0.027355 -0.006980 -0.053700 -0.052370 0.029622 0.136551 0.065416 -0.008627
0.048008 0.005364 -0.035748 0.139816 0.040491 -0.019372 0.043092 -0.039023 0.006022 0.058025 0.039384 -0.115791 0.045763 0.079672 0.037123 0.185003 0.055605 -0.074028 -0.074220 -0.058671 0.133142 -0.060273 -0.096070 0.310583 -0.060860 0.102728 0.087176 -0.025903 0.140830 -0.054386 0.159653 0.015858 -0.014932 -0.125549 -0.000108 0.110576 0.065813 0.012817 0.082730 0.004239 0.037901 -0.035915 -0.194802 -0.005701 0.001937 -0.070488 -0.037960 0.088286 -0.142774 0.051334 -0.059997 0.085769 -0.039213 -0.030138 0.160020 0.055152 -0.072432 0.016276 0.030179 -0.137086 -0.018563 0.082586 0.049301 0.028204 -0.187576 0.158657 -0.268171 0.059302 -0.028278 -0.034611 0.027690 0.039287 0.187891 0.067776 -0.033047 -0.039959 -0.126658 -0.075271 0.007580 0.025006 0.085323 0.055734 -0.227202 -0.014926 -0.084287 0.238537 -0.098275 0.074896 0.173276 -0.043010 -0.078272 0.080569 -0.028126 0.045533 0.008662 0.029140 -0.050505 0.049480 -0.042421 -0.094329 -0.222235 0.012874 0.037677 -0.137609 0.081779 0.078710 0.086944 0.171503 -0.008968 -0.035855 0.040718 0.142763 -0.061066 0.139697 -0.078898 0.142041 -0.033911 0.023674 -0.092287 -0.002098 0.061642 0.028143 0.149334 0.000521 0.056305 -0.080810 -0.045742 -0.163143
0.034616 0.052849 0.045636 -0.015664 -0.005463 0.080653 0.064979 0.029501 -0.017043 -0.019566 0.149768 0.008013 -0.059873 -0.044962 -0.033863 0.036604 0.517257 0.006998 -0.051964 -0.038729 -0.044113 -0.049429 0.171079 -0.051635 0.034567 0.075150 -0.053707 0.092601 0.035657 0.102661 -0.022596 0.059965 0.058203 -0.012238 -0.029591 -0.018338 0.084019 0.013594 -0.076684 0.032524 0.158196 0.115438 0.113855 -0.012386 0.302730 0.042991 0.011341 -0.127047 0.093149 -0.166986 -0.011076 0.127936 0.072835 0.087399 0.045444 -0.129688 0.056067 0.057838 -0.202685 -0.043052 0.037052 0.087501 -0.002591 0.078177 -0.058608 0.052587 0.080162 -0.042261 0.064229 0.090157 -0.010303 0.094000 0.012841 -0.050307 -0.056999 -0.099467 -0.131168 -0.068032 0.057699 0.053379 0.166479 0.013795 0.069302 -0.081565 -0.069476 -0.011225 0.058928 0.010942 0.074183 0.231318 0.053863 -0.078463 0.053006 0.098290 0.030090 0.026776 0.032075 0.057814 0.021523 -0.030101 0.004640 0.052859 -0.112170 0.017972 0.083673 0.026618 -0.004830 -0.096428 0.035090 0.094596 0.011290 -0.035620 0.032722 -0.047233 -0.011332 0.051174 0.073458 -0.071381 0.098696 -0.065204 -0.055811 -0.129618 -0.044129 0.000585 0.024904 0.123179 -0.008085 -0.106582
0.051796 -0.162468 -0.086074 0.160764 0.038164 -0.047627 0.098721 0.051844 0.112186 0.059422 -0.208610 0.054040 0.067819 0.175408 -0.069176 0.053530 -0.090104 0.185566 -0.029062 -0.059165 0.106166 -0.082805 0.006319 0.293025 -0.014284 -0.093628 0.142265 0.042846 0.005695 -0.122080 -0.026602 -0.043621 -0.005446 -0.073372 0.062088 -0.069048 -0.153229 -0.006921 0.175778 0.006676 -0.118035 0.059731 0.023912 -0.154277 -0.103581 -0.092484 -0.040667 -0.023119 -0.134726 -0.076659 0.006106 -0.191719 0.006728 0.038923 -0.018316 0.155449 0.052893 0.031034 0.086649 -0.017334 -0.067593 -0.234429 -0.056734 0.001594 0.035886 -0.014938 -0.082284 0.089816 -0.127866 -0.033285 0.087706 0.014013 0.031905 0.044407 -0.126198 0.069278 -0.038406 0.068951 -0.111381 0.077927 -0.055145 0.076406 -0.166580 0.126738 -0.012838 0.112075 0.201580 -0.013605 -0.003525 0.112422 -0.133622 0.084221 -0.052129 0.015069 0.043496 -0.042539 0.072920 -0.086479 0.083293 -0.057287 -0.169853 0.143568 -0.093674 -0.056397 -0.038989 0.070329 0.000456 0.020038 0.029686 -0.286880 0.102753 0.080851 -0.172259 -0.008648 -0.024104 -0.020526 -0.039623 -0.046746 0.016178 -0.048001 -0.002190 0.087843 0.018800 -0.153212 -0.022094 -0.012565 -0.044313 -0.134658
-0.075994 0.051439 0.249566 -0.082678 0.003973 0.078058 0.176171 0.018631 -0.095880 -0.059918 -0.036496 0.168663 0.010803 0.062388 -0.052374 -0.040602 0.113611 0.041951 -0.075206 0.046151 -0.079997 -0.090869 0.038416 -0.064840 -0.028178 0.017014 -0.111157 0.098459 -0.105237 0.008204 -0.126183 -0.115771 -0.080436 0.188568 0.055269 0.035549 -0.017294 0.146195 -0.133882 -0.065772 0.117532 -0.034441 -0.011838 0.001738 0.096127 0.084042 0.053352 0.057874 0.024744 0.094098 0.012952 0.003001 -0.017398 -0.022548 -0.002642 -0.144888 -0.066138 -0.160354 -0.148735 0.189047 0.005138 0.159661 -0.043940 0.058762 0.040681 0.027113 0.033755 0.039432 0.020526 0.274165 -0.033477 0.037962 0.009613 -0.025123 -0.070875 -0.138672 -0.022966 0.077743 -0.182253 0.047400 -0.035531 -0.095075 -0.013775 0.127820 0.088033 -0.044743 0.145947 -0.092857 -0.090621 -0.042579 0.007611 -0.015306 0.152200 0.126209 0.147191 -0.058317 -0.271561 0.024029 -0.097289 -0.067196 -0.135880 -0.073670 0.079841 0.029714 -0.128105 -0.090246 0.054383 0.044476 0.061969 0.068791 -0.137682 -0.035605 0.003896 -0.044908 -0.062738 -0.106269 -0.111363 -0.126740 0.119670 -0.115688 0.019310 0.012588 0.082037 -0.098610 0.054741 0.002316 0.138634 0.114152
0.033572 -0.056513 -0.047145 0.165569 -0.095587 0.127049 0.102120 0.040263 -0.078417 -0.006933 0.011963 0.169101 0.051336 0.064401 0.009890 0.026610 0.285000 -0.078812 -0.034705 0.027516 -0.114634 -0.125868 0.171002 -0.039729 0.099303 0.074721 -0.104960 0.187086 0.034079 0.075650 -0.136546 0.103775 -0.060209 -0.039702 0.036040 -0.033243 0.104686 0.087934 -0.086040 0.042709 0.150840 0.065579 0.075366 -0.084882 0.185392 -0.045000 0.011126 -0.178103 0.132352 0.150579 0.062484 0.088315 -0.024038 0.040064 -0.250475 0.069775 -0.041229 -0.057462 -0.143979 0.020055 0.089059 0.045855 0.035469 0.045090 0.064620 0.115135 0.031111 -0.089869 -0.101929 0.154410 -0.139859 0.007571 0.014328 -0.110004 -0.039612 -0.069380 0.065884 0.056522 -0.017544 -0.044654 0.074567 -0.012911 -0.006942 -0.238313 -0.027852 -0.139871 0.117819 0.105814 -0.001610 -0.023287 0.006829 0.072381 0.001386 0.142526 -0.042381 -0.000827 0.076914 0.079967 0.066113 0.068538 0.032389 0.014496 0.003101 -0.166894 0.160337 -0.103806 -0.121815 -0.042894 0.048897 0.131594 -0.134843 -0.076238 0.028906 0.028817 -0.092229 -0.143866 0.008825 -0.133902 0.139403 -0.054144 0.082443 -0.009755 0.006775 -0.199136 -0.036023 0.170439 0.075941 -0.018914
-0.080732 0.012287 -0.047404 0.071694 -0.125080 0.067802 0.072067 0.161582 -0.017777 -0.049689 0.111239 -0.069621 0.004982 0.023799 -0.061050 0.029861 -0.033065 -0.096578 -0.014449 -0.024863 -0.042173 0.135620 -0.046515 0.009115 0.115926 0.182785 -0.086064 0.076405 -0.153779 0.173756 0.162836 0.142956 -0.004912 -0.090197 0.051435 -0.190421 -0.028334 -0.009673 -0.079226 0.094625 -0.169661 0.019878 -0.027820 -0.032615 0.095322 0.018800 0.168444 -0.028677 0.161850 -0.019218 -0.029190 0.001338 0.103099 -0.091304 -0.137909 0.128430 0.138705 0.001977 0.162937 -0.038096 0.092786 -0.106734 0.155934 0.066428 0.065584 0.132650 0.176742 0.124848 -0.156205 -0.052401 0.116803 -0.023840 -0.143516 -0.102408 0.032696 0.128956 -0.064813 -0.086186 0.206495 -0.123423 0.082554 0.034366 0.067809 0.097391 0.043467 0.142307 -0.033511 -0.100378 -0.010825 -0.190718 -0.039493 0.023735 0.019552 0.050542 0.179338 0.036162 0.134561 -0.086650 0.058949 0.031694 0.101214 0.004282 -0.030107 -0.012293 -0.132238 0.001402 0.042377 -0.111730 0.073461 0.046148 0.121570 0.004152 0.145675 0.175398 0.109500 0.016209 0.037755 0.051867 -0.023627 -0.041361 -0.072280 -0.176363 0.067338 0.102008 0.068654 -0.010886 0.038008 0.008371
-0.060493 0.018392 0.155404 0.012313 -0.119292 0.124117 0.103222 -0.109589 0.037079 0.109585 0.104821 0.029127 0.048117 -0.129159 0.160332 -0.056404 0.017155 -0.026050 -0.069242 0.070453 -0.122445 0.025284 -0.086057 -0.002918 -0.315696 0.130478 -0.086511 0.045365 -0.040034 -0.076601 -0.022552 0.029125 -0.109156 -0.166585 -0.096732 0.040821 -0.019851 0.123254 -0.095405 0.096563 0.014140 -0.106812 -0.005854 0.099902 -0.408993 -0.067767 -0.041167 -0.057987 -0.192054 0.103178 0.014087 0.078268 -0.060025 0.081840 0.281910 0.045474 -0.068496 0.022857 -0.022037 0.006656 0.005486 0.118235 -0.046272 -0.009260 0.034979 -0.087065 -0.098860 -0.015938 0.077680 -0.163876 -0.101956 -0.070777 0.085788 0.152679 0.053072 -0.070660 0.020236 0.045580 -0.046949 -0.021536 0.081228 0.032592 -0.072500 -0.136120 -0.089400 -0.159291 -0.211586 0.006046 0.046976 -0.083317 -0.022166 -0.013721 -0.027724 0.056800 0.028093 0.180657 0.110784 0.079869 0.004253 0.046606 -0.024846 0.050538 -0.071863 -0.047527 -0.049390 0.029420 0.068384 0.164327 0.096152 0.045994 0.067008 -0.001767 -0.065453 0.127389 -0.092929 0.236590 -0.019668 0.045677 -0.133355 -0.129363 -0.183396 -0.048245 0.154071 -0.033425 0.070134 0.034217 -0.014074 -0.021020
0.045134 -0.044892 0.042600 0.030360 -0.005735 0.081569 -0.063160 0.034981 0.011104 -0.165167 -0.027411 -0.065529 -0.027943 0.165850 0.022982 -0.027220 0.372845 -0.066395 -0.060647 -0.123974 -0.034741 -0.052000 0.108818 -0.012173 0.076043 0.119345 -0.068766 0.258345 0.095389 -0.033639 -0.095601 -0.212503 0.032410 0.055320 -0.060463 -0.005038 -0.031011 0.053325 -0.012027 0.022354 0.088486 0.090292 -0.078173 -0.020887 0.141322 -0.042513 -0.000502 -0.097592 0.045365 -0.129508 -0.053651 -0.027279 0.101685 -0.043860 -0.207266 -0.001778 0.187620 0.074894 0.036927 0.006624 0.131100 -0.058569 -0.058573 -0.060595 -0.066989 -0.018190 -0.040164 0.083975 -0.117079 -0.026016 0.182748 -0.010364 -0.111269 -0.013530 -0.104261 0.062761 -0.117587 -0.001979 -0.091916 0.097211 0.096329 -0.140392 -0.044031 0.093838 0.064635 -0.095926 0.115784 0.036236 -0.063653 0.232690 -0.150025 0.032607 0.101311 -0.039449 -0.069205 -0.088912 -0.087042 0.003315 -0.020901 -0.063250 0.006139 0.093897 -0.200623 -0.012237 0.093630 0.075860 0.138002 -0.014273 -0.045262 -0.030114 0.103135 0.061818 -0.004508 -0.029798 -0.220073 -0.185016 0.038811 0.090647 0.085152 -0.064176 0.049854 -0.079958 0.088723 -0.157778 -0.096830 0.069275 0.039828 -0.048823
0.018289 0.069653 -0.030919 -0.120888 -0.033353 0.041351 -0.200283 0.089959 -0.026016 -0.092950 0.045302 -0.282465 0.092911 -0.036851 -0.046934 -0.015055 0.227517 -0.059784 -0.124558 0.061108 -0.066696 -0.087876 0.240489 -0.075029 0.026000 0.032703 0.010489 -0.021330 -0.040983 0.007105 -0.046499 0.041681 0.006359 0.100665 -0.098745 0.171976 0.033928 -0.131783 -0.024330 -0.042995 0.153324 0.030361 -0.005443 0.013000 0.077457 0.043816 0.031172 -0.014113 0.098529 -0.164022 -0.154536 0.091022 0.171434 0.165516 -0.063424 -0.029816 0.053741 -0.013297 0.016543 0.019439 -0.002983 0.147423 0.014366 0.160538 0.015358 0.022332 -0.016684 0.096203 -0.038217 0.263531 -0.043389 -0.006255 -0.034224 -0.039177 -0.059753 0.003621 0.038866 0.024304 -0.065099 -0.084146 0.148568 -0.029283 0.054703 0.131782 -0.026768 0.060589 -0.123759 -0.010298 -0.053046 0.038264 0.041073 -0.067340 0.045207 -0.124747 -0.049530 0.097350 -0.078053 0.141476 -0.033762 -0.078533 -0.026991 0.075949 0.010634 -0.020077 0.138049 -0.021967 0.088040 -0.055483 0.095040 0.028455 -0.016516 0.063460 -0.088851 -0.102469 -0.097576 -0.160459 -0.045050 0.044122 0.011671 0.099862 -0.121750 -0.067505 -0.103430 -0.206346 -0.013688 0.130360 -0.085595 0.026827
0.018152 -0.105893 -0.253558 -0.092769 0.008056 -0.027521 0.049219 -0.005535 -0.154101 0.023307 0.032222 -0.165372 -0.051301 -0.116566 -0.034442 -0.049690 -0.210270 -0.104908 0.043948 -0.234484 -0.090933 0.095443 0.045865 -0.266064 0.070192 -0.183008 -0.133909 0.071048 0.150699 0.047403 -0.002672 -0.131573 0.036902 0.093124 -0.057409 0.095777 -0.032703 -0.105547 0.000373 0.054211 0.109017 0.100505 0.064912 0.044690 -0.032221 -0.089685 -0.079441 0.079413 0.000048 -0.039821 -0.060298 -0.005179 0.103950 0.011645 -0.146061 -0.052613 -0.411435 0.052291 -0.083090 0.039136 0.052873 -0.112703 0.121465 -0.049268 -0.034803 0.032927 0.033980 0.051253 -0.038919 0.077232 -0.072380 0.172385 -0.206304 0.016737 0.102272 0.022065 0.042449 -0.090385 -0.044500 -0.074121 -0.050152 0.041645 -0.151431 -0.042422 -0.173889 -0.015999 0.079403 -0.035035 -0.064216 -0.102588 0.048136 0.066524 0.039426 0.042554 0.070664 0.009036 -0.054527 0.052335 0.063292 -0.080521 0.017543 -0.016665 -0.006787 -0.019605 0.146523 -0.000553 0.029660 -0.096937 -0.058217 -0.157180 0.002536 0.082307 -0.221122 -0.088821 -0.031739 0.000582 0.067029 -0.084403 0.099283 -0.045836 -0.125037 -0.012800 -0.143553 0.001722 -0.144778 -0.072800 -0.007973 -0.017794
0.008632 0.116858 -0.123170 0.106305 -0.006200 -0.025150 0.079309 0.069728 -0.034923 0.037674 -0.030601 -0.180650 0.038829 0.026049 -0.037854 0.021509 0.012137 0.037053 0.046783 -0.182584 0.073533 0.022419 -0.099313 0.383162 -0.006009 0.057265 0.004975 -0.061918 -0.115285 -0.141523 0.040219 -0.087376 -0.082984 -0.123337 -0.024864 -0.100561 -0.044759 0.003702 0.205397 0.034723 0.072311 0.127707 -0.013526 -0.069569 0.009251 0.017240 -0.090889 -0.154552 0.061013 -0.084846 -0.001197 0.046587 0.058073 -0.096146 0.017687 0.060339 0.120795 -0.074726 0.048356 -0.111838 -0.020756 -0.057321 -0.141474 -0.070476 0.005357 -0.058591 0.079380 0.105231 0.044216 -0.065976 0.208755 -0.013879 0.056811 0.054191 -0.017618 0.086258 0.081778 -0.004969 -0.000771 0.019549 -0.059194 -0.066639 0.020878 0.033908 -0.003622 0.060344 -0.031872 -0.040190 -0.227326 0.069607 -0.013019 0.011986 0.049626 0.115726 -0.020536 -0.117370 0.005819 0.064805 0.061118 -0.129909 -0.114588 0.058137 -0.081981 0.027906 -0.010319 0.107313 -0.032052 -0.035389 -0.173789 0.007113 -0.019904 -0.058599 0.116379 -0.110790 -0.052648 -0.233692 0.087200 0.040436 0.044986 -0.057088 -0.031712 -0.057177 0.140353 -0.122237 -0.145270 -0.051134 0.022180 -0.026781
0.088500 -0.071010 -0.064357 0.073243 -0.016187 0.005374 -0.143070 -0.039474 0.107124 0.123700 0.010252 -0.116292 -0.042777 0.038896 0.001754 0.156502 0.059333 0.124880 0.012391 0.029061 0.080430 0.006128 -0.080580 0.377968 0.042733 0.001734 0.070228 0.012704 0.008281 -0.074187 0.219746 0.062987 0.117123 -0.004665 -0.020125 0.042130 -0.072025 -0.012363 0.127913 -0.042555 0.040907 -0.031403 0.028135 -0.037536 -0.004831 0.019570 -0.020420 0.083299 -0.089608 -0.101512 -0.008661 -0.094533 -0.044109 0.026089 0.081554 0.108291 -0.017146 0.138789 0.081144 0.027927 0.012932 -0.096030 0.037333 -0.032920 -0.113731 0.180376 -0.062272 0.027584 -0.020546 0.025160 0.104769 0.032930 0.265890 0.026267 0.046189 0.110032 0.042044 -0.058973 0.030070 -0.045422 0.008888 -0.002366 0.016253 0.077901 0.057210 0.149964 -0.062435 0.027481 0.113281 -0.085647 0.012022 -0.002427 0.013355 -0.183945 0.028963 0.050384 0.084439 0.095959 0.070087 -0.098059 -0.055602 0.113052 -0.059879 0.087053 0.019464 0.081590 0.104720 0.053861 -0.179991 -0.231898 0.031298 0.012900 -0.109191 -0.054276 0.061247 0.003773 0.017074 0.057769 -0.022742 0.027430 0.167406 -0.113036 0.138286 -0.132172 -0.092836 -0.004260 -0.121672 -0.066891
0.025157 0.042653 -0.067613 0.005981 -0.059609 -0.065657 -0.067032 0.001676 -0.022658 -0.033595 -0.037658 -0.171431 -0.031824 -0.023973 -0.176280 -0.029227 0.075230 -0.032152 -0.039744 -0.021068 0.030270 0.054100 -0.069604 0.142289 0.105318 -0.172380 -0.088943 -0.103911 -0.101893 -0.069022 0.063778 0.154764 -0.053775 -0.222659 0.048596 0.087921 -0.185740 -0.376381 -0.052877 0.144345 0.054720 0.051675 0.086100 -0.217411 0.131370 -0.128875 0.034286 -0.041278 0.033789 -0.081633 0.016938 -0.014169 0.127297 -0.112266 0.093325 0.079069 0.214843 0.041767 -0.094270 -0.020062 0.006776 -0.001662 -0.057733 -0.053668 0.088611 0.059882 -0.037534 0.103330 0.150186 0.046876 0.102104 0.043272 -0.136521 -0.008456 0.008223 0.026845 0.159303 -0.060756 -0.079426 -0.062206 -0.115435 -0.052550 -0.031152 -0.080644 0.044484 0.051201 -0.017745 -0.027911 -0.083107 -0.117409 0.050456 -0.116349 0.135040 -0.042293 -0.047940 -0.115580 0.078343 -0.000217 -0.012017 0.007461 0.052641 0.058921 0.024428 0.031022 0.036076 -0.039188 0.006268 0.080722 -0.156536 -0.017034 -0.054452 -0.154433 0.085547 0.019926 -0.013257 -0.147715 0.043760 -0.047549 -0.003226 -0.195229 0.028089 -0.114715 -0.196612 -0.017075 -0.005012 0.147582 0.020365 -0.031623
-0.079663 -0.076465 -0.098079 -0.023095 0.067306 -0.110418 0.045867 0.031909 -0.009253 -0.005433 -0.041983 -0.152624 0.035228 0.036919 0.133062 0.049266 -0.421657 -0.017994 0.020710 -0.026938 0.112688 -0.066441 -0.124897 0.037669 -0.170582 0.076098 -0.012646 -0.310747 -0.018738 -0.081323 0.096397 -0.071528 0.055796 0.027662 0.102996 -0.055670 -0.173014 0.032373 0.192702 0.142592 -0.046799 -0.052879 -0.212540 0.132760 -0.355932 -0.015887 -0.041870 0.064547 -0.008491 -0.060794 0.077884 -0.058787 -0.033116 -0.007545 -0.093965 0.018575 -0.093673 0.045367 -0.012362 0.050938 -0.014952 -0.075506 0.074482 0.038976 0.051162 0.000766 -0.027758 0.106175 -0.034860 0.034842 -0.083788 -0.036859 0.056822 0.092342 0.001766 -0.055202 -0.000535 -0.043201 0.028433 0.031416 -0.035766 -0.031271 -0.076293 0.052649 -0.068143 0.100815 -0.182845 0.079223 -0.146407 -0.079006 -0.065613 -0.037350 0.087896 0.085729 -0.018650 0.022868 -0.103578 -0.080051 0.055949 0.021756 -0.090418 0.125600 0.104983 -0.075837 -0.008195 0.061390 -0.037679 0.126159 -0.021978 -0.036145 -0.026513 -0.040549 -0.029460 -0.046270 0.160901 -0.081351 0.108888 0.061248 -0.034985 0.025010 0.055161 0.000484 0.020904 0.006619 0.079378 -0.268322 0.014156 -0.186821
0.047662 -0.099989 0.041967 -0.041125 0.013489 0.104949 -0.017541 -0.016384 0.015128 -0.004122 0.075400 -0.156325 0.041623 -0.001578 -0.045085 0.097878 0.452507 -0.045687 -0.089732 0.068358 -0.034989 0.073183 0.009190 -0.201440 0.108293 0.123807 -0.053732 0.228300 0.055660 0.079192 -0.122349 -0.055172 -0.078311 0.041998 -0.024846 0.071290 -0.017672 -0.023722 -0.122645 -0.152982 0.115188 0.045470 0.019331 -0.000392 0.200227 -0.009303 0.015717 0.003910 0.014690 -0.167117 -0.073097 0.148339 0.116144 0.083833 -0.139693 0.042269 0.050570 0.105702 -0.045489 -0.121809 0.009744 0.020469 -0.145450 -0.035825 0.023295 0.035010 -0.116436 0.044113 -0.064850 0.099684 0.085541 0.016456 0.052443 -0.163377 -0.125558 -0.154726 -0.095666 0.015727 -0.052621 -0.084675 0.063250 -0.045439 0.063962 -0.023202 -0.044027 0.007060 -0.063860 0.169894 0.014138 0.214510 0.024192 -0.112356 0.127427 -0.125397 0.047186 -0.110121 -0.084131 0.101010 -0.037779 0.001770 -0.150684 -0.062225 -0.080898 0.104326 0.142342 0.032213 0.067334 -0.134736 -0.111250 -0.027033 0.127378 -0.098355 -0.045663 0.014921 0.012507 -0.013061 0.058089 -0.030346 0.077908 -0.190720 -0.038179 0.019380 0.150630 -0.018176 -0.098321 0.111247 -0.079544 0.020705
-0.091417 0.130140 0.094804 -0.097629 0.080705 -0.015611 -0.166816 -0.018772 0.073521 -0.095194 0.053915 -0.116517 0.080056 -0.002886 0.083459 0.089663 0.253804 -0.007843 -0.132009 0.173549 0.000711 -0.154900 0.171255 0.010584 -0.057388 -0.029814 0.158001 -0.045739 -0.010732 -0.022829 -0.096638 0.071698 -0.082803 0.140421 0.011328 0.064023 -0.084629 -0.165347 -0.030216 -0.033050 0.149557 0.058132 -0.014656 0.145505 0.023956 -0.074366 0.031575 0.088661 0.025247 -0.020716 -0.085959 0.060749 0.096924 0.144323 -0.371342 0.126560 0.112194 -0.083269 -0.090830 0.028155 -0.172543 0.111507 -0.167823 -0.013558 0.038903 -0.021171 0.053658 -0.078809 0.144657 0.150460 0.039738 -0.002697 -0.043742 0.058574 0.153283 0.080839 0.144571 -0.004237 0.122037 -0.031066 0.032419 -0.107926 0.070832 -0.025034 0.068416 -0.029156 -0.190566 0.089475 -0.041001 0.012026 0.077554 -0.089994 -0.105213 -0.195983 -0.004668 0.113190 -0.089101 0.086951 0.038158 0.068891 0.040027 -0.027970 -0.062770 0.033918 -0.010449 -0.202560 0.043238 0.134798 0.037808 0.061309 -0.021914 -0.109703 0.031758 0.052316 0.035072 -0.123213 -0.091231 0.077608 -0.187559 0.049494 0.044479 -0.037360 -0.044661 -0.100981 -0.126106 0.038376 -0.010677 0.131803
-0.089928 0.048604 -0.190337 0.026395 -0.065357 -0.038325 -0.008810 0.057541 0.016276 -0.162032 0.025278 -0.027165 0.054597 -0.106257 -0.029024 -0.113000 0.356338 0.020726 -0.052292 0.026521 0.095573 0.035133 0.043156 -0.232005 0.018402 -0.077587 -0.002034 0.144851 -0.022972 -0.005406 0.093036 0.018007 -0.093471 0.120916 0.036479 0.019054 0.121074 0.014935 0.056291 0.018343 0.157713 0.050938 0.085937 0.012028 0.165456 -0.025857 -0.004547 -0.078959 -0.059999 0.028212 0.096846 0.000008 0.092604 0.141256 -0.042996 -0.043586 0.005156 0.100244 -0.026749 -0.038377 0.038301 0.097186 0.036861 0.100680 -0.077708 -0.010297 -0.056146 -0.027597 -0.039427 0.139158 -0.093542 0.024536 -0.104796 -0.006499 -0.052402 0.052732 -0.140342 -0.072086 0.105004 0.129104 0.104168 0.092301 -0.051373 -0.131049 -0.066791 0.010916 -0.043336 -0.059756 -0.082989 0.049779 0.056330 -0.127370 -0.057295 0.013021 -0.011811 0.075664 -0.072567 0.087431 -0.068474 0.016388 -0.015825 0.070478 0.013057 -0.050629 -0.002043 -0.053297 0.081245 -0.051137 0.125079 0.080952 0.058681 0.010837 -0.059324 -0.197798 0.126817 -0.042076 -0.059292 -0.168818 0.027798 -0.057566 -0.072843 -0.124538 -0.396647 0.008544 0.054345 0.136201 0.030454 -0.118188
0.072228 -0.009254 0.039824 0.097173 -0.042958 -0.011320 -0.056872 0.049390 -0.038529 0.081263 0.051235 0.079654 0.071497 0.117978 0.051621 0.017505 0.113900 0.020354 0.037907 -0.027739 -0.007060 0.097662 0.145896 0.035281 0.004570 0.099055 -0.090165 0.177669 -0.004081 0.071363 0.039487 -0.089963 -0.082200 -0.125999 0.038920 0.085488 0.137953 0.068309 -0.093513 0.076762 0.028130 -0.051139 -0.096969 -0.082998 0.015970 0.003308 0.061176 0.002760 0.024137 0.004225 0.039870 -0.060010 0.050431 0.039737 0.434284 -0.026901 0.009055 0.104760 -0.026410 -0.122560 0.010280 0.020479 0.004870 0.202507 -0.028817 -0.038437 0.035619 0.004204 -0.108672 -0.096993 -0.022102 0.122082 0.030630 -0.004010 -0.055219 0.032956 0.087336 -0.013227 -0.033320 0.044930 0.124771 -0.022948 -0.040867 0.073953 -0.025369 0.098500 0.077163 -0.095016 0.083214 -0.160274 0.024429 0.042507 -0.033482 0.007308 0.282414 0.107692 0.094729 0.080934 -0.045739 0.100190 -0.049445 -0.051323 0.002752 -0.088687 -0.095792 0.083941 0.102816 -0.091097 0.026191 0.042608 -0.067576 0.105590 -0.039157 -0.046558 -0.016983 0.135140 -0.013561 -0.001534 0.093724 -0.043968 -0.158432 0.011080 0.131242 0.122706 0.136328 -0.038771 -0.005325 -0.033812
-0.001329 -0.065499 -0.111346 0.124702 0.044571 -0.048881 -0.151074 0.039719 -0.094087 0.020544 -0.023633 -0.010171 0.113515 0.024247 0.136566 -0.071147 -0.123156 -0.056766 -0.145845 0.154888 -0.002573 -0.024298 -0.092751 0.065521 -0.278484 -0.030319 0.150192 -0.107989 0.060318 -0.069949 0.080995 0.026959 -0.057526 -0.072745 0.029712 0.100081 -0.029595 -0.091125 -0.053254 0.083868 -0.081087 0.026593 -0.214738 -0.121666 -0.450571 0.017796 -0.041026 0.137371 -0.064914 -0.006450 -0.071024 0.082082 -0.002223 0.034399 0.110564 0.012560 0.145160 -0.106865 0.050811 -0.012652 0.013058 0.152098 0.175151 0.071989 -0.003265 -0.020760 -0.091729 0.007597 0.078558 -0.255771 -0.034687 -0.114664 -0.011599 -0.007978 0.037906 0.008999 0.097634 0.125182 -0.022444 0.113925 -0.060865 -0.065859 -0.013434 -0.163165 0.078452 0.084452 -0.257762 -0.035773 -0.121782 0.031012 0.009897 -0.021063 -0.038311 -0.147513 0.318012 0.101941 -0.100798 -0.019462 0.061264 -0.022946 -0.103320 -0.051507 0.101806 0.037066 0.088404 0.044634 0.035372 0.005692 -0.057741 -0.030540 -0.125189 0.004601 0.069251 0.041742 -0.106198 -0.088226 -0.200712 0.055183 -0.029428 0.072318 0.048526 0.171124 0.077072 0.086574 0.077434 0.042446 -0.048865 -0.116535
0.122075 0.014250 -0.115487 -0.007225 0.031680 -0.010266 -0.233611 -0.116123 -0.020868 0.046371 0.042704 -0.122596 0.104350 0.101721 -0.027763 0.051967 -0.132915 0.063701 -0.007955 0.096577 0.010633 -0.031668 -0.150159 0.179981 -0.079954 -0.099850 -0.036113 -0.074208 0.087524 -0.279597 -0.025084 0.022659 0.111865 0.054920 0.068585 0.169106 0.047334 -0.122079 -0.045981 0.015006 0.028945 0.049106 0.011754 0.070773 -0.175036 -0.035719 -0.004946 -0.029125 0.026864 -0.010746 -0.038351 0.154317 0.093936 -0.003710 0.080417 0.180009 -0.042886 -0.026896 0.056831 0.046009 -0.027233 0.039079 0.085487 -0.021779 -0.082700 0.081948 -0.049474 -0.050568 -0.026983 0.028665 0.063108 0.167476 0.182018 -0.144237 0.120713 0.119774 -0.050781 0.047687 0.009542 -0.028521 0.014729 -0.026447 -0.035570 -0.087644 0.047338 0.086451 -0.232387 0.002615 0.021696 -0.009315 -0.002546 0.035562 -0.104390 -0.247944 0.041787 0.091747 -0.055891 0.123969 0.122667 -0.027187 -0.094484 0.017078 -0.003989 -0.123159 0.106238 -0.053776 0.052261 0.038944 -0.037590 -0.134115 0.018671 0.084420 -0.062117 -0.063756 -0.051107 0.014717 -0.063540 0.002920 -0.141923 0.165306 0.010009 -0.007557 -0.179673 -0.054981 -0.036251 -0.000183 -0.151569 -0.023224
-0.036867 0.059890 -0.063169 -0.066990 -0.017898 -0.094808 -0.032014 0.013244 -0.138711 0.035215 0.022564 0.006189 -0.101237 0.071836 -0.027011 0.016479 -0.149362 -0.153304 0.111031 0.039439 0.060422 0.009866 -0.069957 0.076284 -0.006079 0.201651 0.025573 -0.164433 -0.037981 -0.014090 0.114378 0.080492 0.074565 -0.236308 0.063585 0.100379 -0.075929 -0.131374 -0.137930 -0.007869 0.007125 -0.111573 0.005105 -0.003801 -0.237036 -0.024524 -0.110591 -0.149040 0.012746 -0.106105 -0.019505 -0.048013 -0.340492 0.018444 -0.029396 0.047224 0.107888 -0.197007 -0.025865 0.076909 0.046140 -0.011215 -0.029423 0.067020 -0.080750 0.034603 -0.031296 0.073879 0.010361 -0.124396 -0.011953 -0.119901 0.054560 0.011023 0.092067 -0.148965 -0.063507 -0.036006 -0.080052 -0.006728 0.030124 -0.067253 -0.137021 -0.030362 0.074548 0.007005 -0.033718 -0.065464 -0.096021 0.032170 0.019284 0.056295 0.058626 0.101450 -0.103056 0.095855 -0.041277 -0.002322 0.080104 0.031257 0.012768 0.015206 -0.076370 -0.098444 -0.093751 0.043706 -0.239003 0.091754 -0.033452 0.062520 -0.102116 0.064803 0.050408 0.084774 0.014794 -0.029196 -0.080586 0.030001 -0.208542 0.004054 -0.009536 -0.125026 0.041053 -0.108635 0.144737 -0.017563 -0.132681 -0.014479
-0.238064 0.063621 -0.009679 -0.459250 -0.037527 0.008222 0.043305 -0.060741 -0.002114 0.038538 -0.079866 -0.269042 0.092845 -0.017487 0.020647 -0.188629 -0.196418 -0.116832 -0.054073 -0.035928 0.085097 0.105575 -0.012620 0.019651 -0.080189 -0.309850 0.033576 -0.193065 -0.044299 -0.041026 0.081798 0.083740 0.082747 0.002677 0.072156 0.074282 0.060308 0.049586 -0.053645 0.035058 -0.012526 -0.152884 0.016970 0.066328 0.053951 0.030134 0.066272 0.061647 0.027620 0.010245 -0.006154 -0.005941 0.002222 0.014944 -0.025267 -0.048409 -0.143304 0.005959 0.045265 -0.002654 0.026215 0.009505 -0.035359 -0.014476 0.036589 0.053290 0.076243 0.088934 0.001155 -0.009837 -0.292283 -0.070463 -0.193788 0.014683 -0.044299 0.002134 -0.131458 -0.032465 0.287235 0.030016 0.051868 0.070382 -0.005437 0.029688 -0.069977 0.066449 -0.008559 -0.139966 -0.095222 -0.229829 -0.048738 -0.035205 0.068862 -0.029974 0.020453 -0.056690 -0.073733 0.008759 0.045559 -0.020079 0.017297 -0.076078 0.079826 0.015097 -0.027439 -0.006297 0.049155 -0.062456 0.138442 -0.050529 -0.167512 0.050897 -0.058496 -0.196688 0.170394 -0.001950 -0.058098 -0.179129 0.063467 -0.011955 -0.033821 -0.062054 -0.360851 -0.055056 0.009299 -0.087369 0.002324 -0.001897
0.027124 -0.034858 -0.011722 -0.054754 -0.042995 -0.120947 0.082263 -0.031202 0.014895 -0.148306 0.030187 0.203197 -0.048407 0.101764 0.063648 -0.044416 0.095752 -0.091041 -0.061259 -0.183100 0.109674 -0.049998 -0.069025 0.074366 0.046845 -0.091413 -0.162983 0.002114 0.040285 -0.033896 -0.111578 -0.102111 0.036842 0.201048 0.142901 -0.014039 -0.043897 0.121188 0.116588 -0.002632 0.071714 0.120701 0.092814 0.010762 0.013975 0.026339 0.003368 -0.076188 0.065139 0.076937 0.024835 -0.120818 -0.019860 0.149981 -0.108719 -0.115730 -0.024259 -0.037224 -0.053429 0.151555 0.088022 0.063777 0.104096 -0.040455 0.098700 0.023422 -0.093639 0.160453 -0.007389 0.077363 0.027108 0.065204 0.034364 -0.035489 -0.084155 -0.043004 -0.084366 -0.036757 -0.193475 0.095192 0.042311 -0.009316 0.016370 -0.040432 -0.063805 0.078019 0.118135 0.076655 -0.038871 0.225546 -0.076297 0.031688 0.016772 0.141880 -0.050967 0.111839 -0.051042 0.083590 0.070229 -0.051507 -0.159215 0.123829 0.055562 -0.117450 -0.110850 0.054119 0.085977 0.116398 -0.005866 -0.018738 0.042199 0.236952 0.076671 -0.142930 -0.059022 -0.069922 0.028996 -0.352469 0.160912 0.044508 0.036432 -0.079903 -0.136188 0.077615 0.216355 0.191657 0.057944 -0.136636
-0.022351 0.067481 -0.024555 -0.016477 -0.023630 -0.129856 -0.037737 0.138825 -0.106851 0.049272 -0.102515 -0.077550 -0.021724 0.011079 -0.040048 -0.177529 -0.630578 0.016124 0.100563 -0.016979 -0.034376 -0.042319 -0.066501 -0.020328 0.005209 0.002251 0.061579 -0.191480 -0.122115 0.007872 0.084064 -0.028503 0.066754 -0.041634 0.078446 -0.031409 -0.060275 0.050987 0.053618 -0.007783 -0.070521 -0.051056 -0.032311 -0.133573 -0.235174 0.032011 -0.031333 0.132249 0.047989 0.009913 -0.081444 -0.187518 -0.219701 -0.120408 0.091984 0.015644 0.011776 -0.175488 0.002405 0.074391 0.059856 -0.241036 -0.130837 0.037255 0.042579 0.000395 0.068683 0.195467 -0.165841 -0.081365 -0.080676 0.024292 -0.036108 -0.003014 0.000004 0.111609 0.048056 0.036317 0.004988 -0.107066 -0.069054 0.036928 0.014513 0.107344 0.082566 0.044340 0.132440 0.046589 -0.016278 -0.098592 -0.182291 0.004267 -0.016917 0.081472 -0.170922 -0.129880 -0.043339 -0.025435 0.061248 -0.155620 0.008417 -0.038552 0.117499 0.027885 -0.120514 0.032349 -0.019818 -0.027098 -0.007035 -0.027985 -0.066425 0.059955 0.022968 -0.054340 -0.009904 -0.010175 -0.131939 0.000195 -0.034071 0.017350 -0.031814 -0.073963 0.059674 -0.044553 -0.067490 -0.028817 -0.023067 -0.106499
0.032448 -0.090318 0.035456 -0.023915 0.056063 -0.012702 -0.123685 -0.058784 0.107610 -0.117774 0.009179 -0.252850 0.000746 0.063131 0.014337 -0.065027 -0.066236 -0.260354 -0.037626 -0.101186 0.035340 0.044699 -0.068639 0.158930 -0.132429 -0.000188 -0.117408 -0.192975 -0.082915 -0.049254 -0.239734 0.016067 0.107701 0.059319 0.068505 -0.051515 0.014511 0.078646 -0.157545 0.025002 0.046893 -0.027878 0.125841 -0.006999 -0.010631 -0.017384 0.005799 -0.127507 0.078338 -0.080264 -0.097403 -0.016031 0.109131 -0.034245 -0.077366 -0.246573 0.018450 -0.243940 0.100697 -0.079676 -0.006851 0.147433 -0.035912 0.012452 0.082824 -0.042207 -0.033728 0.038271 0.050209 0.023580 0.158145 0.264736 0.012472 -0.015623 -0.084570 0.086370 -0.108670 0.028794 0.007988 -0.074513 0.046538 -0.149167 0.037142 0.090283 -0.030931 0.098609 -0.130949 -0.056958 -0.301768 -0.092835 -0.065040 -0.120514 0.002528 -0.006042 -0.054577 0.020476 0.048029 0.071195 0.038751 0.040643 0.025937 0.020743 -0.140822 0.094712 0.031571 0.042645 0.054232 -0.044066 -0.093084 0.012884 -0.191031 0.032708 -0.011416 0.091352 -0.149534 -0.145841 0.109709 -0.107539 -0.033949 0.002593 0.037658 -0.114665 0.104761 -0.104076 0.044205 0.034798 0.171140 -0.087651
0.028618 0.109003 0.060896 0.135152 0.000864 -0.096474 0.030287 0.097973 -0.113942 0.045737 -0.022019 -0.010117 -0.018464 0.088771 0.079430 -0.014244 -0.045018 -0.173137 -0.105664 0.099328 -0.039137 -0.034751 0.082355 0.016616 0.110221 0.156775 0.062051 0.119754 -0.117376 -0.001541 -0.250441 0.183623 0.092463 -0.033227 -0.153270 0.040217 0.110057 0.247553 -0.151267 -0.308723 0.026573 -0.126811 -0.007705 -0.124309 -0.001910 0.013738 0.145773 -0.056902 0.035624 0.004110 -0.033720 0.080610 -0.049936 -0.086813 -0.064778 0.064345 -0.067894 -0.080784 0.094761 -0.001372 0.065217 -0.059680 0.037494 0.070261 0.077722 0.070765 -0.065960 0.024548 -0.025052 0.067612 -0.090919 -0.031885 0.048643 0.129591 -0.004183 -0.097984 0.145210 0.060555 0.023749 -0.150774 0.017878 0.015150 0.098218 -0.093971 0.056475 -0.006285 0.070187 0.036692 0.032067 -0.058587 -0.066929 -0.073238 -0.010443 -0.039050 -0.213062 0.037592 0.006599 0.111265 -0.051051 -0.072920 0.098317 -0.041020 -0.024919 -0.090777 -0.015035 -0.106832 -0.105608 -0.176606 0.020156 -0.031194 -0.081660 -0.024730 -0.098774 0.149898 0.131036 0.013333 -0.146680 -0.117340 -0.108792 -0.092419 -0.013749 -0.002547 0.120161 -0.106438 -0.228643 0.034791 0.012246 0.029504
0.063144 0.084299 -0.016718 -0.106602 -0.025285 0.054920 -0.094837 0.000568 0.047928 -0.101162 0.054341 0.213034 -0.072987 -0.073500 0.086711 -0.114390 0.038255 -0.071806 0.084444 0.191218 0.003069 -0.137467 -0.090788 -0.009008 -0.125600 -0.074238 -0.020518 -0.041712 0.074004 -0.009119 -0.064135 0.023668 -0.011061 -0.036003 -0.201869 0.112762 0.148338 0.145616 -0.228692 -0.105314 0.110552 -0.166702 -0.040572 -0.097760 -0.009512 0.049387 0.027159 -0.018478 -0.051451 0.165670 0.018741 0.124922 -0.003611 -0.040506 -0.065591 0.074243 -0.001414 -0.129361 0.053672 0.025657 -0.130533 0.089424 -0.067590 -0.105100 0.075674 0.095218 0.045996 -0.220636 0.111912 -0.023619 -0.044551 -0.018227 0.056211 -0.044531 0.148257 0.080406 -0.056794 -0.122135 -0.069734 0.029974 0.006052 -0.001227 0.032032 -0.035789 0.013502 -0.028082 -0.364692 -0.071425 0.075477 0.085938 -0.037484 -0.231150 -0.073859 -0.041958 -0.000405 -0.013846 0.072349 0.027149 0.015691 0.005059 0.026811 0.002840 0.126600 0.016349 -0.044185 -0.156246 0.030176 0.061965 -0.044608 0.024349 -0.084862 -0.218266 -0.180887 0.143284 0.003350 -0.171599 -0.099981 -0.050930 -0.272333 0.005184 0.056262 -0.125060 0.183487 -0.142437 -0.111917 0.016843 -0.098860 0.055616
-0.026056 -0.113289 -0.001182 -0.061743 0.021172 0.108125 0.089037 0.054120 -0.095373 -0.077105 -0.008088 0.003785 0.021176 -0.023291 -0.157468 0.014950 0.461610 -0.108149 -0.028889 -0.039735 -0.107457 0.061125 0.054639 -0.012422 0.137458 0.077929 -0.135042 0.102575 0.023058 0.077059 -0.074911 0.045615 0.027951 -0.023228 0.052388 -0.179716 0.138555 0.079135 0.018395 -0.074889 0.073731 0.015364 0.004734 -0.150335 0.264713 -0.008565 0.062345 -0.085624 -0.000448 -0.064977 0.034041 -0.001635 0.034803 -0.008902 -0.152074 -0.008747 0.010848 0.011713 -0.035607 -0.078883 -0.082986 0.021250 0.005145 0.053250 0.033123 0.005420 0.017913 -0.088460 -0.083389 0.059541 -0.052141 -0.022039 -0.044257 0.011956 -0.052129 -0.148918 -0.076920 0.005929 0.088514 0.005446 0.059087 0.009158 0.070376 -0.015771 0.030936 -0.096071 0.153261 -0.034638 -0.076372 0.287071 -0.004388 -0.014836 0.031923 0.101818 0.095348 -0.008976 0.074575 0.041401 -0.042476 -0.082280 -0.113808 0.006568 -0.040134 0.030833 0.044600 0.002482 -0.041990 -0.017870 -0.108890 0.082588 -0.124660 -0.122981 -0.021134 -0.023329 0.016291 -0.043130 0.099070 0.064156 0.052290 -0.152678 -0.015149 -0.023924 0.092756 -0.010680 0.061587 0.075437 0.050197 0.093552
-0.040353 0.099087 -0.150996 0.057804 -0.032604 -0.027837 0.004016 0.144872 0.080778 0.066354 -0.031542 -0.094778 -0.127586 0.153015 0.007500 0.023338 -0.177809 -0.171178 -0.024511 -0.062604 -0.014144 0.040198 0.105601 0.079799 0.100248 0.279267 0.075204 0.147485 -0.038106 0.159046 -0.071144 0.091839 0.103862 -0.068304 -0.110825 0.000499 0.041215 0.096447 -0.098100 -0.213069 -0.033570 -0.005143 0.152882 -0.121761 -0.033363 0.050868 0.036298 -0.047966 0.062729 -0.007724 -0.036521 -0.035809 -0.201873 -0.004867 0.023634 0.037757 0.017629 -0.052108 -0.068960 0.018689 0.087949 -0.167105 0.029567 0.140566 0.087264 0.100678 -0.026643 0.073542 0.027816 0.015159 0.010546 0.164639 0.024252 -0.021798 0.039327 0.088386 -0.005428 0.059297 0.089383 -0.244196 0.012771 -0.029541 0.002108 0.148082 0.093931 0.052446 0.114470 0.046111 0.133109 -0.209767 0.070311 0.025507 0.045466 0.000793 -0.222394 0.050589 -0.003636 0.052043 0.102376 0.030511 0.036778 0.034830 0.064777 -0.058875 -0.078058 -0.074798 -0.083551 -0.036603 0.089109 0.117121 -0.073503 0.026901 -0.101800 0.070868 0.009830 -0.070921 -0.158234 -0.090387 0.007818 0.000742 0.048938 -0.003395 0.136862 -0.082993 -0.295643 0.013794 -0.106330 0.057875
-0.146150 -0.048708 -0.158273 -0.055848 0.036772 -0.040355 0.098766 -0.072238 -0.062166 -0.083928 -0.010540 0.075690 0.063350 0.052870 0.062543 -0.172798 0.083223 -0.085055 -0.041093 -0.026996 -0.080038 0.007958 -0.002543 -0.097195 0.034200 0.104520 -0.030078 0.188050 -0.025768 -0.067708 -0.140401 0.026441 0.032046 0.180711 0.019325 0.102128 0.125995 0.064543 -0.100886 -0.162712 0.152454 0.100986 0.153299 -0.147095 0.219466 -0.081268 0.059946 -0.132493 0.059275 0.019454 0.019046 0.186945 0.000924 -0.066462 -0.390432 0.120908 -0.005295 -0.037472 0.080102 0.088302 -0.011305 -0.009048 0.068988 0.111249 0.117216 0.021354 0.154845 -0.016173 0.012881 0.062349 -0.009695 0.111302 -0.245837 -0.052127 0.043100 0.004140 0.117972 -0.004902 -0.114770 -0.038215 -0.051250 0.004638 -0.006103 -0.128594 0.005878 -0.024119 -0.040180 -0.050284 0.066919 0.047098 -0.022893 0.036807 -0.054836 0.115150 0.095977 0.087861 0.139632 0.086939 -0.036428 0.001223 0.008494 0.092170 0.009643 -0.063911 0.032835 -0.134431 -0.060523 -0.117850 0.052773 0.075824 -0.038043 0.057411 0.031444 -0.033307 -0.005552 -0.112269 -0.021210 -0.004498 0.011945 0.114559 -0.046662 0.023048 0.039043 0.018257 -0.013660 0.093909 -0.030321 0.154098
-0.024398 -0.047879 0.144117 0.015455 0.044159 -0.000726 -0.074693 0.028092 -0.103363 0.125101 0.083047 0.135143 -0.060971 -0.127829 -0.189346 0.147570 0.011521 -0.021809 0.046836 -0.149194 0.079710 0.079465 0.065498 0.268707 0.006141 -0.086504 0.039339 -0.003198 0.059521 -0.041655 0.104102 0.054704 -0.001918 0.051037 -0.064622 -0.158183 -0.137934 -0.063609 -0.079601 -0.094974 0.070506 0.028821 -0.105698 0.157314 0.064908 -0.019430 0.039039 0.050891 0.055549 -0.065823 0.077982 -0.062567 0.072556 -0.104535 -0.197991 -0.033284 0.146927 0.190620 0.003302 0.071574 0.063174 -0.111107 0.010958 -0.032586 -0.113043 0.161342 -0.034075 0.013735 -0.035159 -0.024235 0.131231 -0.059042 -0.002993 -0.045601 -0.086790 -0.080779 -0.076250 -0.032619 0.230410 0.013190 0.037837 0.075794 -0.027300 -0.051298 -0.059074 0.132117 0.077334 -0.243762 -0.024371 -0.058098 0.079474 0.054533 0.127950 -0.044559 -0.101304 -0.157690 -0.161125 -0.115795 -0.066467 0.126252 0.040494 -0.088940 -0.044823 0.072715 0.086608 0.145658 -0.050440 -0.047724 0.102605 0.069830 0.010155 -0.258281 0.121435 -0.112254 -0.021098 -0.125022 0.036997 0.119536 0.033123 -0.009046 -0.022027 0.010555 -0.185275 0.128388 0.018979 -0.020283 0.085500 0.072194
-0.012148 -0.101004 0.080151 -0.122905 0.064078 0.006839 0.153992 -0.002236 -0.095575 -0.082827 -0.036087 0.007655 0.118667 -0.020276 -0.099225 -0.036160 0.334858 -0.097714 -0.004739 -0.073830 -0.080048 0.044573 0.084423 -0.212750 0.081658 -0.082717 -0.096447 0.129856 -0.010909 0.054811 -0.228315 -0.107616 0.071367 0.059823 0.027895 -0.088181 0.151066 0.047381 0.012143 0.064508 0.038984 0.057115 0.061515 -0.042892 0.154899 0.033234 0.059758 -0.020633 0.095756 -0.080256 0.005792 0.066805 0.109516 0.040659 -0.117386 -0.156979 -0.026304 -0.031259 -0.075407 -0.035288 -0.038031 0.088335 -0.077431 0.004930 -0.037659 -0.046791 0.074489 -0.081345 0.066049 0.118585 -0.025739 0.099385 -0.149324 -0.194097 -0.131000 0.025023 -0.007053 -0.009672 -0.142554 0.016247 0.037691 -0.094394 0.089883 0.066840 0.018760 -0.111440 0.075914 0.093552 -0.027243 -0.002556 0.137806 -0.049175 0.084637 -0.030856 -0.069581 0.067628 0.050285 0.140913 -0.068718 -0.012228 0.076093 0.049718 -0.067129 -0.059925 0.045820 -0.001345 0.072889 0.025249 -0.111368 0.026639 -0.092715 -0.019144 0.032769 -0.065610 0.032552 0.027323 -0.057080 -0.177398 0.007217 -0.092558 -0.045324 0.023887 -0.087730 -0.018898 0.126843 -0.059210 0.098569 -0.066753
-0.000870 0.002489 0.014029 -0.128859 0.031827 -0.090667 0.014332 -0.008219 -0.024325 -0.069547 0.059557 0.026250 -0.181624 -0.006921 -0.080265 -0.113907 -0.262204 -0.072502 0.049194 -0.042544 -0.023747 -0.022980 -0.083995 -0.213652 0.022080 0.112677 -0.068685 -0.065263 -0.044111 0.072038 -0.077166 -0.008708 0.062925 0.062552 0.006446 -0.051545 0.080877 0.169191 -0.208872 -0.032282 -0.058442 -0.103875 -0.005734 0.027354 -0.075123 0.117263 -0.004917 0.163828 0.028724 -0.076284 -0.095509 0.039607 -0.097081 0.039468 -0.399463 -0.038854 0.056244 -0.095697 -0.052749 0.173753 0.137245 -0.034786 -0.064771 0.052721 0.063335 0.100974 -0.096433 0.063657 -0.073978 0.060957 0.012109 -0.022171 -0.179022 0.073717 -0.061902 -0.177278 -0.090217 0.057430 -0.074839 0.018200 -0.002584 -0.082571 -0.013429 0.069575 0.010738 0.022524 0.043263 -0.328287 -0.062314 -0.350135 -0.165156 -0.156828 -0.061778 0.063715 -0.256047 -0.040676 -0.148124 -0.028587 0.011676 0.050712 -0.164677 -0.061766 0.077438 -0.065872 -0.032155 -0.006404 0.017511 0.064302 0.032437 -0.037686 -0.121342 -0.107738 -0.100062 -0.005960 -0.110919 -0.281000 -0.158210 0.064908 -0.107437 -0.054922 -0.042083 0.027733 0.059371 0.056793 -0.061295 -0.075741 0.071227 0.110641
-0.007741 0.001656 0.022192 -0.082510 -0.013155 -0.121600 -0.010064 -0.014220 0.154485 -0.046890 -0.099742 0.224448 -0.153868 0.034833 0.156015 -0.210013 -0.104456 0.007262 -0.105891 0.069142 0.085422 -0.111842 -0.266944 -0.038166 -0.241278 -0.039007 -0.087093 -0.357104 0.067671 -0.104660 -0.105303 -0.032653 0.049674 0.071579 -0.133245 0.098407 -0.168747 0.069455 -0.029224 -0.009079 -0.022502 -0.104130 0.014875 -0.005002 -0.276745 0.008181 -0.067393 0.097770 -0.050856 0.143510 0.038903 0.061499 -0.222278 0.003971 0.011751 -0.039565 0.088530 -0.072899 -0.001168 0.122116 -0.113731 0.058646 -0.068956 -0.175640 0.039774 -0.003877 -0.090294 -0.169037 -0.060861 0.085701 0.016694 0.062562 -0.066687 -0.085154 0.047133 0.022803 0.047033 0.069664 -0.059786 -0.056045 0.059668 -0.082286 -0.073183 0.002769 0.035285 -0.047806 -0.032574 0.102230 0.035532 0.005540 -0.007774 -0.033291 0.028574 0.062154 -0.157398 0.079977 0.031488 -0.118393 0.089333 -0.081646 -0.143610 0.106892 0.170225 0.039048 -0.001862 0.072882 0.029579 0.100533 0.081604 0.018382 -0.075359 0.056861 -0.010831 -0.043592 0.018971 -0.121639 -0.007202 0.035056 -0.117660 0.064061 0.036372 -0.077422 0.150165 -0.025846 -0.228703 -0.184914 -0.036922 -0.048131
0.055946 -0.016254 0.009400 0.032676 0.004274 -0.041635 0.017634 -0.013660 0.000179 -0.093075 -0.038019 0.059267 0.074040 -0.010590 0.008788 -0.030741 0.038058 0.049093 -0.211026 -0.022817 0.088178 -0.050469 0.124910 -0.015108 -0.086667 -0.103861 0.014955 -0.003303 -0.034053 0.002052 0.088880 -0.058356 -0.018298 0.041599 -0.043997 0.091171 -0.112683 -0.036623 -0.097988 -0.079396 0.151807 0.014099 -0.035793 -0.084472 0.030259 -0.024244 -0.152266 -0.063198 -0.121198 -0.012651 -0.189949 0.002990 0.013658 -0.101167 -0.384584 -0.094337 0.110367 0.154591 -0.053318 -0.000639 -0.081233 0.032267 0.018625 -0.103692 0.002078 -0.123650 -0.046792 0.063694 0.021782 0.094403 0.048057 0.005551 -0.111714 -0.128430 -0.100293 -0.107254 0.023534 0.015890 0.041837 -0.019563 -0.079020 0.065377 -0.013965 0.183050 0.026493 -0.021266 0.048805 -0.118218 -0.060046 0.019570 -0.005429 0.018160 0.153474 -0.015557 -0.169940 -0.003952 -0.081342 0.133109 0.015865 0.033942 -0.087366 0.074380 0.043488 0.017465 0.050132 0.083902 -0.098503 0.024687 -0.042616 -0.094044 -0.042845 0.052540 -0.227126 -0.066371 -0.121605 -0.307621 0.013608 0.064420 0.085776 0.028792 -0.107484 -0.068869 0.043243 -0.150637 -0.500836 -0.017047 0.060890 -0.103841
-0.179400 -0.006393 -0.102995 -0.343305 -0.052907 -0.065866 0.082356 0.050443 0.046390 0.023465 -0.007021 -0.098295 0.116352 0.008531 -0.091848 -0.235305 -0.119419 0.075746 -0.082924 -0.022900 0.021853 -0.029390 0.042786 -0.044670 -0.080383 -0.184415 0.058219 -0.043331 -0.027146 -0.090930 -0.029196 0.077618 -0.039727 -0.011723 0.027721 0.007930 0.103817 0.018740 -0.122256 0.000506 0.058775 -0.112050 0.024054 0.114841 0.161530 0.105110 0.036371 0.123908 -0.031751 -0.009741 -0.020993 -0.027058 -0.006852 0.026847 -0.047328 -0.099854 -0.188507 -0.035497 -0.051890 0.069505 0.066498 -0.022573 -0.129199 0.098165 -0.025097 -0.034736 0.248875 -0.054438 -0.069773 0.107009 -0.354065 -0.086188 0.046306 -0.013778 0.030061 -0.040785 -0.078594 -0.059738 0.222772 0.090709 -0.031016 -0.013676 -0.005271 0.114882 -0.240724 0.101414 0.023986 -0.242696 -0.074045 -0.194128 -0.017396 0.001018 0.023649 -0.014096 0.058176 0.050876 -0.154539 0.085958 -0.060283 0.062547 0.009258 -0.040126 0.098828 -0.109981 -0.146425 -0.057246 0.019912 -0.067878 0.099218 -0.046113 -0.207447 -0.018484 -0.022951 -0.244791 0.151121 0.040160 0.006578 -0.230484 -0.052104 -0.012065 -0.199805 0.049559 -0.278335 -0.012608 -0.007296 -0.035181 0.097399 -0.100894
-0.178676 -0.075955 -0.384771 0.063053 -0.031611 -0.013762 0.070986 0.039996 0.017749 -0.099365 -0.074323 0.051877 0.069095 -0.084326 -0.164787 -0.061356 -0.154507 0.059320 -0.065373 0.051796 0.051941 0.035628 -0.019513 -0.072966 -0.006498 -0.157378 0.054271 -0.014284 -0.154496 -0.098415 0.023382 0.095558 -0.036059 0.052076 0.001061 0.000150 -0.005546 -0.143831 0.071986 0.035094 0.041191 0.116581 0.094986 -0.061494 0.044695 -0.110725 0.030585 -0.130757 0.028112 -0.153421 0.001675 -0.005598 0.060854 0.067845 -0.183831 -0.086440 0.050890 0.114095 -0.052398 0.022193 -0.074901 0.000333 0.110087 -0.024695 0.058631 0.008159 0.116699 -0.106032 0.013703 -0.028294 -0.026354 0.111096 -0.089837 0.019130 0.127551 0.003825 0.229092 0.017610 -0.040048 -0.009804 -0.055776 -0.069607 0.031000 -0.123424 0.079340 -0.022346 -0.016126 0.038862 0.075819 -0.012169 -0.022241 0.045930 -0.059751 0.009889 -0.114797 -0.011445 0.047663 -0.016004 0.092587 0.042448 0.006682 -0.055635 -0.083382 0.040214 -0.023277 0.085341 0.079345 -0.021536 0.080485 -0.003695 0.029827 0.087044 -0.120799 -0.048054 -0.059008 0.025251 0.135114 0.034214 -0.067439 -0.010145 -0.384976 -0.119048 -0.200908 -0.021200 -0.139454 -0.062239 -0.061206 -0.160845
-0.018512 0.041234 0.077224 -0.069030 -0.044029 -0.025860 0.082744 0.015109 0.032165 -0.009961 0.072587 -0.267734 0.038039 0.090783 0.003050 -0.019857 0.379981 0.072221 -0.013516 0.003642 -0.048534 0.196412 0.136910 0.126919 0.072587 0.133779 -0.019002 0.127589 0.007578 0.004145 0.058550 -0.014679 0.046846 -0.051329 -0.038956 0.070429 0.098314 -0.046221 -0.178920 0.110367 0.009855 0.048306 0.120451 -0.082946 0.224378 -0.092215 -0.015698 -0.012749 0.129112 -0.255332 -0.069838 0.034166 0.082186 0.051119 0.292756 0.037411 0.078959 0.107936 -0.004960 -0.017431 -0.041887 0.058295 -0.149484 0.112462 -0.050012 0.078418 0.013394 0.019018 0.035046 0.050139 0.045870 0.091773 -0.091350 0.052700 -0.036472 0.001697 0.039265 0.007381 -0.049807 0.060912 -0.017708 -0.047730 0.105857 0.021827 -0.064675 0.008447 0.052475 0.054803 0.174701 0.012687 -0.046958 -0.054571 0.003891 -0.084994 0.029586 0.075819 0.078144 0.175317 0.016883 -0.070077 0.119185 -0.059359 -0.046476 -0.022388 0.049096 -0.151272 0.141926 -0.055843 0.009332 0.013090 -0.060009 0.083051 0.099830 0.058844 -0.051684 0.080125 0.091198 0.014505 0.089262 -0.167129 0.004821 0.006040 0.110047 0.048382 0.142218 -0.026112 -0.052872 0.021100
-0.015257 -0.186215 -0.111566 -0.095421 0.067648 0.143850 -0.001874 -0.020557 -0.144207 -0.122543 -0.190522 -0.129551 0.025943 -0.091576 -0.160674 -0.008470 -0.083109 -0.109880 -0.187671 -0.200108 -0.032674 0.040485 0.075085 -0.217291 -0.074630 0.035782 -0.012470 0.057056 -0.076569 -0.036282 -0.155251 0.005644 -0.042874 0.037284 -0.083668 -0.081690 0.052743 -0.037150 -0.038645 -0.089117 0.089848 0.045609 0.104100 -0.032151 0.192623 0.004118 0.049073 0.043311 -0.071942 -0.034148 -0.072113 -0.064015 0.028053 0.002294 -0.113474 -0.252880 -0.183852 -0.116590 0.037890 0.084303 0.070580 -0.139676 -0.054376 0.015715 -0.022734 -0.031303 0.089065 0.008937 -0.085177 0.132898 -0.017792 -0.088847 -0.239829 -0.045594 -0.117941 -0.068020 -0.129841 0.063962 -0.038614 -0.085785 -0.040680 -0.018687 -0.107251 0.003183 -0.176516 -0.060670 0.005358 -0.011006 -0.154864 -0.209405 -0.173027 -0.041956 0.051344 0.066353 -0.093566 -0.118215 -0.140733 0.041029 0.017597 -0.066177 -0.174289 -0.020645 -0.001181 -0.008680 -0.163538 -0.012112 -0.045279 0.014136 0.036958 -0.057141 -0.154475 -0.056982 0.012737 -0.108575 -0.001538 -0.117116 0.082181 -0.216322 0.134057 -0.079085 -0.063202 0.003287 -0.028514 -0.117732 -0.117234 -0.033574 0.111629 -0.006471
0.000064 -0.021800 0.029419 -0.073735 0.009544 -0.074978 -0.044280 -0.011963 -0.070622 0.099418 -0.074630 -0.023510 -0.095803 0.011915 -0.178827 -0.042814 -0.482719 0.038738 0.067662 -0.032331 -0.019738 -0.004803 -0.053206 0.068995 0.079305 0.004161 0.017019 -0.266220 0.051630 0.077811 -0.007766 0.067287 0.007500 0.090498 -0.031478 -0.145466 -0.066782 -0.035890 -0.010832 -0.057121 -0.156010 -0.047888 -0.092957 0.003991 -0.191018 -0.045964 0.024581 0.118280 -0.062182 -0.149129 -0.104373 -0.052360 0.029271 -0.067705 -0.112579 0.019189 0.100838 -0.107515 0.090819 0.108900 -0.020524 -0.262975 -0.135793 -0.001926 -0.041241 0.032392 -0.063609 -0.001088 -0.016458 0.008217 -0.057845 -0.065666 0.026838 0.084339 -0.144813 -0.013240 0.009598 0.020201 -0.096865 -0.190741 -0.044982 0.068385 -0.117250 -0.043253 0.033494 0.028187 -0.022988 -0.183405 -0.033010 -0.297296 -0.159376 0.089866 0.022271 -0.053315 -0.224600 -0.187688 -0.027520 -0.084552 -0.003461 -0.013840 -0.127523 -0.009764 -0.018834 -0.101810 -0.129671 -0.108404 -0.047822 -0.016057 -0.006525 0.054369 -0.102742 -0.156696 -0.020399 0.108519 -0.024346 -0.053135 -0.091919 0.012555 -0.077771 0.071516 -0.047446 -0.006692 -0.000417 0.016659 0.041712 -0.039682 -0.095973 -0.094982
0.011708 -0.035201 0.030982 -0.193470 0.053757 -0.068664 -0.085338 -0.005192 -0.025409 0.085263 0.085950 -0.035861 0.057848 0.117088 0.084610 0.037645 -0.382870 -0.075617 -0.012458 -0.005915 0.145580 0.061977 -0.045440 -0.308703 0.086737 0.015152 -0.006014 -0.045030 0.097136 0.057991 0.140941 -0.101313 0.009289 0.058748 -0.058797 0.026907 0.041868 0.047488 -0.088253 0.125041 -0.072774 0.113812 -0.050439 0.043768 -0.220007 0.061461 -0.103097 0.117274 -0.031522 -0.059188 -0.063805 -0.098032 -0.212799 0.014543 0.091543 0.003531 0.090985 -0.080216 0.020930 0.051922 0.043798 -0.056490 0.022439 0.062241 -0.156953 0.070152 -0.009096 0.110587 -0.009577 -0.072426 -0.087611 -0.010142 -0.116160 0.108239 -0.053852 0.072800 -0.079541 -0.039999 0.117643 -0.040682 0.021195 -0.058163 -0.080618 0.011496 -0.052703 0.087275 0.068230 -0.150345 -0.032757 -0.068149 0.242070 -0.007552 0.059428 0.040443 -0.094695 0.022544 0.021178 0.062496 0.073835 -0.007491 -0.119665 0.074201 0.068170 -0.014556 -0.055772 0.076008 0.068046 0.000372 -0.041189 0.011048 0.042610 0.067324 0.055175 -0.136864 -0.026738 -0.012055 -0.127014 -0.291836 0.004907 0.005400 -0.013072 0.045077 -0.031423 -0.021153 -0.022423 -0.035482 0.021970 -0.032969
-0.019733 -0.120769 0.000861 -0.058565 -0.101936 -0.024827 -0.030110 -0.068502 -0.012589 0.037352 -0.018372 -0.061328 -0.145073 -0.032166 0.081107 -0.051295 0.041398 -0.231407 0.158603 -0.054283 -0.062445 -0.109597 -0.019014 -0.076633 -0.040893 0.176022 -0.016356 -0.021738 -0.095750 -0.004567 0.069339 0.011414 -0.005745 -0.113325 0.113360 -0.044229 -0.035481 -0.116563 -0.214282 0.076994 0.031237 -0.155539 0.036324 -0.085318 -0.060078 0.097707 -0.038384 -0.024275 0.110615 -0.028436 0.042800 -0.122199 -0.301288 -0.106009 0.033365 -0.017186 -0.032940 -0.224852 0.008393 0.003933 0.115141 -0.024780 0.212783 0.121314 0.079795 0.076775 -0.044595 0.088757 0.005802 0.073274 0.039093 -0.040212 -0.042325 0.100954 -0.009894 0.030048 0.046500 -0.086566 0.001233 -0.087710 0.019339 -0.054354 -0.063864 -0.180365 -0.018328 -0.009140 -0.048288 -0.120687 0.007844 -0.186140 0.046897 0.012950 -0.002830 0.048429 -0.151342 0.041967 0.106921 0.018350 0.147927 0.024284 0.048629 0.054777 -0.003283 -0.056681 -0.167845 0.002809 -0.090375 0.051975 0.024649 0.181180 -0.059918 0.162657 0.128975 0.065152 0.021722 -0.114753 -0.072771 0.073199 -0.270243 0.087663 -0.033181 -0.044500 0.095801 -0.118894 0.205046 0.120635 -0.044847 -0.006158
-0.129806 0.041213 -0.223116 0.079374 0.107102 -0.076566 -0.079266 -0.008284 -0.065011 -0.046527 -0.085612 -0.057489 0.041912 0.082293 -0.010729 -0.043790 -0.300498 0.039341 -0.081158 0.033381 -0.034214 0.037064 0.113642 -0.151375 0.100178 -0.048924 -0.043857 0.030830 -0.226863 0.066937 -0.026092 0.068617 -0.057282 0.002924 -0.009524 0.045242 0.021633 -0.154292 0.067041 -0.060854 0.035130 -0.077078 0.123086 -0.084322 -0.022883 -0.072674 -0.060370 0.002568 -0.050391 0.043575 -0.193248 -0.088835 -0.157341 -0.029057 -0.217997 -0.035886 -0.014921 -0.106412 -0.099671 0.062628 0.137704 -0.072694 -0.030557 -0.018360 0.102052 0.118456 0.122679 0.150069 -0.111373 0.093055 -0.050001 0.017743 -0.197287 -0.047039 -0.007851 0.062216 0.053421 0.069105 -0.199213 -0.194024 0.050000 -0.065012 0.009271 -0.044318 0.042678 -0.023722 0.032670 0.041463 -0.167822 0.124457 -0.269041 0.027002 0.042884 0.020498 -0.194603 0.059004 -0.182120 0.089373 0.113371 0.040880 0.026509 0.050157 -0.022161 -0.020168 -0.185140 0.066250 -0.143386 0.000848 0.027625 -0.072162 0.074027 0.134109 0.032059 -0.027141 -0.124401 -0.206751 -0.037272 -0.093476 0.131328 0.097731 -0.014409 0.046900 0.013446 -0.157201 -0.198846 -0.090703 -0.097559 -0.083147
-0.085592 -0.167160 -0.144350 -0.027585 0.145873 0.078386 0.014453 0.014308 -0.176056 -0.055297 -0.202770 -0.121149 -0.032728 -0.022557 -0.127972 0.007105 0.195828 -0.007986 -0.038263 -0.138056 -0.117991 0.044325 0.106546 -0.579744 0.073911 0.060328 -0.023206 -0.019697 0.097292 0.063702 -0.131491 -0.042798 0.014740 -0.047908 0.051265 -0.127724 -0.027821 -0.120120 0.080439 -0.042837 0.023995 0.135339 0.136054 -0.069389 0.144281 0.095314 -0.022525 -0.078955 -0.037567 -0.024425 0.036236 0.102856 -0.046032 0.073688 -0.098999 -0.013752 -0.078359 0.028990 -0.063599 0.028441 0.089508 0.003758 0.039817 -0.027528 0.042088 0.011391 0.087336 -0.085500 -0.098725 0.103165 -0.044467 0.094085 -0.103751 0.030420 -0.037907 0.010897 -0.035340 -0.028820 -0.039969 0.001321 -0.001227 -0.028384 -0.062093 0.023860 -0.059753 -0.045208 0.012189 0.043320 0.029064 0.061593 -0.050534 0.038101 0.033599 0.021439 -0.009190 -0.095701 -0.026528 -0.003616 -0.068122 -0.080996 -0.116481 -0.028963 0.084711 0.039175 0.160951 0.156176 0.006312 -0.222959 -0.119426 -0.053111 -0.070394 0.102996 0.034430 -0.082083 0.005936 -0.036592 0.057813 -0.137892 0.062006 -0.050196 -0.146690 0.002737 -0.059442 0.007099 -0.076437 -0.032544 -0.037892 -0.080474
-0.003155 0.012201 0.037641 -0.158141 0.005971 0.051477 -0.033356 0.033413 -0.013951 -0.048659 -0.072457 0.123922 0.110400 -0.212003 0.018942 0.086061 -0.041936 -0.110262 0.059579 -0.162099 -0.045882 -0.014184 0.005702 -0.108583 0.007277 0.101131 -0.152436 -0.009165 0.020325 0.044568 -0.024696 -0.091203 0.064063 0.160490 -0.015190 -0.090026 -0.095752 0.100976 -0.227837 0.063759 0.002617 0.066320 0.162604 -0.069329 0.076373 -0.131565 0.027365 0.089013 0.015575 0.096551 0.025397 -0.003459 -0.015704 0.006185 -0.064988 -0.135609 -0.362171 -0.184863 0.084947 0.052167 -0.086426 0.110601 0.121609 -0.080835 -0.016314 -0.075002 -0.051740 -0.117963 -0.022306 0.104336 -0.004960 0.146578 -0.133540 -0.014843 0.115877 -0.003303 -0.376719 -0.045889 0.117214 0.019237 0.055955 -0.058426 -0.129945 0.028763 -0.195151 -0.007976 -0.021936 -0.104134 -0.093620 0.036899 0.060483 -0.114004 -0.171787 0.051516 0.087912 0.123707 0.104494 0.034118 -0.073607 -0.048632 0.024429 -0.019887 -0.092717 0.006178 0.029615 -0.024736 0.015552 -0.124195 0.023373 -0.063964 -0.103215 0.140833 0.066009 0.084225 0.044150 -0.018959 0.022428 -0.167809 -0.086895 0.121122 0.054999 -0.074433 0.001693 -0.016316 -0.118993 -0.097842 0.061150 -0.096470
0.160518 0.053286 0.174002 -0.018245 0.017256 -0.066024 0.090170 -0.051701 0.063335 -0.075015 0.222141 0.002641 -0.061971 0.058292 -0.060215 0.103387 0.359141 -0.031634 -0.043882 -0.154212 0.066758 0.060286 0.013529 0.098152 0.137327 0.108191 0.100825 0.248180 0.076946 0.076245 0.004090 0.020849 0.053265 0.101219 -0.081711 0.030095 0.124975 0.060159 -0.154054 -0.101040 0.048520 0.084185 0.064189 0.011489 0.247089 0.008355 -0.000012 -0.047658 -0.058042 -0.011798 -0.079234 0.034920 -0.019452 0.165714 -0.045986 -0.071396 0.012536 0.022250 -0.026283 0.023696 0.078526 0.054012 0.052690 0.013001 -0.027395 0.071944 -0.076328 -0.044719 -0.132261 0.014526 0.112120 0.092090 0.071586 0.068730 -0.200287 0.025702 -0.053878 0.016490 0.177497 0.004742 0.167826 -0.032489 -0.018537 -0.000209 0.046118 0.157383 0.008781 0.106752 0.128776 0.129137 0.070492 -0.043384 0.095650 0.031867 0.039957 0.001375 0.047954 -0.024675 -0.006762 0.023626 0.008924 -0.036802 -0.034851 -0.018288 0.011874 0.016518 0.029294 -0.024732 0.091833 0.060755 -0.067876 -0.129345 -0.006929 0.090389 0.012189 0.021077 0.039840 -0.106959 -0.028322 -0.103834 0.111133 0.059102 0.135807 0.088531 0.112888 0.080085 0.042841 0.187333
0.082843 0.078620 0.003075 -0.059319 0.099433 0.022406 0.003277 -0.144744 -0.023487 0.065242 0.027891 0.109409 -0.039042 0.005351 -0.110080 -0.102774 -0.224181 -0.007845 -0.016106 0.026041 0.041766 -0.004962 -0.063998 0.063136 -0.029614 -0.047418 0.024135 -0.231429 -0.012282 0.032408 -0.079521 0.016134 0.052738 -0.021327 -0.079984 -0.116158 -0.104142 0.001950 -0.143502 -0.087530 -0.218360 -0.008141 0.026624 0.056091 -0.020250 -0.024666 0.024857 0.004867 0.007215 0.047990 -0.036497 -0.079313 0.029144 -0.211492 0.126646 0.046802 0.204201 -0.112453 0.021445 0.079870 0.000551 -0.136227 -0.420865 -0.135311 -0.063542 0.045628 -0.081723 0.080045 -0.052912 -0.069030 -0.062411 0.059696 0.055406 0.043937 -0.196844 -0.064579 -0.009169 0.015333 0.081922 -0.106632 -0.106093 0.023887 -0.129022 0.008423 0.133222 0.139414 0.020955 -0.172775 0.102912 -0.264426 -0.101493 0.077012 -0.059414 -0.082560 0.059751 -0.106628 -0.070594 -0.111382 0.080108 -0.189634 -0.058899 -0.027300 0.064804 0.025464 0.024964 0.093454 0.055768 0.044672 0.093651 0.093082 0.078533 -0.206285 -0.077340 0.040673 0.001446 0.073527 0.011901 0.017945 -0.085381 -0.044431 -0.014184 -0.112867 -0.017614 0.034930 0.094788 0.002575 -0.075623 -0.129935
-0.056594 0.072040 -0.029978 0.000850 0.030622 -0.017365 -0.162073 0.090045 0.024894 -0.047299 -0.005643 0.053922 0.010662 -0.093221 0.127410 -0.137750 -0.227438 -0.049918 -0.065788 0.078380 -0.229287 -0.014720 -0.091063 -0.306259 -0.144407 0.021645 -0.019966 0.011761 0.046868 0.105595 0.082668 0.190726 -0.097423 0.063290 0.010813 0.049801 -0.058147 0.026639 0.140457 0.089482 -0.045752 -0.215680 -0.130414 -0.051064 -0.170548 -0.016812 0.040047 0.061987 -0.017050 0.160197 0.129213 0.030264 -0.045621 0.055521 -0.053361 -0.107982 0.014938 -0.089467 0.062612 0.048163 -0.013841 0.043484 0.189007 -0.004183 0.093075 -0.097111 0.031936 -0.148163 -0.036370 -0.007220 -0.049333 -0.117220 0.023812 -0.065909 0.099967 0.207549 0.035955 -0.087575 -0.103603 0.090826 0.124585 -0.019363 0.106112 0.000781 -0.151063 -0.157774 -0.260372 0.026496 -0.065403 -0.045327 0.053088 -0.186285 0.022062 -0.032598 -0.065725 0.108613 0.117707 -0.004882 0.098192 0.129761 0.135928 0.106892 -0.006326 0.114358 -0.000119 -0.009509 0.009819 0.022721 0.203131 0.021860 -0.006938 0.069675 -0.023870 0.098303 -0.024964 -0.031079 -0.066599 0.056182 -0.115707 0.010640 -0.240468 -0.056025 -0.059353 0.043140 0.031864 -0.176750 0.028990 -0.009433
-0.003415 -0.128254 0.070180 -0.135299 -0.047576 -0.009718 -0.127084 0.002727 0.015226 -0.073114 -0.086168 0.055699 0.134482 0.067563 0.058828 0.119114 0.229841 -0.056418 -0.055196 -0.077467 0.003521 0.018232 0.080194 -0.041023 -0.058795 0.078728 -0.040450 0.043231 -0.033592 0.039852 -0.137686 -0.093230 0.020967 0.119203 -0.006019 0.036984 -0.012346 -0.075622 -0.158084 -0.078658 0.222809 0.037418 0.107426 -0.188528 0.151344 0.012839 -0.064842 0.098358 0.063043 0.098816 -0.090212 0.036690 0.188469 0.004298 -0.191053 0.019077 -0.001873 -0.076254 -0.045717 0.016297 -0.103984 0.139885 -0.023951 0.001555 -0.044998 0.080227 0.012253 0.011106 -0.045036 0.171301 -0.001382 0.170740 0.042917 -0.190115 -0.109298 -0.057100 0.009515 -0.035731 -0.180549 -0.107452 0.073965 -0.064677 0.079149 0.001483 0.044875 0.073272 0.071229 -0.061337 -0.092376 -0.016531 0.021847 0.022597 0.124897 0.078011 -0.106822 0.123111 -0.044078 0.200378 -0.060562 0.102332 0.010177 0.116300 0.059715 -0.078663 0.076856 -0.147899 0.075017 0.057763 -0.018378 -0.014700 -0.052056 0.192699 0.034795 0.013220 -0.044441 -0.153998 0.020577 -0.072432 0.045241 0.006384 0.000171 0.089568 -0.048868 -0.045053 0.109109 0.015676 0.026214 -0.029308
0.031507 -0.029891 0.085242 -0.071627 0.100167 -0.237118 -0.029700 -0.082852 0.045147 0.186037 0.079986 -0.095567 -0.048475 -0.033983 -0.067066 -0.030196 -0.071068 0.039265 -0.014555 -0.007528 0.031428 -0.276347 -0.235163 -0.017603 -0.144911 -0.063149 -0.073996 -0.122117 0.004929 0.038350 0.049353 -0.034163 -0.028514 -0.114180 -0.026491 0.052357 -0.182137 -0.076435 -0.011079 -0.028359 -0.001700 -0.114951 0.003866 -0.165320 -0.016266 -0.243503 0.017124 0.098705 -0.078524 0.035420 -0.094336 -0.067130 0.033500 -0.101426 0.178846 0.048800 0.080088 -0.063785 0.063840 0.157374 -0.134288 0.029637 -0.121424 -0.308337 -0.054650 0.083759 -0.096808 0.171294 0.085675 0.017838 -0.087695 0.021285 -0.024687 0.102751 0.073801 0.001969 0.059992 0.154064 -0.035264 0.042090 -0.018603 -0.051260 0.013007 -0.004769 0.043718 0.121833 -0.052997 -0.047951 0.055762 -0.007642 0.013315 -0.052218 0.028929 -0.087617 -0.377144 -0.063907 0.032490 -0.055884 -0.023035 -0.118815 -0.024835 -0.061134 -0.002032 0.005922 -0.056259 -0.103978 -0.064468 -0.032009 -0.108636 -0.058421 -0.176197 -0.235631 -0.040257 -0.050147 -0.110262 -0.212071 -0.076927 0.098596 -0.161510 -0.008119 0.147992 -0.050236 -0.087771 0.022646 0.032707 0.046300 0.090240 0.026278
model.3.bias
0.121437 0.074060 0.037686 -0.252365 -0.184245 -0.015020 -0.017933 -0.050123 -0.250340 0.090598 -0.087383 0.075382 0.042598 -0.151213 -0.006040 -0.078601 -0.027566 -0.139944 -0.038102 0.078925 -0.112083 -0.089288 -0.201414 -0.160816 -0.206223 -0.237029 -0.125009 -0.114917 0.129822 0.100949 -0.048347 -0.401665 -0.122650 -0.091107 0.039079 -0.240224 -0.145874 -0.106111 -0.207908 -0.184900 0.015620 0.189766 -0.204804 -0.017003 0.107158 -0.079533 -0.141720 -0.051022 -0.253551 -0.270078 -0.226253 -0.163354 0.016637 0.023260 -0.330507 -0.050916 -0.155797 0.052284 -0.013033 -0.008273 0.097679 -0.157815 -0.340306 0.208276
model.5.weight
1.205244 1.192482 1.199321 1.277960 1.197021 1.280270 1.204985 1.150674 1.342195 1.215233 1.258977 1.306993 1.146145 1.327290 1.246428 1.371070 1.091374 1.299032 1.215186 1.060264 1.231439 1.234031 1.313125 1.245417 1.198382 1.325821 1.123222 1.474162 1.348814 1.189918 1.323839 1.269227 1.247012 1.108140 1.043208 1.438705 1.151659 1.393857 1.271647 1.107951 1.137353 1.351284 1.247321 1.160762 1.091087 1.276310 1.319118 1.317438 1.170860 1.150862 1.253498 1.489670 1.452247 1.443957 1.190933 1.036613 1.185246 1.409968 1.094950 1.289184 1.151493 1.337851 1.444932 1.106432
model.5.bias
0.155104 -0.114060 0.042381 -0.285083 -0.166622 0.028734 -0.264431 -0.015540 -0.139847 0.123791 -0.123284 0.119350 -0.197852 0.047505 -0.199322 0.028177 -0.001941 0.066153 0.080510 -0.164811 -0.134826 0.066985 -0.053706 -0.050422 0.110837 -0.131292 -0.066018 -0.234565 0.211361 -0.140894 -0.069748 0.008534 -0.144631 -0.237134 -0.038475 -0.165468 0.080827 -0.167782 0.299952 -0.020088 -0.045319 0.054534 0.032421 0.101826 0.000065 0.024173 -0.094848 -0.022537 0.233922 -0.148591 -0.040419 -0.069801 0.239041 -0.148290 -0.103126 -0.043779 -0.018540 0.144066 0.173381 0.068635 -0.108432 -0.310915 0.157649 -0.153865
model.5.running_mean
0.957493 0.804392 0.460393 0.726057 0.374875 0.349143 1.048918 0.648693 0.188128 0.455173 0.447594 0.758961 1.068123 0.461044 0.688269 0.624737 0.718403 0.305538 0.595639 0.744810 0.947421 0.463390 0.126816 0.149944 0.490085 0.757023 0.436328 0.632684 0.756952 0.739076 0.284193 0.456045 0.615758 0.515719 0.837941 0.153960 0.439274 0.552340 0.416073 0.658454 0.932075 0.884076 0.540517 0.466474 0.965665 0.358483 0.458377 0.882181 0.107156 0.105842 0.256579 0.542341 0.415361 0.713376 0.162429 0.684168 0.286697 0.500255 0.500802 0.769397 0.807495 0.921361 0.214091 0.958933
model.5.running_var
