2873
8 3466.500000 1 2048 -1
11 1788.500000 2 1173 -1
11 929.500000 3 762 -1
12 263.500000 4 491 -1
1 6.500000 5 250 -1
11 7.500000 6 133 -1
0 1.500000 7 70 -1
5 1.500000 8 39 -1
4 7.500000 9 24 -1
9 60.500000 10 17 -1
12 4.500000 11 14 -1
9 1.500000 12 13 -1
-2 -2.000000 -1 -1 0
-2 -2.000000 -1 -1 0
1 1.500000 15 16 -1
-2 -2.000000 -1 -1 0
-2 -2.000000 -1 -1 0
9 315.500000 18 21 -1
6 11.500000 19 20 -1
-2 -2.000000 -1 -1 0
-2 -2.000000 -1 -1 0
3 3.000000 22 23 -1
-2 -2.000000 -1 -1 0
-2 -2.000000 -1 -1 4
12 8.500000 25 32 -1
8 2.500000 26 29 -1
3 2.500000 27 28 -1
-2 -2.000000 -1 -1 0
-2 -2.000000 -1 -1 0
6 125.500000 30 31 -1
-2 -2.000000 -1 -1 0
-2 -2.000000 -1 -1 1
12 13.500000 33 36 -1
6 523.000000 34 35 -1
-2 -2.000000 -1 -1 0
-2 -2.000000 -1 -1 2
4 83.500000 37 38 -1
-2 -2.000000 -1 -1 0
-2 -2.000000 -1 -1 0
1 2.500000 40 55 -1
8 1.500000 41 48 -1
12 55.000000 42 45 -1
9 9.500000 43 44 -1
-2 -2.000000 -1 -1 0
-2 -2.000000 -1 -1 1
7 0.500000 46 47 -1
-2 -2.000000 -1 -1 0
-2 -2.000000 -1 -1 0
6 1.500000 49 52 -1
4 1.500000 50 51 -1
-2 -2.000000 -1 -1 0
-2 -2.000000 -1 -1 0
12 83.500000 53 54 -1
-2 -2.000000 -1 -1 0
-2 -2.000000 -1 -1 0
13 3.500000 56 63 -1
4 59.500000 57 60 -1
8 3.500000 58 59 -1
-2 -2.000000 -1 -1 0
-2 -2.000000 -1 -1 0
4 87.000000 61 62 -1
-2 -2.000000 -1 -1 4
-2 -2.000000 -1 -1 0
4 7.500000 64 67 -1
1 3.500000 65 66 -1
-2 -2.000000 -1 -1 2
-2 -2.000000 -1 -1 2
8 2.000000 68 69 -1
-2 -2.000000 -1 -1 1
-2 -2.000000 -1 -1 0
12 9.500000 71 102 -1
11 3.500000 72 87 -1
11 2.500000 73 80 -1
5 2.500000 74 77 -1
12 8.500000 75 76 -1
-2 -2.000000 -1 -1 0
-2 -2.000000 -1 -1 0
2 3.500000 78 79 -1
-2 -2.000000 -1 -1 0
-2 -2.000000 -1 -1 0
13 18.900000 81 84 -1
12 6.500000 82 83 -1
-2 -2.000000 -1 -1 0
-2 -2.000000 -1 -1 0
1 5.500000 85 86 -1
-2 -2.000000 -1 -1 0
-2 -2.000000 -1 -1 0
4 6.500000 88 95 -1
6 115.000000 89 92 -1
2 3.500000 90 91 -1
-2 -2.000000 -1 -1 0
-2 -2.000000 -1 -1 2
11 5.500000 93 94 -1
-2 -2.000000 -1 -1 1
-2 -2.000000 -1 -1 2
3 6.500000 96 99 -1
10 0.500000 97 98 -1
-2 -2.000000 -1 -1 0
-2 -2.000000 -1 -1 1
6 1.500000 100 101 -1
-2 -2.000000 -1 -1 1
-2 -2.000000 -1 -1 0
11 6.500000 103 118 -1
12 11.500000 104 111 -1
11 4.500000 105 108 -1
11 3.500000 106 107 -1
-2 -2.000000 -1 -1 0
-2 -2.000000 -1 -1 0
13 36.200001 109 110 -1
-2 -2.000000 -1 -1 0
-2 -2.000000 -1 -1 0
1 5.500000 112 115 -1
11 4.500000 113 114 -1
-2 -2.000000 -1 -1 0
-2 -2.000000 -1 -1 0
0 3.500000 116 117 -1
-2 -2.000000 -1 -1 1
-2 -2.000000 -1 -1 0
1 5.500000 119 126 -1
3 8.500000 120 123 -1
1 4.500000 121 122 -1
-2 -2.000000 -1 -1 0
-2 -2.000000 -1 -1 0
12 10.500000 124 125 -1
-2 -2.000000 -1 -1 0
-2 -2.000000 -1 -1 0
3 9.500000 127 130 -1
6 1.500000 128 129 -1
-2 -2.000000 -1 -1 0
-2 -2.000000 -1 -1 1
13 8.900000 131 132 -1
-2 -2.000000 -1 -1 0
-2 -2.000000 -1 -1 0
4 67.500000 134 195 -1
11 12.500000 135 166 -1
12 5.500000 136 151 -1
13 64.674999 137 144 -1
4 2.500000 138 141 -1
6 114.000000 139 140 -1
-2 -2.000000 -1 -1 1
-2 -2.000000 -1 -1 2
11 8.500000 142 143 -1
-2 -2.000000 -1 -1 2
-2 -2.000000 -1 -1 0
8 9.500000 145 148 -1
11 8.500000 146 147 -1
-2 -2.000000 -1 -1 0
-2 -2.000000 -1 -1 1
12 3.500000 149 150 -1
-2 -2.000000 -1 -1 3
-2 -2.000000 -1 -1 0
1 5.500000 152 159 -1
1 4.500000 153 156 -1
0 1.500000 154 155 -1
-2 -2.000000 -1 -1 0
-2 -2.000000 -1 -1 0
0 2.500000 157 158 -1
-2 -2.000000 -1 -1 1
-2 -2.000000 -1 -1 0
0 3.500000 160 163 -1
0 1.500000 161 162 -1
-2 -2.000000 -1 -1 1
-2 -2.000000 -1 -1 1
5 1.500000 164 165 -1
-2 -2.000000 -1 -1 0
-2 -2.000000 -1 -1 1
0 1.500000 167 182 -1
5 1.500000 168 175 -1
1 4.500000 169 172 -1
10 0.500000 170 171 -1
-2 -2.000000 -1 -1 1
-2 -2.000000 -1 -1 0
10 0.500000 173 174 -1
-2 -2.000000 -1 -1 1
-2 -2.000000 -1 -1 1
1 3.500000 176 179 -1
12 10.500000 177 178 -1
-2 -2.000000 -1 -1 0
-2 -2.000000 -1 -1 0
8 12.500000 180 181 -1
-2 -2.000000 -1 -1 1
-2 -2.000000 -1 -1 1
1 4.500000 183 188 -1
4 7.500000 184 187 -1
5 10.000000 185 186 -1
-2 -2.000000 -1 -1 2
-2 -2.000000 -1 -1 0
-2 -2.000000 -1 -1 0
4 3.500000 189 192 -1
12 162.000000 190 191 -1
-2 -2.000000 -1 -1 1
-2 -2.000000 -1 -1 0
11 13.500000 193 194 -1
-2 -2.000000 -1 -1 1
-2 -2.000000 -1 -1 1
4 80.500000 196 221 -1
0 1.500000 197 212 -1
6 41.500000 198 205 -1
8 17.000000 199 202 -1
1 3.500000 200 201 -1
-2 -2.000000 -1 -1 0
-2 -2.000000 -1 -1 0
3 19.500000 203 204 -1
-2 -2.000000 -1 -1 1
-2 -2.000000 -1 -1 1
1 4.500000 206 209 -1
1 3.500000 207 208 -1
-2 -2.000000 -1 -1 0
-2 -2.000000 -1 -1 0
4 73.000000 210 211 -1
-2 -2.000000 -1 -1 0
-2 -2.000000 -1 -1 0
6 27.500000 213 220 -1
8 10.500000 214 217 -1
9 3.500000 215 216 -1
-2 -2.000000 -1 -1 0
-2 -2.000000 -1 -1 0
11 11.500000 218 219 -1
-2 -2.000000 -1 -1 0
-2 -2.000000 -1 -1 1
-2 -2.000000 -1 -1 0
11 14.500000 222 235 -1
4 162.500000 223 230 -1
11 11.500000 224 227 -1
12 114.500000 225 226 -1
-2 -2.000000 -1 -1 0
-2 -2.000000 -1 -1 1
4 102.500000 228 229 -1
-2 -2.000000 -1 -1 1
-2 -2.000000 -1 -1 0
1 2.500000 231 234 -1
6 4.500000 232 233 -1
-2 -2.000000 -1 -1 0
-2 -2.000000 -1 -1 0
-2 -2.000000 -1 -1 0
4 227.500000 236 243 -1
0 1.500000 237 240 -1
5 1.500000 238 239 -1
-2 -2.000000 -1 -1 1
-2 -2.000000 -1 -1 1
4 225.500000 241 242 -1
-2 -2.000000 -1 -1 1
-2 -2.000000 -1 -1 1
11 21.500000 244 247 -1
1 3.500000 245 246 -1
-2 -2.000000 -1 -1 0
-2 -2.000000 -1 -1 0
2 2.500000 248 249 -1
-2 -2.000000 -1 -1 1
-2 -2.000000 -1 -1 0
1 19.500000 251 376 -1
1 13.500000 252 315 -1
1 9.500000 253 284 -1
11 27.500000 254 269 -1
12 68.500000 255 262 -1
11 7.500000 256 259 -1
11 6.500000 257 258 -1
-2 -2.000000 -1 -1 0
-2 -2.000000 -1 -1 0
0 1.500000 260 261 -1
-2 -2.000000 -1 -1 1
-2 -2.000000 -1 -1 1
9 1.500000 263 266 -1
13 10.100000 264 265 -1
-2 -2.000000 -1 -1 1
-2 -2.000000 -1 -1 0
12 226.000000 267 268 -1
-2 -2.000000 -1 -1 1
-2 -2.000000 -1 -1 0
4 53.500000 270 277 -1
1 8.500000 271 274 -1
0 1.500000 272 273 -1
-2 -2.000000 -1 -1 2
-2 -2.000000 -1 -1 1
0 1.500000 275 276 -1
-2 -2.000000 -1 -1 2
-2 -2.000000 -1 -1 2
12 60.500000 278 281 -1
0 1.500000 279 280 -1
-2 -2.000000 -1 -1 1
-2 -2.000000 -1 -1 1
4 203.500000 282 283 -1
-2 -2.000000 -1 -1 2
-2 -2.000000 -1 -1 1
1 10.500000 285 300 -1
0 3.500000 286 293 -1
4 51.500000 287 290 -1
0 1.500000 288 289 -1
-2 -2.000000 -1 -1 2
-2 -2.000000 -1 -1 2
9 1.500000 291 292 -1
-2 -2.000000 -1 -1 1
-2 -2.000000 -1 -1 2
5 3.500000 294 297 -1
4 51.500000 295 296 -1
-2 -2.000000 -1 -1 1
-2 -2.000000 -1 -1 1
11 27.500000 298 299 -1
-2 -2.000000 -1 -1 1
-2 -2.000000 -1 -1 2
12 52.500000 301 308 -1
0 2.500000 302 305 -1
1 12.500000 303 304 -1
-2 -2.000000 -1 -1 2
-2 -2.000000 -1 -1 3
1 12.500000 306 307 -1
-2 -2.000000 -1 -1 2
-2 -2.000000 -1 -1 2
12 62.500000 309 312 -1
6 40.000000 310 311 -1
-2 -2.000000 -1 -1 2
-2 -2.000000 -1 -1 1
12 202.500000 313 314 -1
-2 -2.000000 -1 -1 2
-2 -2.000000 -1 -1 1
1 15.500000 316 347 -1
6 40.500000 317 332 -1
0 4.500000 318 325 -1
12 194.000000 319 322 -1
1 14.500000 320 321 -1
-2 -2.000000 -1 -1 3
-2 -2.000000 -1 -1 3
5 58.500000 323 324 -1
-2 -2.000000 -1 -1 1
-2 -2.000000 -1 -1 1
1 14.500000 326 329 -1
11 41.500000 327 328 -1
-2 -2.000000 -1 -1 2
-2 -2.000000 -1 -1 3
12 69.500000 330 331 -1
-2 -2.000000 -1 -1 3
-2 -2.000000 -1 -1 2
6 42.500000 333 340 -1
4 31.500000 334 337 -1
5 2.500000 335 336 -1
-2 -2.000000 -1 -1 3
-2 -2.000000 -1 -1 3
13 1.333333 338 339 -1
-2 -2.000000 -1 -1 2
-2 -2.000000 -1 -1 2
11 41.500000 341 344 -1
0 3.500000 342 343 -1
-2 -2.000000 -1 -1 3
-2 -2.000000 -1 -1 2
0 1.500000 345 346 -1
-2 -2.000000 -1 -1 3
-2 -2.000000 -1 -1 3
0 1.500000 348 363 -1
1 18.500000 349 356 -1
6 194.500000 350 353 -1
1 17.500000 351 352 -1
-2 -2.000000 -1 -1 3
-2 -2.000000 -1 -1 3
4 28.500000 354 355 -1
-2 -2.000000 -1 -1 4
-2 -2.000000 -1 -1 3
6 41.500000 357 360 -1
3 69.500000 358 359 -1
-2 -2.000000 -1 -1 4
-2 -2.000000 -1 -1 4
6 63.000000 361 362 -1
-2 -2.000000 -1 -1 3
-2 -2.000000 -1 -1 4
12 183.500000 364 371 -1
12 32.500000 365 368 -1
1 18.500000 366 367 -1
-2 -2.000000 -1 -1 3
-2 -2.000000 -1 -1 3
12 33.500000 369 370 -1
-2 -2.000000 -1 -1 2
-2 -2.000000 -1 -1 3
13 2.700000 372 375 -1
12 185.500000 373 374 -1
-2 -2.000000 -1 -1 1
-2 -2.000000 -1 -1 1
-2 -2.000000 -1 -1 2
12 50.500000 377 430 -1
1 20.500000 378 401 -1
0 3.500000 379 386 -1
13 28.250000 380 385 -1
13 27.833333 381 384 -1
0 1.500000 382 383 -1
-2 -2.000000 -1 -1 4
-2 -2.000000 -1 -1 4
-2 -2.000000 -1 -1 3
-2 -2.000000 -1 -1 4
11 71.500000 387 394 -1
5 3.500000 388 391 -1
9 2.500000 389 390 -1
-2 -2.000000 -1 -1 3
-2 -2.000000 -1 -1 3
0 4.500000 392 393 -1
-2 -2.000000 -1 -1 4
-2 -2.000000 -1 -1 3
3 79.000000 395 398 -1
12 42.500000 396 397 -1
-2 -2.000000 -1 -1 4
-2 -2.000000 -1 -1 3
13 76.850000 399 400 -1
-2 -2.000000 -1 -1 3
-2 -2.000000 -1 -1 4
3 113.500000 402 417 -1
1 21.500000 403 410 -1
0 4.500000 404 407 -1
0 1.500000 405 406 -1
-2 -2.000000 -1 -1 4
-2 -2.000000 -1 -1 4
11 71.500000 408 409 -1
-2 -2.000000 -1 -1 4
-2 -2.000000 -1 -1 4
0 1.500000 411 414 -1
8 40.500000 412 413 -1
-2 -2.000000 -1 -1 4
-2 -2.000000 -1 -1 4
8 1.500000 415 416 -1
-2 -2.000000 -1 -1 4
-2 -2.000000 -1 -1 4
11 199.500000 418 425 -1
3 144.500000 419 422 -1
5 123.500000 420 421 -1
-2 -2.000000 -1 -1 2
-2 -2.000000 -1 -1 2
1 37.500000 423 424 -1
-2 -2.000000 -1 -1 2
-2 -2.000000 -1 -1 3
0 1.500000 426 429 -1
1 68.500000 427 428 -1
-2 -2.000000 -1 -1 4
-2 -2.000000 -1 -1 2
-2 -2.000000 -1 -1 4
12 147.500000 431 462 -1
3 144.500000 432 447 -1
1 28.500000 433 440 -1
11 134.500000 434 437 -1
12 51.500000 435 436 -1
-2 -2.000000 -1 -1 3
-2 -2.000000 -1 -1 3
13 1.500000 438 439 -1
-2 -2.000000 -1 -1 4
-2 -2.000000 -1 -1 4
0 1.500000 441 444 -1
11 143.500000 442 443 -1
-2 -2.000000 -1 -1 2
-2 -2.000000 -1 -1 2
1 38.500000 445 446 -1
-2 -2.000000 -1 -1 2
-2 -2.000000 -1 -1 2
1 36.500000 448 455 -1
8 145.500000 449 452 -1
1 32.000000 450 451 -1
-2 -2.000000 -1 -1 4
-2 -2.000000 -1 -1 2
10 0.500000 453 454 -1
-2 -2.000000 -1 -1 3
-2 -2.000000 -1 -1 4
11 200.500000 456 459 -1
1 37.500000 457 458 -1
-2 -2.000000 -1 -1 2
-2 -2.000000 -1 -1 3
12 83.500000 460 461 -1
-2 -2.000000 -1 -1 4
-2 -2.000000 -1 -1 3
13 2.225000 463 478 -1
8 2.500000 464 471 -1
11 83.500000 465 468 -1
1 23.500000 466 467 -1
-2 -2.000000 -1 -1 1
-2 -2.000000 -1 -1 1
9 1.500000 469 470 -1
-2 -2.000000 -1 -1 1
-2 -2.000000 -1 -1 2
11 139.500000 472 475 -1
4 5.000000 473 474 -1
-2 -2.000000 -1 -1 2
-2 -2.000000 -1 -1 1
3 141.000000 476 477 -1
-2 -2.000000 -1 -1 0
-2 -2.000000 -1 -1 2
12 171.500000 479 486 -1
1 22.500000 480 483 -1
2 2.500000 481 482 -1
-2 -2.000000 -1 -1 3
-2 -2.000000 -1 -1 2
4 151.500000 484 485 -1
-2 -2.000000 -1 -1 2
-2 -2.000000 -1 -1 2
0 1.500000 487 490 -1
8 81.000000 488 489 -1
-2 -2.000000 -1 -1 1
-2 -2.000000 -1 -1 1
-2 -2.000000 -1 -1 1
12 3452.500000 492 641 -1
1 227.500000 493 576 -1
1 226.500000 494 539 -1
1 1.500000 495 512 -1
11 0.500000 496 497 -1
-2 -2.000000 -1 -1 0
4 1756.000000 498 505 -1
4 787.500000 499 502 -1
4 286.500000 500 501 -1
-2 -2.000000 -1 -1 0
-2 -2.000000 -1 -1 4
12 965.000000 503 504 -1
-2 -2.000000 -1 -1 3
-2 -2.000000 -1 -1 3
4 2535.500000 506 509 -1
4 1870.500000 507 508 -1
-2 -2.000000 -1 -1 2
-2 -2.000000 -1 -1 2
4 2917.000000 510 511 -1
-2 -2.000000 -1 -1 1
-2 -2.000000 -1 -1 1
0 1.500000 513 528 -1
11 5.500000 514 521 -1
12 2536.500000 515 518 -1
12 1686.500000 516 517 -1
-2 -2.000000 -1 -1 0
-2 -2.000000 -1 -1 0
8 1.500000 519 520 -1
-2 -2.000000 -1 -1 0
-2 -2.000000 -1 -1 0
1 225.500000 522 525 -1
5 4.500000 523 524 -1
-2 -2.000000 -1 -1 0
-2 -2.000000 -1 -1 0
5 883.500000 526 527 -1
-2 -2.000000 -1 -1 0
-2 -2.000000 -1 -1 0
12 264.500000 529 534 -1
11 23.500000 530 533 -1
11 22.500000 531 532 -1
-2 -2.000000 -1 -1 0
-2 -2.000000 -1 -1 0
-2 -2.000000 -1 -1 1
12 269.500000 535 538 -1
11 18.500000 536 537 -1
-2 -2.000000 -1 -1 0
-2 -2.000000 -1 -1 0
-2 -2.000000 -1 -1 0
11 887.500000 540 553 -1
0 2.500000 541 544 -1
0 1.500000 542 543 -1
-2 -2.000000 -1 -1 0
-2 -2.000000 -1 -1 1
12 3413.500000 545 552 -1
8 883.500000 546 549 -1
11 881.500000 547 548 -1
-2 -2.000000 -1 -1 0
-2 -2.000000 -1 -1 0
12 3406.500000 550 551 -1
-2 -2.000000 -1 -1 0
-2 -2.000000 -1 -1 0
-2 -2.000000 -1 -1 0
3 909.000000 554 565 -1
8 887.500000 555 558 -1
3 888.500000 556 557 -1
-2 -2.000000 -1 -1 0
-2 -2.000000 -1 -1 1
12 3398.500000 559 562 -1
5 896.500000 560 561 -1
-2 -2.000000 -1 -1 1
-2 -2.000000 -1 -1 0
0 1.500000 563 564 -1
-2 -2.000000 -1 -1 0
-2 -2.000000 -1 -1 1
11 928.500000 566 573 -1
12 3394.500000 567 570 -1
5 923.500000 568 569 -1
-2 -2.000000 -1 -1 1
-2 -2.000000 -1 -1 0
12 3448.500000 571 572 -1
-2 -2.000000 -1 -1 0
-2 -2.000000 -1 -1 0
3 929.500000 574 575 -1
-2 -2.000000 -1 -1 0
-2 -2.000000 -1 -1 1
11 887.500000 577 594 -1
12 3413.500000 578 593 -1
8 888.500000 579 588 -1
8 883.500000 580 581 -1
-2 -2.000000 -1 -1 0
12 3408.000000 582 585 -1
5 887.500000 583 584 -1
-2 -2.000000 -1 -1 0
-2 -2.000000 -1 -1 1
13 50.200001 586 587 -1
-2 -2.000000 -1 -1 1
-2 -2.000000 -1 -1 1
13 40.900000 589 592 -1
4 3402.500000 590 591 -1
-2 -2.000000 -1 -1 0
-2 -2.000000 -1 -1 1
-2 -2.000000 -1 -1 0
-2 -2.000000 -1 -1 0
1 228.500000 595 620 -1
11 910.500000 596 611 -1
4 3387.500000 597 604 -1
0 3.500000 598 601 -1
4 3385.000000 599 600 -1
-2 -2.000000 -1 -1 1
-2 -2.000000 -1 -1 1
11 890.500000 602 603 -1
-2 -2.000000 -1 -1 1
-2 -2.000000 -1 -1 0
0 1.500000 605 608 -1
8 889.500000 606 607 -1
-2 -2.000000 -1 -1 0
-2 -2.000000 -1 -1 1
13 17.700000 609 610 -1
-2 -2.000000 -1 -1 1
-2 -2.000000 -1 -1 1
11 928.500000 612 619 -1
12 3394.500000 613 616 -1
4 3388.500000 614 615 -1
-2 -2.000000 -1 -1 0
-2 -2.000000 -1 -1 1
12 3448.500000 617 618 -1
-2 -2.000000 -1 -1 0
-2 -2.000000 -1 -1 0
-2 -2.000000 -1 -1 1
3 931.500000 621 636 -1
0 1.500000 622 629 -1
10 0.500000 623 626 -1
11 906.500000 624 625 -1
-2 -2.000000 -1 -1 1
-2 -2.000000 -1 -1 1
11 895.000000 627 628 -1
-2 -2.000000 -1 -1 0
-2 -2.000000 -1 -1 1
1 229.500000 630 633 -1
3 927.500000 631 632 -1
-2 -2.000000 -1 -1 1
-2 -2.000000 -1 -1 0
11 891.500000 634 635 -1
-2 -2.000000 -1 -1 1
-2 -2.000000 -1 -1 1
11 928.500000 637 640 -1
1 234.500000 638 639 -1
-2 -2.000000 -1 -1 0
-2 -2.000000 -1 -1 1
-2 -2.000000 -1 -1 1
1 1.500000 642 687 -1
0 1.500000 643 686 -1
4 4365.500000 644 657 -1
12 3973.000000 645 650 -1
9 3.500000 646 649 -1
13 1.500000 647 648 -1
-2 -2.000000 -1 -1 0
-2 -2.000000 -1 -1 1
-2 -2.000000 -1 -1 0
12 4352.500000 651 652 -1
-2 -2.000000 -1 -1 0
4 4353.500000 653 654 -1
-2 -2.000000 -1 -1 4
6 263.000000 655 656 -1
-2 -2.000000 -1 -1 0
-2 -2.000000 -1 -1 0
6 8.000000 658 671 -1
12 5049.500000 659 666 -1
12 4396.000000 660 663 -1
6 3.500000 661 662 -1
-2 -2.000000 -1 -1 0
-2 -2.000000 -1 -1 4
12 5048.500000 664 665 -1
-2 -2.000000 -1 -1 0
-2 -2.000000 -1 -1 0
3 4.500000 667 670 -1
9 1.500000 668 669 -1
-2 -2.000000 -1 -1 0
-2 -2.000000 -1 -1 4
-2 -2.000000 -1 -1 0
13 1.500000 672 679 -1
9 59.500000 673 676 -1
10 0.500000 674 675 -1
-2 -2.000000 -1 -1 4
-2 -2.000000 -1 -1 0
6 167.000000 677 678 -1
-2 -2.000000 -1 -1 4
-2 -2.000000 -1 -1 4
4 4370.500000 680 683 -1
2 3.500000 681 682 -1
-2 -2.000000 -1 -1 4
-2 -2.000000 -1 -1 4
9 205.500000 684 685 -1
-2 -2.000000 -1 -1 4
-2 -2.000000 -1 -1 4
-2 -2.000000 -1 -1 0
0 1.500000 688 749 -1
5 5.500000 689 720 -1
7 0.500000 690 705 -1
2 5.000000 691 698 -1
6 157.000000 692 695 -1
11 21.500000 693 694 -1
-2 -2.000000 -1 -1 0
-2 -2.000000 -1 -1 0
6 195.500000 696 697 -1
-2 -2.000000 -1 -1 0
-2 -2.000000 -1 -1 0
13 26.000000 699 702 -1
8 4.500000 700 701 -1
-2 -2.000000 -1 -1 0
-2 -2.000000 -1 -1 0
4 3708.000000 703 704 -1
-2 -2.000000 -1 -1 0
-2 -2.000000 -1 -1 0
3 15.500000 706 713 -1
3 4.500000 707 710 -1
5 2.500000 708 709 -1
-2 -2.000000 -1 -1 4
-2 -2.000000 -1 -1 0
1 5.500000 711 712 -1
-2 -2.000000 -1 -1 0
-2 -2.000000 -1 -1 4
3 54.500000 714 717 -1
1 14.500000 715 716 -1
-2 -2.000000 -1 -1 0
-2 -2.000000 -1 -1 0
5 0.500000 718 719 -1
-2 -2.000000 -1 -1 0
-2 -2.000000 -1 -1 0
11 58.500000 721 734 -1
8 5.500000 722 727 -1
5 48.000000 723 726 -1
1 12.500000 724 725 -1
-2 -2.000000 -1 -1 0
-2 -2.000000 -1 -1 4
-2 -2.000000 -1 -1 0
4 4306.500000 728 731 -1
8 56.500000 729 730 -1
-2 -2.000000 -1 -1 0
-2 -2.000000 -1 -1 0
13 2.500000 732 733 -1
-2 -2.000000 -1 -1 0
-2 -2.000000 -1 -1 0
13 2.500000 735 742 -1
5 887.500000 736 739 -1
4 4157.500000 737 738 -1
-2 -2.000000 -1 -1 0
-2 -2.000000 -1 -1 0
7 0.500000 740 741 -1
-2 -2.000000 -1 -1 0
-2 -2.000000 -1 -1 0
12 3454.000000 743 746 -1
3 891.500000 744 745 -1
-2 -2.000000 -1 -1 1
-2 -2.000000 -1 -1 0
6 1.500000 747 748 -1
-2 -2.000000 -1 -1 0
-2 -2.000000 -1 -1 0
12 3456.500000 750 761 -1
1 226.500000 751 752 -1
-2 -2.000000 -1 -1 0
11 887.500000 753 754 -1
-2 -2.000000 -1 -1 0
11 889.500000 755 758 -1
13 11.333333 756 757 -1
-2 -2.000000 -1 -1 1
-2 -2.000000 -1 -1 1
11 891.500000 759 760 -1
-2 -2.000000 -1 -1 0
-2 -2.000000 -1 -1 1
-2 -2.000000 -1 -1 0
4 4033.500000 763 1038 -1
12 2594.500000 764 911 -1
1 437.500000 765 818 -1
1 436.500000 766 787 -1
5 1785.500000 767 784 -1
0 1.500000 768 783 -1
5 0.500000 769 776 -1
6 123.500000 770 773 -1
7 0.500000 771 772 -1
-2 -2.000000 -1 -1 4
-2 -2.000000 -1 -1 1
6 313.000000 774 775 -1
-2 -2.000000 -1 -1 1
-2 -2.000000 -1 -1 0
13 2.500000 777 780 -1
1 435.500000 778 779 -1
-2 -2.000000 -1 -1 1
-2 -2.000000 -1 -1 1
12 2552.000000 781 782 -1
-2 -2.000000 -1 -1 1
-2 -2.000000 -1 -1 1
-2 -2.000000 -1 -1 1
13 1.500000 785 786 -1
-2 -2.000000 -1 -1 1
-2 -2.000000 -1 -1 2
0 1.500000 788 817 -1
5 1750.500000 789 804 -1
6 242.000000 790 797 -1
6 22.000000 791 794 -1
6 2.500000 792 793 -1
-2 -2.000000 -1 -1 1
-2 -2.000000 -1 -1 0
4 2592.500000 795 796 -1
-2 -2.000000 -1 -1 1
-2 -2.000000 -1 -1 1
12 2590.500000 798 801 -1
9 2.500000 799 800 -1
-2 -2.000000 -1 -1 2
-2 -2.000000 -1 -1 2
11 1753.000000 802 803 -1
-2 -2.000000 -1 -1 1
-2 -2.000000 -1 -1 0
11 1764.000000 805 812 -1
4 2585.500000 806 809 -1
12 2582.500000 807 808 -1
-2 -2.000000 -1 -1 2
-2 -2.000000 -1 -1 1
4 2592.500000 810 811 -1
-2 -2.000000 -1 -1 2
-2 -2.000000 -1 -1 1
5 1785.000000 813 814 -1
-2 -2.000000 -1 -1 1
12 2505.500000 815 816 -1
-2 -2.000000 -1 -1 1
-2 -2.000000 -1 -1 2
-2 -2.000000 -1 -1 1
11 1750.500000 819 856 -1
12 2522.500000 820 835 -1
11 1745.500000 821 822 -1
-2 -2.000000 -1 -1 1
12 2521.500000 823 830 -1
12 2519.500000 824 827 -1
13 7.100000 825 826 -1
-2 -2.000000 -1 -1 1
-2 -2.000000 -1 -1 2
13 6.200000 828 829 -1
-2 -2.000000 -1 -1 2
-2 -2.000000 -1 -1 1
6 1.500000 831 832 -1
-2 -2.000000 -1 -1 1
8 1747.500000 833 834 -1
-2 -2.000000 -1 -1 2
-2 -2.000000 -1 -1 2
11 1748.500000 836 849 -1
1 439.500000 837 842 -1
3 1742.000000 838 841 -1
11 1735.500000 839 840 -1
-2 -2.000000 -1 -1 1
-2 -2.000000 -1 -1 2
-2 -2.000000 -1 -1 1
13 2.125000 843 846 -1
4 2527.000000 844 845 -1
-2 -2.000000 -1 -1 2
-2 -2.000000 -1 -1 1
11 1736.500000 847 848 -1
-2 -2.000000 -1 -1 2
-2 -2.000000 -1 -1 2
1 441.500000 850 855 -1
0 2.500000 851 852 -1
-2 -2.000000 -1 -1 2
12 2535.500000 853 854 -1
-2 -2.000000 -1 -1 1
-2 -2.000000 -1 -1 1
-2 -2.000000 -1 -1 2
0 1.500000 857 886 -1
8 1753.500000 858 873 -1
9 21.000000 859 866 -1
12 2530.500000 860 863 -1
6 40.500000 861 862 -1
-2 -2.000000 -1 -1 2
-2 -2.000000 -1 -1 1
4 2579.500000 864 865 -1
-2 -2.000000 -1 -1 1
-2 -2.000000 -1 -1 1
4 2587.000000 867 870 -1
4 2553.000000 868 869 -1
-2 -2.000000 -1 -1 2
-2 -2.000000 -1 -1 2
4 2589.000000 871 872 -1
-2 -2.000000 -1 -1 1
-2 -2.000000 -1 -1 2
5 1755.000000 874 879 -1
12 2588.500000 875 878 -1
12 2499.500000 876 877 -1
-2 -2.000000 -1 -1 2
-2 -2.000000 -1 -1 2
-2 -2.000000 -1 -1 0
10 0.500000 880 883 -1
5 1785.500000 881 882 -1
-2 -2.000000 -1 -1 2
-2 -2.000000 -1 -1 1
12 2548.500000 884 885 -1
-2 -2.000000 -1 -1 2
-2 -2.000000 -1 -1 1
3 1782.500000 887 898 -1
8 1780.500000 888 895 -1
3 1771.500000 889 892 -1
8 1769.500000 890 891 -1
-2 -2.000000 -1 -1 2
-2 -2.000000 -1 -1 2
1 440.500000 893 894 -1
-2 -2.000000 -1 -1 2
-2 -2.000000 -1 -1 2
1 441.500000 896 897 -1
-2 -2.000000 -1 -1 1
-2 -2.000000 -1 -1 2
1 440.500000 899 906 -1
12 2507.500000 900 903 -1
12 2503.500000 901 902 -1
-2 -2.000000 -1 -1 1
-2 -2.000000 -1 -1 2
11 1785.500000 904 905 -1
-2 -2.000000 -1 -1 1
-2 -2.000000 -1 -1 1
3 1791.500000 907 908 -1
-2 -2.000000 -1 -1 2
11 1787.500000 909 910 -1
-2 -2.000000 -1 -1 1
-2 -2.000000 -1 -1 2
12 4085.500000 912 1003 -1
1 231.500000 913 946 -1
6 195.500000 914 931 -1
0 1.500000 915 930 -1
8 930.500000 916 923 -1
3 948.500000 917 920 -1
12 3371.500000 918 919 -1
-2 -2.000000 -1 -1 1
-2 -2.000000 -1 -1 1
12 3392.000000 921 922 -1
-2 -2.000000 -1 -1 1
-2 -2.000000 -1 -1 0
5 890.500000 924 927 -1
12 3392.500000 925 926 -1
-2 -2.000000 -1 -1 1
-2 -2.000000 -1 -1 0
6 1.500000 928 929 -1
-2 -2.000000 -1 -1 1
-2 -2.000000 -1 -1 1
-2 -2.000000 -1 -1 1
9 2.500000 932 941 -1
4 3418.500000 933 938 -1
6 199.500000 934 937 -1
12 3393.500000 935 936 -1
-2 -2.000000 -1 -1 0
-2 -2.000000 -1 -1 0
-2 -2.000000 -1 -1 0
4 3419.500000 939 940 -1
-2 -2.000000 -1 -1 1
-2 -2.000000 -1 -1 0
7 0.500000 942 945 -1
4 3408.000000 943 944 -1
-2 -2.000000 -1 -1 0
-2 -2.000000 -1 -1 4
-2 -2.000000 -1 -1 1
4 4010.500000 947 974 -1
0 1.500000 948 963 -1
8 1009.500000 949 956 -1
5 942.500000 950 953 -1
3 951.500000 951 952 -1
-2 -2.000000 -1 -1 1
-2 -2.000000 -1 -1 0
6 32.500000 954 955 -1
-2 -2.000000 -1 -1 1
-2 -2.000000 -1 -1 1
5 2.500000 957 960 -1
6 147.500000 958 959 -1
-2 -2.000000 -1 -1 1
-2 -2.000000 -1 -1 1
4 3943.500000 961 962 -1
-2 -2.000000 -1 -1 1
-2 -2.000000 -1 -1 1
12 4084.500000 964 971 -1
12 2595.500000 965 968 -1
1 437.500000 966 967 -1
-2 -2.000000 -1 -1 1
-2 -2.000000 -1 -1 2
4 3961.500000 969 970 -1
-2 -2.000000 -1 -1 1
-2 -2.000000 -1 -1 1
13 51.600000 972 973 -1
-2 -2.000000 -1 -1 1
-2 -2.000000 -1 -1 0
1 260.500000 975 990 -1
11 973.500000 976 983 -1
9 2.500000 977 980 -1
1 258.500000 978 979 -1
-2 -2.000000 -1 -1 0
-2 -2.000000 -1 -1 0
10 0.500000 981 982 -1
-2 -2.000000 -1 -1 1
-2 -2.000000 -1 -1 0
11 974.500000 984 987 -1
7 0.500000 985 986 -1
-2 -2.000000 -1 -1 1
-2 -2.000000 -1 -1 0
12 4011.500000 988 989 -1
-2 -2.000000 -1 -1 0
-2 -2.000000 -1 -1 1
0 1.500000 991 998 -1
8 968.500000 992 995 -1
8 478.000000 993 994 -1
-2 -2.000000 -1 -1 1
-2 -2.000000 -1 -1 0
3 1030.500000 996 997 -1
-2 -2.000000 -1 -1 1
-2 -2.000000 -1 -1 1
11 973.500000 999 1002 -1
4 4011.500000 1000 1001 -1
-2 -2.000000 -1 -1 0
-2 -2.000000 -1 -1 1
-2 -2.000000 -1 -1 1
1 260.500000 1004 1021 -1
1 258.500000 1005 1006 -1
-2 -2.000000 -1 -1 0
0 2.500000 1007 1008 -1
-2 -2.000000 -1 -1 1
10 0.500000 1009 1014 -1
11 966.500000 1010 1011 -1
-2 -2.000000 -1 -1 0
12 4091.000000 1012 1013 -1
-2 -2.000000 -1 -1 0
-2 -2.000000 -1 -1 1
13 1.425000 1015 1018 -1
1 259.500000 1016 1017 -1
-2 -2.000000 -1 -1 0
-2 -2.000000 -1 -1 1
13 2.541667 1019 1020 -1
-2 -2.000000 -1 -1 0
-2 -2.000000 -1 -1 0
11 966.000000 1022 1023 -1
-2 -2.000000 -1 -1 0
4 4014.500000 1024 1031 -1
1 261.500000 1025 1026 -1
-2 -2.000000 -1 -1 0
13 51.500000 1027 1028 -1
-2 -2.000000 -1 -1 1
0 4.500000 1029 1030 -1
-2 -2.000000 -1 -1 1
-2 -2.000000 -1 -1 0
8 971.000000 1032 1033 -1
-2 -2.000000 -1 -1 1
12 4088.000000 1034 1035 -1
-2 -2.000000 -1 -1 1
1 262.500000 1036 1037 -1
-2 -2.000000 -1 -1 0
-2 -2.000000 -1 -1 1
1 258.500000 1039 1078 -1
3 975.500000 1040 1073 -1
0 1.500000 1041 1072 -1
13 4.500000 1042 1067 -1
4 4043.500000 1043 1054 -1
8 955.500000 1044 1051 -1
9 64.500000 1045 1048 -1
11 947.500000 1046 1047 -1
-2 -2.000000 -1 -1 0
-2 -2.000000 -1 -1 0
1 253.500000 1049 1050 -1
-2 -2.000000 -1 -1 0
-2 -2.000000 -1 -1 0
1 255.500000 1052 1053 -1
-2 -2.000000 -1 -1 0
-2 -2.000000 -1 -1 1
11 968.500000 1055 1062 -1
8 889.500000 1056 1059 -1
1 254.500000 1057 1058 -1
-2 -2.000000 -1 -1 0
-2 -2.000000 -1 -1 1
7 0.500000 1060 1061 -1
-2 -2.000000 -1 -1 0
-2 -2.000000 -1 -1 0
13 1.500000 1063 1064 -1
-2 -2.000000 -1 -1 0
11 973.500000 1065 1066 -1
-2 -2.000000 -1 -1 0
-2 -2.000000 -1 -1 0
8 951.000000 1068 1071 -1
1 252.500000 1069 1070 -1
-2 -2.000000 -1 -1 0
-2 -2.000000 -1 -1 4
-2 -2.000000 -1 -1 0
-2 -2.000000 -1 -1 0
10 0.500000 1074 1075 -1
-2 -2.000000 -1 -1 1
7 0.500000 1076 1077 -1
-2 -2.000000 -1 -1 0
-2 -2.000000 -1 -1 1
12 4085.500000 1079 1142 -1
0 1.500000 1080 1121 -1
9 3.500000 1081 1104 -1
9 1.500000 1082 1095 -1
8 1018.500000 1083 1090 -1
5 991.500000 1084 1087 -1
12 4082.000000 1085 1086 -1
-2 -2.000000 -1 -1 1
-2 -2.000000 -1 -1 0
5 996.500000 1088 1089 -1
-2 -2.000000 -1 -1 0
-2 -2.000000 -1 -1 1
5 2.500000 1091 1094 -1
1 272.500000 1092 1093 -1
-2 -2.000000 -1 -1 0
-2 -2.000000 -1 -1 1
-2 -2.000000 -1 -1 1
12 4084.500000 1096 1103 -1
5 1016.000000 1097 1100 -1
4 4079.500000 1098 1099 -1
-2 -2.000000 -1 -1 1
-2 -2.000000 -1 -1 1
1 270.500000 1101 1102 -1
-2 -2.000000 -1 -1 1
-2 -2.000000 -1 -1 0
-2 -2.000000 -1 -1 0
3 1014.500000 1105 1116 -1
1 267.500000 1106 1111 -1
8 1008.500000 1107 1110 -1
3 977.000000 1108 1109 -1
-2 -2.000000 -1 -1 1
-2 -2.000000 -1 -1 0
-2 -2.000000 -1 -1 1
5 23.000000 1112 1115 -1
1 269.000000 1113 1114 -1
-2 -2.000000 -1 -1 0
-2 -2.000000 -1 -1 0
-2 -2.000000 -1 -1 0
4 4036.000000 1117 1118 -1
-2 -2.000000 -1 -1 0
5 515.000000 1119 1120 -1
-2 -2.000000 -1 -1 1
-2 -2.000000 -1 -1 1
11 974.500000 1122 1141 -1
12 4042.500000 1123 1128 -1
6 1.500000 1124 1127 -1
11 954.500000 1125 1126 -1
-2 -2.000000 -1 -1 0
-2 -2.000000 -1 -1 1
-2 -2.000000 -1 -1 1
11 955.500000 1129 1134 -1
12 4043.500000 1130 1133 -1
11 954.500000 1131 1132 -1
-2 -2.000000 -1 -1 0
-2 -2.000000 -1 -1 1
-2 -2.000000 -1 -1 0
3 975.500000 1135 1138 -1
2 2.500000 1136 1137 -1
-2 -2.000000 -1 -1 1
-2 -2.000000 -1 -1 1
1 261.500000 1139 1140 -1
-2 -2.000000 -1 -1 0
-2 -2.000000 -1 -1 1
-2 -2.000000 -1 -1 1
11 966.500000 1143 1144 -1
-2 -2.000000 -1 -1 0
1 260.500000 1145 1166 -1
8 969.500000 1146 1157 -1
13 26.900000 1147 1152 -1
13 2.300000 1148 1151 -1
1 259.500000 1149 1150 -1
-2 -2.000000 -1 -1 0
-2 -2.000000 -1 -1 1
-2 -2.000000 -1 -1 1
1 259.500000 1153 1156 -1
2 1.500000 1154 1155 -1
-2 -2.000000 -1 -1 1
-2 -2.000000 -1 -1 0
-2 -2.000000 -1 -1 1
0 2.500000 1158 1161 -1
0 1.500000 1159 1160 -1
-2 -2.000000 -1 -1 0
-2 -2.000000 -1 -1 1
1 259.500000 1162 1163 -1
-2 -2.000000 -1 -1 0
3 973.500000 1164 1165 -1
-2 -2.000000 -1 -1 0
-2 -2.000000 -1 -1 0
3 975.500000 1167 1172 -1
5 972.500000 1168 1169 -1
-2 -2.000000 -1 -1 1
13 42.674999 1170 1171 -1
-2 -2.000000 -1 -1 1
-2 -2.000000 -1 -1 0
-2 -2.000000 -1 -1 0
11 2627.500000 1174 1641 -1
12 3091.500000 1175 1506 -1
4 1653.500000 1176 1281 -1
1 643.500000 1177 1224 -1
0 1.500000 1178 1223 -1
1 636.500000 1179 1202 -1
8 2592.500000 1180 1191 -1
1 635.500000 1181 1186 -1
12 1616.000000 1182 1183 -1
-2 -2.000000 -1 -1 2
12 1618.000000 1184 1185 -1
-2 -2.000000 -1 -1 2
-2 -2.000000 -1 -1 2
4 1604.000000 1187 1188 -1
-2 -2.000000 -1 -1 2
4 1628.000000 1189 1190 -1
-2 -2.000000 -1 -1 2
-2 -2.000000 -1 -1 2
12 1596.000000 1192 1197 -1
12 1590.000000 1193 1194 -1
-2 -2.000000 -1 -1 2
12 1592.000000 1195 1196 -1
-2 -2.000000 -1 -1 2
-2 -2.000000 -1 -1 2
1 635.500000 1198 1201 -1
12 1640.000000 1199 1200 -1
-2 -2.000000 -1 -1 2
-2 -2.000000 -1 -1 2
-2 -2.000000 -1 -1 2
3 2593.500000 1203 1212 -1
4 1572.000000 1204 1205 -1
-2 -2.000000 -1 -1 3
4 1640.000000 1206 1209 -1
12 1592.000000 1207 1208 -1
-2 -2.000000 -1 -1 3
-2 -2.000000 -1 -1 2
12 1650.000000 1210 1211 -1
-2 -2.000000 -1 -1 2
-2 -2.000000 -1 -1 2
1 642.500000 1213 1218 -1
8 2621.500000 1214 1215 -1
-2 -2.000000 -1 -1 2
12 1650.000000 1216 1217 -1
-2 -2.000000 -1 -1 2
-2 -2.000000 -1 -1 2
11 2622.500000 1219 1222 -1
6 1.500000 1220 1221 -1
-2 -2.000000 -1 -1 2
-2 -2.000000 -1 -1 3
-2 -2.000000 -1 -1 2
-2 -2.000000 -1 -1 2
3 2620.500000 1225 1248 -1
11 2588.500000 1226 1229 -1
1 648.500000 1227 1228 -1
-2 -2.000000 -1 -1 2
-2 -2.000000 -1 -1 3
0 1.500000 1230 1245 -1
9 2.000000 1231 1238 -1
10 0.500000 1232 1235 -1
4 1649.000000 1233 1234 -1
-2 -2.000000 -1 -1 3
-2 -2.000000 -1 -1 3
1 648.500000 1236 1237 -1
-2 -2.000000 -1 -1 3
-2 -2.000000 -1 -1 3
4 1649.500000 1239 1242 -1
4 1562.000000 1240 1241 -1
-2 -2.000000 -1 -1 3
-2 -2.000000 -1 -1 3
11 2596.000000 1243 1244 -1
-2 -2.000000 -1 -1 3
-2 -2.000000 -1 -1 2
12 1756.500000 1246 1247 -1
-2 -2.000000 -1 -1 3
-2 -2.000000 -1 -1 2
1 646.500000 1249 1266 -1
4 1646.500000 1250 1257 -1
8 2627.500000 1251 1252 -1
-2 -2.000000 -1 -1 2
12 1646.500000 1253 1256 -1
0 4.500000 1254 1255 -1
-2 -2.000000 -1 -1 2
-2 -2.000000 -1 -1 3
-2 -2.000000 -1 -1 2
11 2620.500000 1258 1259 -1
-2 -2.000000 -1 -1 2
3 2625.500000 1260 1263 -1
0 1.500000 1261 1262 -1
-2 -2.000000 -1 -1 2
-2 -2.000000 -1 -1 3
1 645.500000 1264 1265 -1
-2 -2.000000 -1 -1 2
-2 -2.000000 -1 -1 3
0 1.500000 1267 1280 -1
10 0.500000 1268 1275 -1
1 651.500000 1269 1272 -1
3 2623.000000 1270 1271 -1
-2 -2.000000 -1 -1 3
-2 -2.000000 -1 -1 3
1 652.500000 1273 1274 -1
-2 -2.000000 -1 -1 2
-2 -2.000000 -1 -1 2
9 2.000000 1276 1279 -1
5 2621.000000 1277 1278 -1
-2 -2.000000 -1 -1 3
-2 -2.000000 -1 -1 3
-2 -2.000000 -1 -1 3
-2 -2.000000 -1 -1 3
4 2994.500000 1282 1393 -1
12 1752.500000 1283 1334 -1
1 643.500000 1284 1307 -1
1 642.500000 1285 1296 -1
8 2621.500000 1286 1291 -1
0 1.500000 1287 1290 -1
5 0.500000 1288 1289 -1
-2 -2.000000 -1 -1 2
-2 -2.000000 -1 -1 2
-2 -2.000000 -1 -1 2
4 1747.000000 1292 1293 -1
-2 -2.000000 -1 -1 2
0 2.000000 1294 1295 -1
-2 -2.000000 -1 -1 3
-2 -2.000000 -1 -1 2
5 2588.000000 1297 1302 -1
4 1657.000000 1298 1299 -1
-2 -2.000000 -1 -1 3
6 248.000000 1300 1301 -1
-2 -2.000000 -1 -1 2
-2 -2.000000 -1 -1 2
0 1.500000 1303 1306 -1
10 0.500000 1304 1305 -1
-2 -2.000000 -1 -1 3
-2 -2.000000 -1 -1 3
-2 -2.000000 -1 -1 2
11 2588.500000 1308 1319 -1
12 1667.500000 1309 1314 -1
12 1662.500000 1310 1311 -1
-2 -2.000000 -1 -1 2
1 645.500000 1312 1313 -1
-2 -2.000000 -1 -1 3
-2 -2.000000 -1 -1 3
0 2.500000 1315 1316 -1
-2 -2.000000 -1 -1 3
11 2587.500000 1317 1318 -1
-2 -2.000000 -1 -1 2
-2 -2.000000 -1 -1 2
0 1.500000 1320 1327 -1
6 27.500000 1321 1324 -1
3 2596.500000 1322 1323 -1
-2 -2.000000 -1 -1 2
-2 -2.000000 -1 -1 3
13 26.500000 1325 1326 -1
-2 -2.000000 -1 -1 2
-2 -2.000000 -1 -1 2
3 2625.500000 1328 1331 -1
3 2621.500000 1329 1330 -1
-2 -2.000000 -1 -1 3
-2 -2.000000 -1 -1 3
1 646.500000 1332 1333 -1
-2 -2.000000 -1 -1 2
-2 -2.000000 -1 -1 3
0 1.500000 1335 1366 -1
1 451.500000 1336 1351 -1
6 183.500000 1337 1344 -1
8 1787.500000 1338 1341 -1
8 1756.500000 1339 1340 -1
-2 -2.000000 -1 -1 2
-2 -2.000000 -1 -1 2
6 1.500000 1342 1343 -1
-2 -2.000000 -1 -1 2
-2 -2.000000 -1 -1 2
6 211.500000 1345 1348 -1
13 2.000000 1346 1347 -1
-2 -2.000000 -1 -1 2
-2 -2.000000 -1 -1 1
9 2.500000 1349 1350 -1
-2 -2.000000 -1 -1 1
-2 -2.000000 -1 -1 1
12 2880.500000 1352 1359 -1
7 0.500000 1353 1356 -1
6 114.000000 1354 1355 -1
-2 -2.000000 -1 -1 2
-2 -2.000000 -1 -1 2
8 1856.500000 1357 1358 -1
-2 -2.000000 -1 -1 2
-2 -2.000000 -1 -1 2
9 1.500000 1360 1363 -1
5 2062.500000 1361 1362 -1
-2 -2.000000 -1 -1 2
-2 -2.000000 -1 -1 2
3 1980.000000 1364 1365 -1
-2 -2.000000 -1 -1 2
-2 -2.000000 -1 -1 2
12 1755.500000 1367 1380 -1
1 644.500000 1368 1373 -1
1 643.500000 1369 1370 -1
-2 -2.000000 -1 -1 2
0 2.500000 1371 1372 -1
-2 -2.000000 -1 -1 3
-2 -2.000000 -1 -1 2
11 2589.500000 1374 1377 -1
13 2.100000 1375 1376 -1
-2 -2.000000 -1 -1 3
-2 -2.000000 -1 -1 2
8 2608.500000 1378 1379 -1
-2 -2.000000 -1 -1 3
-2 -2.000000 -1 -1 2
4 1655.500000 1381 1386 -1
1 644.000000 1382 1383 -1
-2 -2.000000 -1 -1 2
13 81.200001 1384 1385 -1
-2 -2.000000 -1 -1 3
-2 -2.000000 -1 -1 2
8 3.000000 1387 1390 -1
12 2895.500000 1388 1389 -1
-2 -2.000000 -1 -1 2
-2 -2.000000 -1 -1 1
12 2999.500000 1391 1392 -1
-2 -2.000000 -1 -1 2
-2 -2.000000 -1 -1 2
11 1962.500000 1394 1453 -1
12 3021.500000 1395 1424 -1
12 3013.000000 1396 1411 -1
12 3004.500000 1397 1404 -1
6 1.500000 1398 1401 -1
1 524.500000 1399 1400 -1
-2 -2.000000 -1 -1 1
-2 -2.000000 -1 -1 2
1 496.500000 1402 1403 -1
-2 -2.000000 -1 -1 1
-2 -2.000000 -1 -1 1
12 3005.500000 1405 1408 -1
1 522.500000 1406 1407 -1
-2 -2.000000 -1 -1 1
-2 -2.000000 -1 -1 2
9 2.000000 1409 1410 -1
-2 -2.000000 -1 -1 1
-2 -2.000000 -1 -1 1
1 523.500000 1412 1419 -1
8 1943.500000 1413 1416 -1
1 522.500000 1414 1415 -1
-2 -2.000000 -1 -1 1
-2 -2.000000 -1 -1 2
7 0.500000 1417 1418 -1
-2 -2.000000 -1 -1 1
-2 -2.000000 -1 -1 1
3 1942.500000 1420 1421 -1
-2 -2.000000 -1 -1 1
8 1963.500000 1422 1423 -1
-2 -2.000000 -1 -1 2
-2 -2.000000 -1 -1 2
8 1867.500000 1425 1438 -1
5 1894.500000 1426 1433 -1
12 3079.500000 1427 1430 -1
12 3074.500000 1428 1429 -1
-2 -2.000000 -1 -1 2
-2 -2.000000 -1 -1 2
1 500.500000 1431 1432 -1
-2 -2.000000 -1 -1 2
-2 -2.000000 -1 -1 1
1 509.500000 1434 1435 -1
-2 -2.000000 -1 -1 1
1 520.000000 1436 1437 -1
-2 -2.000000 -1 -1 2
-2 -2.000000 -1 -1 1
7 0.500000 1439 1446 -1
1 512.500000 1440 1443 -1
12 3082.500000 1441 1442 -1
-2 -2.000000 -1 -1 2
-2 -2.000000 -1 -1 1
12 3035.000000 1444 1445 -1
-2 -2.000000 -1 -1 1
-2 -2.000000 -1 -1 1
1 498.500000 1447 1450 -1
5 1869.500000 1448 1449 -1
-2 -2.000000 -1 -1 1
-2 -2.000000 -1 -1 1
0 1.500000 1451 1452 -1
-2 -2.000000 -1 -1 1
-2 -2.000000 -1 -1 1
1 522.500000 1454 1477 -1
11 1964.500000 1455 1468 -1
8 1900.000000 1456 1463 -1
1 521.500000 1457 1460 -1
12 3063.500000 1458 1459 -1
-2 -2.000000 -1 -1 1
-2 -2.000000 -1 -1 1
12 3060.500000 1461 1462 -1
-2 -2.000000 -1 -1 2
-2 -2.000000 -1 -1 1
0 1.500000 1464 1467 -1
4 3089.000000 1465 1466 -1
-2 -2.000000 -1 -1 1
-2 -2.000000 -1 -1 2
-2 -2.000000 -1 -1 1
1 521.500000 1469 1470 -1
-2 -2.000000 -1 -1 1
4 3040.500000 1471 1474 -1
8 1963.500000 1472 1473 -1
-2 -2.000000 -1 -1 1
-2 -2.000000 -1 -1 1
11 1969.500000 1475 1476 -1
-2 -2.000000 -1 -1 2
-2 -2.000000 -1 -1 2
1 523.500000 1478 1491 -1
6 2.500000 1479 1484 -1
11 1963.500000 1480 1481 -1
-2 -2.000000 -1 -1 1
0 2.500000 1482 1483 -1
-2 -2.000000 -1 -1 2
-2 -2.000000 -1 -1 2
0 1.500000 1485 1488 -1
11 1967.500000 1486 1487 -1
-2 -2.000000 -1 -1 1
-2 -2.000000 -1 -1 2
10 0.500000 1489 1490 -1
-2 -2.000000 -1 -1 1
-2 -2.000000 -1 -1 2
0 1.500000 1492 1499 -1
5 1914.500000 1493 1496 -1
5 1211.000000 1494 1495 -1
-2 -2.000000 -1 -1 2
-2 -2.000000 -1 -1 1
10 0.500000 1497 1498 -1
-2 -2.000000 -1 -1 2
-2 -2.000000 -1 -1 2
11 1963.500000 1500 1503 -1
13 32.250000 1501 1502 -1
-2 -2.000000 -1 -1 2
-2 -2.000000 -1 -1 2
12 3001.500000 1504 1505 -1
-2 -2.000000 -1 -1 2
-2 -2.000000 -1 -1 2
11 1962.500000 1507 1580 -1
1 524.500000 1508 1561 -1
1 522.500000 1509 1532 -1
2 4.500000 1510 1523 -1
0 1.500000 1511 1522 -1
12 3093.500000 1512 1515 -1
1 496.500000 1513 1514 -1
-2 -2.000000 -1 -1 1
-2 -2.000000 -1 -1 2
8 1937.500000 1516 1519 -1
8 1778.500000 1517 1518 -1
-2 -2.000000 -1 -1 1
-2 -2.000000 -1 -1 1
3 1942.500000 1520 1521 -1
-2 -2.000000 -1 -1 1
-2 -2.000000 -1 -1 1
-2 -2.000000 -1 -1 1
0 1.500000 1524 1531 -1
13 65.000000 1525 1530 -1
1 495.000000 1526 1527 -1
-2 -2.000000 -1 -1 1
1 520.500000 1528 1529 -1
-2 -2.000000 -1 -1 4
-2 -2.000000 -1 -1 4
-2 -2.000000 -1 -1 1
-2 -2.000000 -1 -1 1
3 1954.500000 1533 1554 -1
12 3106.500000 1534 1541 -1
11 1952.500000 1535 1536 -1
-2 -2.000000 -1 -1 2
1 523.500000 1537 1538 -1
-2 -2.000000 -1 -1 1
13 14.675000 1539 1540 -1
-2 -2.000000 -1 -1 2
-2 -2.000000 -1 -1 1
1 523.500000 1542 1547 -1
2 2.000000 1543 1544 -1
-2 -2.000000 -1 -1 1
12 3120.500000 1545 1546 -1
-2 -2.000000 -1 -1 2
-2 -2.000000 -1 -1 1
13 50.799999 1548 1551 -1
11 1946.500000 1549 1550 -1
-2 -2.000000 -1 -1 2
-2 -2.000000 -1 -1 1
3 1942.500000 1552 1553 -1
-2 -2.000000 -1 -1 1
-2 -2.000000 -1 -1 2
13 2.450000 1555 1560 -1
1 523.500000 1556 1557 -1
-2 -2.000000 -1 -1 1
9 1.500000 1558 1559 -1
-2 -2.000000 -1 -1 2
-2 -2.000000 -1 -1 1
-2 -2.000000 -1 -1 1
3 1963.500000 1562 1579 -1
11 1940.500000 1563 1566 -1
13 39.100000 1564 1565 -1
-2 -2.000000 -1 -1 2
-2 -2.000000 -1 -1 1
3 1955.500000 1567 1572 -1
4 3114.500000 1568 1569 -1
-2 -2.000000 -1 -1 2
0 4.500000 1570 1571 -1
-2 -2.000000 -1 -1 2
-2 -2.000000 -1 -1 1
12 3105.500000 1573 1578 -1
1 525.500000 1574 1575 -1
-2 -2.000000 -1 -1 2
1 526.500000 1576 1577 -1
-2 -2.000000 -1 -1 1
-2 -2.000000 -1 -1 2
-2 -2.000000 -1 -1 1
-2 -2.000000 -1 -1 1
11 1966.500000 1581 1638 -1
6 3.500000 1582 1615 -1
13 33.000000 1583 1604 -1
1 522.500000 1584 1591 -1
0 1.500000 1585 1590 -1
5 982.000000 1586 1587 -1
-2 -2.000000 -1 -1 1
3 1965.500000 1588 1589 -1
-2 -2.000000 -1 -1 2
-2 -2.000000 -1 -1 2
-2 -2.000000 -1 -1 1
1 524.500000 1592 1599 -1
12 3095.500000 1593 1596 -1
0 2.500000 1594 1595 -1
-2 -2.000000 -1 -1 2
-2 -2.000000 -1 -1 1
5 1963.500000 1597 1598 -1
-2 -2.000000 -1 -1 2
-2 -2.000000 -1 -1 2
13 27.300000 1600 1601 -1
-2 -2.000000 -1 -1 2
13 27.500000 1602 1603 -1
-2 -2.000000 -1 -1 1
-2 -2.000000 -1 -1 2
4 3093.500000 1605 1614 -1
1 525.500000 1606 1613 -1
4 3092.500000 1607 1610 -1
11 1964.500000 1608 1609 -1
-2 -2.000000 -1 -1 1
-2 -2.000000 -1 -1 1
3 1965.000000 1611 1612 -1
-2 -2.000000 -1 -1 1
-2 -2.000000 -1 -1 2
-2 -2.000000 -1 -1 2
-2 -2.000000 -1 -1 2
1 526.500000 1616 1635 -1
9 1.500000 1617 1630 -1
12 3093.500000 1618 1623 -1
1 525.500000 1619 1620 -1
-2 -2.000000 -1 -1 1
8 1967.500000 1621 1622 -1
-2 -2.000000 -1 -1 2
-2 -2.000000 -1 -1 1
12 3094.500000 1624 1627 -1
6 65.500000 1625 1626 -1
-2 -2.000000 -1 -1 2
-2 -2.000000 -1 -1 2
1 523.500000 1628 1629 -1
-2 -2.000000 -1 -1 1
-2 -2.000000 -1 -1 2
12 3095.500000 1631 1632 -1
-2 -2.000000 -1 -1 1
1 524.500000 1633 1634 -1
-2 -2.000000 -1 -1 1
-2 -2.000000 -1 -1 2
5 1969.000000 1636 1637 -1
-2 -2.000000 -1 -1 2
-2 -2.000000 -1 -1 1
0 1.500000 1639 1640 -1
-2 -2.000000 -1 -1 1
-2 -2.000000 -1 -1 2
12 2094.500000 1642 1931 -1
4 1979.500000 1643 1790 -1
4 793.500000 1644 1691 -1
1 851.500000 1645 1658 -1
13 1.166667 1646 1657 -1
3 3469.500000 1647 1656 -1
11 3397.000000 1648 1655 -1
12 787.000000 1649 1652 -1
1 830.500000 1650 1651 -1
-2 -2.000000 -1 -1 3
-2 -2.000000 -1 -1 3
1 827.000000 1653 1654 -1
-2 -2.000000 -1 -1 3
-2 -2.000000 -1 -1 4
-2 -2.000000 -1 -1 3
-2 -2.000000 -1 -1 4
-2 -2.000000 -1 -1 3
0 1.500000 1659 1680 -1
11 3467.500000 1660 1673 -1
13 1.500000 1661 1668 -1
10 0.500000 1662 1665 -1
5 3459.000000 1663 1664 -1
-2 -2.000000 -1 -1 4
-2 -2.000000 -1 -1 4
4 787.500000 1666 1667 -1
-2 -2.000000 -1 -1 4
-2 -2.000000 -1 -1 4
1 858.500000 1669 1670 -1
-2 -2.000000 -1 -1 3
12 770.000000 1671 1672 -1
-2 -2.000000 -1 -1 3
-2 -2.000000 -1 -1 3
5 3588.500000 1674 1679 -1
13 1.500000 1675 1676 -1
-2 -2.000000 -1 -1 3
12 786.000000 1677 1678 -1
-2 -2.000000 -1 -1 4
-2 -2.000000 -1 -1 4
-2 -2.000000 -1 -1 4
1 852.500000 1681 1684 -1
5 3454.000000 1682 1683 -1
-2 -2.000000 -1 -1 4
-2 -2.000000 -1 -1 3
1 853.500000 1685 1690 -1
13 38.600000 1686 1687 -1
-2 -2.000000 -1 -1 4
13 66.600000 1688 1689 -1
-2 -2.000000 -1 -1 3
-2 -2.000000 -1 -1 3
-2 -2.000000 -1 -1 4
5 3464.500000 1692 1749 -1
0 1.500000 1693 1724 -1
1 659.500000 1694 1709 -1
6 199.500000 1695 1702 -1
8 2630.500000 1696 1699 -1
6 26.500000 1697 1698 -1
-2 -2.000000 -1 -1 3
-2 -2.000000 -1 -1 2
9 51.500000 1700 1701 -1
-2 -2.000000 -1 -1 3
-2 -2.000000 -1 -1 2
9 2.500000 1703 1706 -1
6 207.500000 1704 1705 -1
-2 -2.000000 -1 -1 2
-2 -2.000000 -1 -1 2
7 0.500000 1707 1708 -1
-2 -2.000000 -1 -1 2
-2 -2.000000 -1 -1 3
12 1850.500000 1710 1717 -1
3 2690.500000 1711 1714 -1
9 1.500000 1712 1713 -1
-2 -2.000000 -1 -1 3
-2 -2.000000 -1 -1 3
1 667.500000 1715 1716 -1
-2 -2.000000 -1 -1 3
-2 -2.000000 -1 -1 3
5 3077.500000 1718 1721 -1
9 2.500000 1719 1720 -1
-2 -2.000000 -1 -1 3
-2 -2.000000 -1 -1 3
12 1976.500000 1722 1723 -1
-2 -2.000000 -1 -1 3
-2 -2.000000 -1 -1 2
12 911.500000 1725 1738 -1
1 851.500000 1726 1731 -1
1 850.500000 1727 1728 -1
-2 -2.000000 -1 -1 3
8 3354.500000 1729 1730 -1
-2 -2.000000 -1 -1 4
-2 -2.000000 -1 -1 3
11 3433.500000 1732 1735 -1
5 3433.500000 1733 1734 -1
-2 -2.000000 -1 -1 3
-2 -2.000000 -1 -1 3
5 3463.500000 1736 1737 -1
-2 -2.000000 -1 -1 4
-2 -2.000000 -1 -1 3
8 3.000000 1739 1742 -1
12 1858.500000 1740 1741 -1
-2 -2.000000 -1 -1 3
-2 -2.000000 -1 -1 2
12 1974.500000 1743 1746 -1
4 801.500000 1744 1745 -1
-2 -2.000000 -1 -1 3
-2 -2.000000 -1 -1 3
11 2962.500000 1747 1748 -1
-2 -2.000000 -1 -1 2
-2 -2.000000 -1 -1 3
1 858.500000 1750 1769 -1
11 3470.500000 1751 1760 -1
3 3466.500000 1752 1755 -1
1 854.000000 1753 1754 -1
-2 -2.000000 -1 -1 3
-2 -2.000000 -1 -1 4
8 3353.500000 1756 1759 -1
1 856.500000 1757 1758 -1
-2 -2.000000 -1 -1 3
-2 -2.000000 -1 -1 0
-2 -2.000000 -1 -1 3
0 4.500000 1761 1764 -1
1 850.500000 1762 1763 -1
-2 -2.000000 -1 -1 4
-2 -2.000000 -1 -1 4
12 900.500000 1765 1768 -1
11 3471.500000 1766 1767 -1
-2 -2.000000 -1 -1 3
-2 -2.000000 -1 -1 4
-2 -2.000000 -1 -1 4
12 1054.500000 1770 1781 -1
0 1.500000 1771 1776 -1
5 3797.000000 1772 1775 -1
4 870.000000 1773 1774 -1
-2 -2.000000 -1 -1 3
-2 -2.000000 -1 -1 3
-2 -2.000000 -1 -1 4
4 909.500000 1777 1778 -1
-2 -2.000000 -1 -1 4
4 980.500000 1779 1780 -1
-2 -2.000000 -1 -1 3
-2 -2.000000 -1 -1 4
1 921.500000 1782 1785 -1
12 1458.500000 1783 1784 -1
-2 -2.000000 -1 -1 3
-2 -2.000000 -1 -1 3
1 922.500000 1786 1789 -1
12 1458.500000 1787 1788 -1
-2 -2.000000 -1 -1 3
-2 -2.000000 -1 -1 3
-2 -2.000000 -1 -1 3
11 2962.500000 1791 1880 -1
11 2955.500000 1792 1839 -1
9 2.500000 1793 1812 -1
0 1.500000 1794 1805 -1
11 2836.000000 1795 1798 -1
1 760.500000 1796 1797 -1
-2 -2.000000 -1 -1 2
-2 -2.000000 -1 -1 3
6 4.500000 1799 1802 -1
11 2917.500000 1800 1801 -1
-2 -2.000000 -1 -1 2
-2 -2.000000 -1 -1 2
8 2915.000000 1803 1804 -1
-2 -2.000000 -1 -1 2
-2 -2.000000 -1 -1 2
9 1.500000 1806 1807 -1
-2 -2.000000 -1 -1 2
11 2954.500000 1808 1809 -1
-2 -2.000000 -1 -1 2
1 787.500000 1810 1811 -1
-2 -2.000000 -1 -1 2
-2 -2.000000 -1 -1 2
10 0.500000 1813 1826 -1
1 759.500000 1814 1819 -1
4 2087.500000 1815 1818 -1
1 758.000000 1816 1817 -1
-2 -2.000000 -1 -1 2
-2 -2.000000 -1 -1 2
-2 -2.000000 -1 -1 2
12 2002.500000 1820 1823 -1
1 781.500000 1821 1822 -1
-2 -2.000000 -1 -1 2
-2 -2.000000 -1 -1 2
1 780.000000 1824 1825 -1
-2 -2.000000 -1 -1 3
-2 -2.000000 -1 -1 3
7 0.500000 1827 1832 -1
1 782.500000 1828 1831 -1
1 759.500000 1829 1830 -1
-2 -2.000000 -1 -1 2
-2 -2.000000 -1 -1 2
-2 -2.000000 -1 -1 2
9 64.500000 1833 1836 -1
8 2915.500000 1834 1835 -1
-2 -2.000000 -1 -1 2
-2 -2.000000 -1 -1 2
1 785.500000 1837 1838 -1
-2 -2.000000 -1 -1 2
-2 -2.000000 -1 -1 2
1 787.500000 1840 1859 -1
11 2956.500000 1841 1850 -1
4 2092.500000 1842 1847 -1
1 785.500000 1843 1846 -1
12 2019.000000 1844 1845 -1
-2 -2.000000 -1 -1 2
-2 -2.000000 -1 -1 2
-2 -2.000000 -1 -1 2
1 785.500000 1848 1849 -1
-2 -2.000000 -1 -1 2
-2 -2.000000 -1 -1 4
1 785.500000 1851 1852 -1
-2 -2.000000 -1 -1 2
4 1985.500000 1853 1856 -1
12 1982.500000 1854 1855 -1
-2 -2.000000 -1 -1 2
-2 -2.000000 -1 -1 2
4 2090.500000 1857 1858 -1
-2 -2.000000 -1 -1 3
-2 -2.000000 -1 -1 2
6 1.500000 1860 1871 -1
0 4.500000 1861 1866 -1
11 2956.500000 1862 1863 -1
-2 -2.000000 -1 -1 3
12 2043.000000 1864 1865 -1
-2 -2.000000 -1 -1 3
-2 -2.000000 -1 -1 3
13 14.200000 1867 1870 -1
13 2.300000 1868 1869 -1
-2 -2.000000 -1 -1 3
-2 -2.000000 -1 -1 2
-2 -2.000000 -1 -1 3
12 1985.500000 1872 1877 -1
13 3.550000 1873 1874 -1
-2 -2.000000 -1 -1 3
4 1983.000000 1875 1876 -1
-2 -2.000000 -1 -1 2
-2 -2.000000 -1 -1 3
13 1.475000 1878 1879 -1
-2 -2.000000 -1 -1 3
-2 -2.000000 -1 -1 2
0 1.500000 1881 1930 -1
6 4.500000 1882 1905 -1
2 2.500000 1883 1894 -1
9 3.500000 1884 1891 -1
11 2984.500000 1885 1888 -1
5 2971.000000 1886 1887 -1
-2 -2.000000 -1 -1 3
-2 -2.000000 -1 -1 3
9 2.500000 1889 1890 -1
-2 -2.000000 -1 -1 3
-2 -2.000000 -1 -1 3
1 817.500000 1892 1893 -1
-2 -2.000000 -1 -1 3
-2 -2.000000 -1 -1 2
1 817.500000 1895 1902 -1
5 3069.000000 1896 1899 -1
1 810.500000 1897 1898 -1
-2 -2.000000 -1 -1 3
-2 -2.000000 -1 -1 2
6 3.000000 1900 1901 -1
-2 -2.000000 -1 -1 3
-2 -2.000000 -1 -1 3
6 3.000000 1903 1904 -1
-2 -2.000000 -1 -1 2
-2 -2.000000 -1 -1 2
2 1.500000 1906 1921 -1
1 810.500000 1907 1914 -1
3 3039.500000 1908 1911 -1
1 787.500000 1909 1910 -1
-2 -2.000000 -1 -1 3
-2 -2.000000 -1 -1 2
11 3042.000000 1912 1913 -1
-2 -2.000000 -1 -1 3
-2 -2.000000 -1 -1 2
8 3066.000000 1915 1918 -1
1 819.000000 1916 1917 -1
-2 -2.000000 -1 -1 2
-2 -2.000000 -1 -1 2
1 816.500000 1919 1920 -1
-2 -2.000000 -1 -1 3
-2 -2.000000 -1 -1 2
1 820.500000 1922 1929 -1
5 7.000000 1923 1926 -1
3 3074.000000 1924 1925 -1
-2 -2.000000 -1 -1 3
-2 -2.000000 -1 -1 3
1 814.500000 1927 1928 -1
-2 -2.000000 -1 -1 3
-2 -2.000000 -1 -1 2
-2 -2.000000 -1 -1 2
-2 -2.000000 -1 -1 3
11 2962.500000 1932 2045 -1
11 2958.500000 1933 1980 -1
2 4.500000 1934 1969 -1
12 2098.500000 1935 1948 -1
4 2097.500000 1936 1945 -1
8 2838.500000 1937 1940 -1
3 2841.500000 1938 1939 -1
-2 -2.000000 -1 -1 2
-2 -2.000000 -1 -1 2
9 2.000000 1941 1942 -1
-2 -2.000000 -1 -1 2
12 2096.000000 1943 1944 -1
-2 -2.000000 -1 -1 2
-2 -2.000000 -1 -1 2
1 785.500000 1946 1947 -1
-2 -2.000000 -1 -1 2
-2 -2.000000 -1 -1 4
13 1.100000 1949 1960 -1
8 2607.000000 1950 1955 -1
8 2605.500000 1951 1954 -1
4 2345.500000 1952 1953 -1
-2 -2.000000 -1 -1 2
-2 -2.000000 -1 -1 2
-2 -2.000000 -1 -1 4
12 2217.500000 1956 1959 -1
4 2216.500000 1957 1958 -1
-2 -2.000000 -1 -1 2
-2 -2.000000 -1 -1 2
-2 -2.000000 -1 -1 2
12 2100.500000 1961 1964 -1
1 754.500000 1962 1963 -1
-2 -2.000000 -1 -1 2
-2 -2.000000 -1 -1 2
0 1.500000 1965 1968 -1
6 65.500000 1966 1967 -1
-2 -2.000000 -1 -1 2
-2 -2.000000 -1 -1 2
-2 -2.000000 -1 -1 2
0 1.500000 1970 1979 -1
2 65.000000 1971 1978 -1
1 720.500000 1972 1973 -1
-2 -2.000000 -1 -1 2
8 2771.500000 1974 1975 -1
-2 -2.000000 -1 -1 4
4 2167.000000 1976 1977 -1
-2 -2.000000 -1 -1 4
-2 -2.000000 -1 -1 4
-2 -2.000000 -1 -1 2
-2 -2.000000 -1 -1 2
13 38.208334 1981 2018 -1
9 2.500000 1982 2005 -1
12 2098.500000 1983 1998 -1
3 2963.000000 1984 1991 -1
13 2.875000 1985 1988 -1
12 2097.500000 1986 1987 -1
-2 -2.000000 -1 -1 3
-2 -2.000000 -1 -1 2
2 2.000000 1989 1990 -1
-2 -2.000000 -1 -1 3
-2 -2.000000 -1 -1 3
1 789.500000 1992 1995 -1
12 2096.500000 1993 1994 -1
-2 -2.000000 -1 -1 2
-2 -2.000000 -1 -1 2
11 2960.500000 1996 1997 -1
-2 -2.000000 -1 -1 2
-2 -2.000000 -1 -1 3
0 4.500000 1999 2000 -1
-2 -2.000000 -1 -1 2
11 2959.500000 2001 2004 -1
1 787.500000 2002 2003 -1
-2 -2.000000 -1 -1 2
-2 -2.000000 -1 -1 3
-2 -2.000000 -1 -1 2
1 788.500000 2006 2007 -1
-2 -2.000000 -1 -1 2
13 29.800000 2008 2013 -1
1 791.500000 2009 2012 -1
0 3.500000 2010 2011 -1
-2 -2.000000 -1 -1 3
-2 -2.000000 -1 -1 2
-2 -2.000000 -1 -1 3
13 33.250000 2014 2015 -1
-2 -2.000000 -1 -1 3
1 789.500000 2016 2017 -1
-2 -2.000000 -1 -1 2
-2 -2.000000 -1 -1 2
1 788.500000 2019 2028 -1
2 2.000000 2020 2021 -1
-2 -2.000000 -1 -1 2
1 787.500000 2022 2023 -1
-2 -2.000000 -1 -1 2
0 2.500000 2024 2025 -1
-2 -2.000000 -1 -1 3
4 2096.500000 2026 2027 -1
-2 -2.000000 -1 -1 2
-2 -2.000000 -1 -1 2
3 2963.500000 2029 2038 -1
12 2098.500000 2030 2035 -1
5 2779.000000 2031 2034 -1
11 2960.500000 2032 2033 -1
-2 -2.000000 -1 -1 3
-2 -2.000000 -1 -1 3
-2 -2.000000 -1 -1 3
13 51.000000 2036 2037 -1
-2 -2.000000 -1 -1 3
-2 -2.000000 -1 -1 2
13 51.600000 2039 2044 -1
1 789.500000 2040 2041 -1
-2 -2.000000 -1 -1 2
9 2.500000 2042 2043 -1
-2 -2.000000 -1 -1 3
-2 -2.000000 -1 -1 2
-2 -2.000000 -1 -1 2
8 2962.500000 2046 2047 -1
-2 -2.000000 -1 -1 2
-2 -2.000000 -1 -1 3
12 1055.500000 2049 2712 -1
1 853.500000 2050 2311 -1
11 3469.500000 2051 2168 -1
11 3468.500000 2052 2099 -1
12 792.500000 2053 2086 -1
4 788.500000 2054 2055 -1
-2 -2.000000 -1 -1 3
2 1.500000 2056 2065 -1
8 3468.500000 2057 2058 -1
-2 -2.000000 -1 -1 3
13 29.300000 2059 2064 -1
0 4.500000 2060 2063 -1
1 851.500000 2061 2062 -1
-2 -2.000000 -1 -1 3
-2 -2.000000 -1 -1 4
-2 -2.000000 -1 -1 3
-2 -2.000000 -1 -1 4
13 12.900000 2066 2073 -1
8 3467.500000 2067 2068 -1
-2 -2.000000 -1 -1 3
12 791.500000 2069 2070 -1
-2 -2.000000 -1 -1 4
13 12.600000 2071 2072 -1
-2 -2.000000 -1 -1 4
-2 -2.000000 -1 -1 4
13 20.500000 2074 2079 -1
4 790.500000 2075 2076 -1
-2 -2.000000 -1 -1 3
13 16.375000 2077 2078 -1
-2 -2.000000 -1 -1 3
-2 -2.000000 -1 -1 3
1 852.500000 2080 2083 -1
13 21.708333 2081 2082 -1
-2 -2.000000 -1 -1 4
-2 -2.000000 -1 -1 3
13 25.875000 2084 2085 -1
-2 -2.000000 -1 -1 4
-2 -2.000000 -1 -1 3
4 863.500000 2087 2088 -1
-2 -2.000000 -1 -1 3
12 867.500000 2089 2098 -1
12 866.500000 2090 2091 -1
-2 -2.000000 -1 -1 3
11 3467.500000 2092 2093 -1
-2 -2.000000 -1 -1 3
8 3467.500000 2094 2095 -1
-2 -2.000000 -1 -1 3
6 207.500000 2096 2097 -1
-2 -2.000000 -1 -1 4
-2 -2.000000 -1 -1 3
-2 -2.000000 -1 -1 3
9 1.500000 2100 2135 -1
1 850.500000 2101 2102 -1
-2 -2.000000 -1 -1 3
0 2.500000 2103 2106 -1
8 3468.500000 2104 2105 -1
-2 -2.000000 -1 -1 3
-2 -2.000000 -1 -1 4
13 29.125000 2107 2122 -1
12 855.000000 2108 2115 -1
13 28.875000 2109 2112 -1
12 791.500000 2110 2111 -1
-2 -2.000000 -1 -1 3
-2 -2.000000 -1 -1 3
12 798.000000 2113 2114 -1
-2 -2.000000 -1 -1 3
-2 -2.000000 -1 -1 4
12 871.000000 2116 2119 -1
4 858.000000 2117 2118 -1
-2 -2.000000 -1 -1 3
-2 -2.000000 -1 -1 4
13 21.866667 2120 2121 -1
-2 -2.000000 -1 -1 3
-2 -2.000000 -1 -1 4
0 3.500000 2123 2128 -1
12 818.000000 2124 2125 -1
-2 -2.000000 -1 -1 4
1 852.500000 2126 2127 -1
-2 -2.000000 -1 -1 3
-2 -2.000000 -1 -1 4
12 857.500000 2129 2132 -1
13 37.325001 2130 2131 -1
-2 -2.000000 -1 -1 3
-2 -2.000000 -1 -1 3
4 876.500000 2133 2134 -1
-2 -2.000000 -1 -1 3
-2 -2.000000 -1 -1 3
12 791.500000 2136 2149 -1
4 788.000000 2137 2138 -1
-2 -2.000000 -1 -1 3
1 851.500000 2139 2144 -1
7 0.500000 2140 2143 -1
1 849.500000 2141 2142 -1
-2 -2.000000 -1 -1 4
-2 -2.000000 -1 -1 4
-2 -2.000000 -1 -1 3
8 3469.000000 2145 2146 -1
-2 -2.000000 -1 -1 4
1 852.500000 2147 2148 -1
-2 -2.000000 -1 -1 3
-2 -2.000000 -1 -1 4
1 850.500000 2150 2151 -1
-2 -2.000000 -1 -1 3
0 2.500000 2152 2153 -1
-2 -2.000000 -1 -1 4
4 821.500000 2154 2161 -1
12 796.000000 2155 2158 -1
13 12.566667 2156 2157 -1
-2 -2.000000 -1 -1 3
-2 -2.000000 -1 -1 3
13 29.375000 2159 2160 -1
-2 -2.000000 -1 -1 3
-2 -2.000000 -1 -1 3
12 826.000000 2162 2165 -1
4 822.500000 2163 2164 -1
-2 -2.000000 -1 -1 3
-2 -2.000000 -1 -1 4
12 846.000000 2166 2167 -1
-2 -2.000000 -1 -1 3
-2 -2.000000 -1 -1 3
3 3471.500000 2169 2224 -1
1 850.500000 2170 2201 -1
5 3469.500000 2171 2192 -1
5 0.500000 2172 2173 -1
-2 -2.000000 -1 -1 3
1 849.500000 2174 2179 -1
4 865.000000 2175 2176 -1
-2 -2.000000 -1 -1 3
4 867.000000 2177 2178 -1
-2 -2.000000 -1 -1 4
-2 -2.000000 -1 -1 3
10 0.500000 2180 2185 -1
2 1.500000 2181 2184 -1
4 816.000000 2182 2183 -1
-2 -2.000000 -1 -1 3
-2 -2.000000 -1 -1 3
-2 -2.000000 -1 -1 0
4 885.000000 2186 2189 -1
12 849.000000 2187 2188 -1
-2 -2.000000 -1 -1 4
-2 -2.000000 -1 -1 3
4 893.000000 2190 2191 -1
-2 -2.000000 -1 -1 3
-2 -2.000000 -1 -1 3
4 886.500000 2193 2194 -1
-2 -2.000000 -1 -1 4
11 3470.500000 2195 2196 -1
-2 -2.000000 -1 -1 3
1 849.500000 2197 2198 -1
-2 -2.000000 -1 -1 3
4 901.500000 2199 2200 -1
-2 -2.000000 -1 -1 3
-2 -2.000000 -1 -1 4
6 2.500000 2202 2221 -1
4 846.000000 2203 2210 -1
4 828.000000 2204 2209 -1
13 1.250000 2205 2208 -1
4 804.000000 2206 2207 -1
-2 -2.000000 -1 -1 3
-2 -2.000000 -1 -1 3
-2 -2.000000 -1 -1 4
-2 -2.000000 -1 -1 4
12 902.500000 2211 2220 -1
4 857.000000 2212 2213 -1
-2 -2.000000 -1 -1 3
12 862.000000 2214 2217 -1
4 860.000000 2215 2216 -1
-2 -2.000000 -1 -1 3
-2 -2.000000 -1 -1 4
1 851.500000 2218 2219 -1
-2 -2.000000 -1 -1 3
-2 -2.000000 -1 -1 3
-2 -2.000000 -1 -1 3
11 3470.500000 2222 2223 -1
-2 -2.000000 -1 -1 4
-2 -2.000000 -1 -1 3
11 3470.500000 2225 2256 -1
0 3.500000 2226 2229 -1
13 105.500000 2227 2228 -1
-2 -2.000000 -1 -1 4
-2 -2.000000 -1 -1 3
4 781.000000 2230 2241 -1
1 852.500000 2231 2234 -1
9 2.000000 2232 2233 -1
-2 -2.000000 -1 -1 3
-2 -2.000000 -1 -1 4
5 3470.500000 2235 2236 -1
-2 -2.000000 -1 -1 4
13 100.299999 2237 2240 -1
13 24.000000 2238 2239 -1
-2 -2.000000 -1 -1 3
-2 -2.000000 -1 -1 4
-2 -2.000000 -1 -1 3
1 851.500000 2242 2243 -1
-2 -2.000000 -1 -1 3
13 63.775000 2244 2251 -1
12 855.000000 2245 2248 -1
4 803.000000 2246 2247 -1
-2 -2.000000 -1 -1 3
-2 -2.000000 -1 -1 3
4 857.000000 2249 2250 -1
-2 -2.000000 -1 -1 4
-2 -2.000000 -1 -1 4
4 783.500000 2252 2255 -1
12 898.000000 2253 2254 -1
-2 -2.000000 -1 -1 4
-2 -2.000000 -1 -1 3
-2 -2.000000 -1 -1 3
0 1.500000 2257 2298 -1
1 850.500000 2258 2269 -1
6 243.000000 2259 2266 -1
13 2.500000 2260 2261 -1
-2 -2.000000 -1 -1 4
4 895.000000 2262 2265 -1
4 887.000000 2263 2264 -1
-2 -2.000000 -1 -1 4
-2 -2.000000 -1 -1 4
-2 -2.000000 -1 -1 4
4 900.000000 2267 2268 -1
-2 -2.000000 -1 -1 3
-2 -2.000000 -1 -1 3
10 0.500000 2270 2285 -1
1 851.500000 2271 2278 -1
12 882.000000 2272 2275 -1
5 3471.500000 2273 2274 -1
-2 -2.000000 -1 -1 4
-2 -2.000000 -1 -1 4
5 3476.000000 2276 2277 -1
-2 -2.000000 -1 -1 3
-2 -2.000000 -1 -1 3
8 3472.500000 2279 2282 -1
4 748.500000 2280 2281 -1
-2 -2.000000 -1 -1 4
-2 -2.000000 -1 -1 4
12 772.000000 2283 2284 -1
-2 -2.000000 -1 -1 4
-2 -2.000000 -1 -1 4
12 780.500000 2286 2291 -1
5 3478.500000 2287 2288 -1
-2 -2.000000 -1 -1 4
4 774.500000 2289 2290 -1
-2 -2.000000 -1 -1 4
-2 -2.000000 -1 -1 4
5 3476.000000 2292 2295 -1
5 3470.500000 2293 2294 -1
-2 -2.000000 -1 -1 4
-2 -2.000000 -1 -1 4
1 851.500000 2296 2297 -1
-2 -2.000000 -1 -1 4
-2 -2.000000 -1 -1 3
12 899.500000 2299 2300 -1
-2 -2.000000 -1 -1 4
11 3471.500000 2301 2310 -1
0 3.500000 2302 2305 -1
1 850.500000 2303 2304 -1
-2 -2.000000 -1 -1 3
-2 -2.000000 -1 -1 4
13 75.899998 2306 2309 -1
1 852.500000 2307 2308 -1
-2 -2.000000 -1 -1 3
-2 -2.000000 -1 -1 4
-2 -2.000000 -1 -1 3
-2 -2.000000 -1 -1 4
4 908.500000 2312 2515 -1
1 859.500000 2313 2422 -1
11 3470.500000 2314 2377 -1
12 798.500000 2315 2342 -1
0 4.500000 2316 2335 -1
12 764.500000 2317 2320 -1
3 3469.500000 2318 2319 -1
-2 -2.000000 -1 -1 3
-2 -2.000000 -1 -1 4
6 35.500000 2321 2328 -1
9 1.500000 2322 2325 -1
4 786.000000 2323 2324 -1
-2 -2.000000 -1 -1 4
-2 -2.000000 -1 -1 4
13 1.500000 2326 2327 -1
-2 -2.000000 -1 -1 0
-2 -2.000000 -1 -1 4
12 791.500000 2329 2332 -1
6 51.500000 2330 2331 -1
-2 -2.000000 -1 -1 4
-2 -2.000000 -1 -1 4
12 792.500000 2333 2334 -1
-2 -2.000000 -1 -1 3
-2 -2.000000 -1 -1 4
13 18.200000 2336 2337 -1
-2 -2.000000 -1 -1 4
13 29.599999 2338 2341 -1
13 29.300000 2339 2340 -1
-2 -2.000000 -1 -1 3
-2 -2.000000 -1 -1 4
-2 -2.000000 -1 -1 3
6 2.500000 2343 2360 -1
8 3469.500000 2344 2359 -1
8 3467.500000 2345 2352 -1
4 841.000000 2346 2349 -1
4 831.000000 2347 2348 -1
-2 -2.000000 -1 -1 3
-2 -2.000000 -1 -1 3
12 869.000000 2350 2351 -1
-2 -2.000000 -1 -1 4
-2 -2.000000 -1 -1 3
4 836.000000 2353 2356 -1
12 830.000000 2354 2355 -1
-2 -2.000000 -1 -1 4
-2 -2.000000 -1 -1 4
12 865.000000 2357 2358 -1
-2 -2.000000 -1 -1 4
-2 -2.000000 -1 -1 4
-2 -2.000000 -1 -1 3
9 2.500000 2361 2372 -1
13 77.099998 2362 2369 -1
6 242.000000 2363 2366 -1
13 49.700001 2364 2365 -1
-2 -2.000000 -1 -1 3
-2 -2.000000 -1 -1 3
4 873.500000 2367 2368 -1
-2 -2.000000 -1 -1 4
-2 -2.000000 -1 -1 3
5 0.500000 2370 2371 -1
-2 -2.000000 -1 -1 4
-2 -2.000000 -1 -1 3
13 17.000000 2373 2374 -1
-2 -2.000000 -1 -1 3
4 889.500000 2375 2376 -1
-2 -2.000000 -1 -1 4
-2 -2.000000 -1 -1 3
0 1.500000 2378 2421 -1
10 0.500000 2379 2402 -1
8 3472.500000 2380 2391 -1
4 880.000000 2381 2386 -1
4 864.000000 2382 2383 -1
-2 -2.000000 -1 -1 4
1 858.500000 2384 2385 -1
-2 -2.000000 -1 -1 4
-2 -2.000000 -1 -1 4
3 3491.000000 2387 2390 -1
12 884.000000 2388 2389 -1
-2 -2.000000 -1 -1 4
-2 -2.000000 -1 -1 3
-2 -2.000000 -1 -1 3
11 3490.000000 2392 2395 -1
12 770.000000 2393 2394 -1
-2 -2.000000 -1 -1 4
-2 -2.000000 -1 -1 4
11 3498.000000 2396 2399 -1
1 854.500000 2397 2398 -1
-2 -2.000000 -1 -1 4
-2 -2.000000 -1 -1 3
1 857.500000 2400 2401 -1
-2 -2.000000 -1 -1 4
-2 -2.000000 -1 -1 4
4 833.000000 2403 2412 -1
5 2.000000 2404 2405 -1
-2 -2.000000 -1 -1 0
6 1.500000 2406 2409 -1
8 3486.500000 2407 2408 -1
-2 -2.000000 -1 -1 4
-2 -2.000000 -1 -1 4
8 3489.500000 2410 2411 -1
-2 -2.000000 -1 -1 4
-2 -2.000000 -1 -1 4
7 0.500000 2413 2414 -1
-2 -2.000000 -1 -1 3
8 3488.500000 2415 2418 -1
2 2.500000 2416 2417 -1
-2 -2.000000 -1 -1 4
-2 -2.000000 -1 -1 4
12 849.000000 2419 2420 -1
-2 -2.000000 -1 -1 3
-2 -2.000000 -1 -1 4
-2 -2.000000 -1 -1 4
0 1.500000 2423 2514 -1
1 878.500000 2424 2455 -1
6 119.000000 2425 2454 -1
10 0.500000 2426 2439 -1
6 2.500000 2427 2434 -1
8 3471.500000 2428 2431 -1
5 3481.000000 2429 2430 -1
-2 -2.000000 -1 -1 4
-2 -2.000000 -1 -1 4
5 3572.500000 2432 2433 -1
-2 -2.000000 -1 -1 4
-2 -2.000000 -1 -1 4
1 860.500000 2435 2438 -1
12 753.000000 2436 2437 -1
-2 -2.000000 -1 -1 4
-2 -2.000000 -1 -1 4
-2 -2.000000 -1 -1 4
12 752.500000 2440 2447 -1
5 3501.000000 2441 2444 -1
12 732.500000 2442 2443 -1
-2 -2.000000 -1 -1 4
-2 -2.000000 -1 -1 4
12 727.500000 2445 2446 -1
-2 -2.000000 -1 -1 4
-2 -2.000000 -1 -1 4
11 3469.500000 2448 2451 -1
12 800.000000 2449 2450 -1
-2 -2.000000 -1 -1 4
-2 -2.000000 -1 -1 3
5 3470.500000 2452 2453 -1
-2 -2.000000 -1 -1 4
-2 -2.000000 -1 -1 4
-2 -2.000000 -1 -1 3
4 753.500000 2456 2485 -1
3 3659.500000 2457 2472 -1
5 3549.500000 2458 2465 -1
6 39.500000 2459 2462 -1
7 0.500000 2460 2461 -1
-2 -2.000000 -1 -1 4
-2 -2.000000 -1 -1 4
6 59.500000 2463 2464 -1
-2 -2.000000 -1 -1 4
-2 -2.000000 -1 -1 4
5 3590.500000 2466 2469 -1
13 2.500000 2467 2468 -1
-2 -2.000000 -1 -1 4
-2 -2.000000 -1 -1 4
4 584.500000 2470 2471 -1
-2 -2.000000 -1 -1 4
-2 -2.000000 -1 -1 4
5 4899.500000 2473 2478 -1
8 3590.500000 2474 2475 -1
-2 -2.000000 -1 -1 4
3 3704.500000 2476 2477 -1
-2 -2.000000 -1 -1 4
-2 -2.000000 -1 -1 4
8 4883.000000 2479 2482 -1
1 1305.500000 2480 2481 -1
-2 -2.000000 -1 -1 4
-2 -2.000000 -1 -1 4
8 4897.500000 2483 2484 -1
-2 -2.000000 -1 -1 4
-2 -2.000000 -1 -1 4
3 4154.500000 2486 2499 -1
9 58.500000 2487 2494 -1
5 4152.500000 2488 2491 -1
8 4042.500000 2489 2490 -1
-2 -2.000000 -1 -1 4
-2 -2.000000 -1 -1 4
1 1104.500000 2492 2493 -1
-2 -2.000000 -1 -1 4
-2 -2.000000 -1 -1 3
6 2.500000 2495 2498 -1
1 879.500000 2496 2497 -1
-2 -2.000000 -1 -1 4
-2 -2.000000 -1 -1 4
-2 -2.000000 -1 -1 4
6 65.500000 2500 2507 -1
2 2.500000 2501 2504 -1
4 869.500000 2502 2503 -1
-2 -2.000000 -1 -1 4
-2 -2.000000 -1 -1 4
5 4276.500000 2505 2506 -1
-2 -2.000000 -1 -1 4
-2 -2.000000 -1 -1 4
5 3266.000000 2508 2511 -1
9 2.500000 2509 2510 -1
-2 -2.000000 -1 -1 4
-2 -2.000000 -1 -1 4
5 3395.000000 2512 2513 -1
-2 -2.000000 -1 -1 4
-2 -2.000000 -1 -1 4
-2 -2.000000 -1 -1 4
1 1064.500000 2516 2607 -1
9 2.500000 2517 2548 -1
11 4002.000000 2518 2537 -1
12 910.500000 2519 2522 -1
1 1028.500000 2520 2521 -1
-2 -2.000000 -1 -1 3
-2 -2.000000 -1 -1 4
12 1041.000000 2523 2528 -1
11 3995.500000 2524 2525 -1
-2 -2.000000 -1 -1 3
8 3996.000000 2526 2527 -1
-2 -2.000000 -1 -1 3
-2 -2.000000 -1 -1 3
0 1.500000 2529 2536 -1
11 3872.000000 2530 2533 -1
8 3865.500000 2531 2532 -1
-2 -2.000000 -1 -1 3
-2 -2.000000 -1 -1 3
12 1043.000000 2534 2535 -1
-2 -2.000000 -1 -1 4
-2 -2.000000 -1 -1 4
-2 -2.000000 -1 -1 3
4 1054.500000 2538 2545 -1
4 983.500000 2539 2540 -1
-2 -2.000000 -1 -1 4
8 3937.000000 2541 2544 -1
12 1052.500000 2542 2543 -1
-2 -2.000000 -1 -1 3
-2 -2.000000 -1 -1 3
-2 -2.000000 -1 -1 4
5 4002.500000 2546 2547 -1
-2 -2.000000 -1 -1 4
-2 -2.000000 -1 -1 3
10 0.500000 2549 2568 -1
1 1061.000000 2550 2563 -1
11 3977.500000 2551 2562 -1
1 1055.500000 2552 2557 -1
11 3967.500000 2553 2556 -1
12 1040.500000 2554 2555 -1
-2 -2.000000 -1 -1 4
-2 -2.000000 -1 -1 4
-2 -2.000000 -1 -1 3
11 3970.000000 2558 2559 -1
-2 -2.000000 -1 -1 4
1 1057.000000 2560 2561 -1
-2 -2.000000 -1 -1 3
-2 -2.000000 -1 -1 4
-2 -2.000000 -1 -1 3
4 928.000000 2564 2567 -1
1 1062.500000 2565 2566 -1
-2 -2.000000 -1 -1 3
-2 -2.000000 -1 -1 4
-2 -2.000000 -1 -1 4
6 3.500000 2569 2590 -1
3 3879.500000 2570 2575 -1
9 3.500000 2571 2574 -1
1 1031.000000 2572 2573 -1
-2 -2.000000 -1 -1 3
-2 -2.000000 -1 -1 3
-2 -2.000000 -1 -1 3
8 3898.500000 2576 2583 -1
11 3889.500000 2577 2580 -1
1 1032.500000 2578 2579 -1
-2 -2.000000 -1 -1 3
-2 -2.000000 -1 -1 3
1 1034.500000 2581 2582 -1
-2 -2.000000 -1 -1 3
-2 -2.000000 -1 -1 4
12 1007.500000 2584 2587 -1
4 1002.500000 2585 2586 -1
-2 -2.000000 -1 -1 3
-2 -2.000000 -1 -1 4
8 3903.500000 2588 2589 -1
-2 -2.000000 -1 -1 3
-2 -2.000000 -1 -1 3
1 1061.500000 2591 2596 -1
8 3872.500000 2592 2595 -1
1 1029.500000 2593 2594 -1
-2 -2.000000 -1 -1 3
-2 -2.000000 -1 -1 3
-2 -2.000000 -1 -1 3
5 3985.500000 2597 2600 -1
8 3981.500000 2598 2599 -1
-2 -2.000000 -1 -1 3
-2 -2.000000 -1 -1 4
1 1062.500000 2601 2604 -1
12 921.500000 2602 2603 -1
-2 -2.000000 -1 -1 3
-2 -2.000000 -1 -1 4
3 4001.500000 2605 2606 -1
-2 -2.000000 -1 -1 3
-2 -2.000000 -1 -1 3
0 1.500000 2608 2687 -1
5 4006.500000 2609 2656 -1
9 3.500000 2610 2635 -1
1 1065.500000 2611 2624 -1
4 1038.500000 2612 2619 -1
12 941.500000 2613 2616 -1
3 4004.000000 2614 2615 -1
-2 -2.000000 -1 -1 3
-2 -2.000000 -1 -1 4
4 978.500000 2617 2618 -1
-2 -2.000000 -1 -1 4
-2 -2.000000 -1 -1 4
13 65.000000 2620 2623 -1
8 3870.500000 2621 2622 -1
-2 -2.000000 -1 -1 3
-2 -2.000000 -1 -1 4
-2 -2.000000 -1 -1 3
8 4139.500000 2625 2632 -1
7 0.500000 2626 2629 -1
12 980.000000 2627 2628 -1
-2 -2.000000 -1 -1 3
-2 -2.000000 -1 -1 3
1 1097.500000 2630 2631 -1
-2 -2.000000 -1 -1 4
-2 -2.000000 -1 -1 3
5 7.000000 2633 2634 -1
-2 -2.000000 -1 -1 4
-2 -2.000000 -1 -1 4
5 2.500000 2636 2645 -1
6 4.000000 2637 2638 -1
-2 -2.000000 -1 -1 3
7 0.500000 2639 2642 -1
11 4078.500000 2640 2641 -1
-2 -2.000000 -1 -1 3
-2 -2.000000 -1 -1 3
8 4077.500000 2643 2644 -1
-2 -2.000000 -1 -1 3
-2 -2.000000 -1 -1 3
1 1101.500000 2646 2653 -1
1 1083.500000 2647 2650 -1
4 1042.000000 2648 2649 -1
-2 -2.000000 -1 -1 4
-2 -2.000000 -1 -1 4
3 4086.500000 2651 2652 -1
-2 -2.000000 -1 -1 4
-2 -2.000000 -1 -1 4
1 1102.500000 2654 2655 -1
-2 -2.000000 -1 -1 3
-2 -2.000000 -1 -1 3
4 1049.500000 2657 2684 -1
12 1046.500000 2658 2673 -1
5 4144.500000 2659 2666 -1
10 0.500000 2660 2663 -1
6 3.500000 2661 2662 -1
-2 -2.000000 -1 -1 4
-2 -2.000000 -1 -1 4
9 2.500000 2664 2665 -1
-2 -2.000000 -1 -1 4
-2 -2.000000 -1 -1 4
6 2.500000 2667 2670 -1
1 1102.500000 2668 2669 -1
-2 -2.000000 -1 -1 3
-2 -2.000000 -1 -1 3
4 910.500000 2671 2672 -1
-2 -2.000000 -1 -1 4
-2 -2.000000 -1 -1 4
3 4010.500000 2674 2679 -1
8 4006.500000 2675 2678 -1
1 1065.500000 2676 2677 -1
-2 -2.000000 -1 -1 4
-2 -2.000000 -1 -1 4
-2 -2.000000 -1 -1 4
1 1066.500000 2680 2683 -1
5 4009.500000 2681 2682 -1
-2 -2.000000 -1 -1 3
-2 -2.000000 -1 -1 3
-2 -2.000000 -1 -1 3
1 1065.500000 2685 2686 -1
-2 -2.000000 -1 -1 4
-2 -2.000000 -1 -1 3
11 4002.500000 2688 2711 -1
3 3999.500000 2689 2696 -1
4 933.000000 2690 2695 -1
13 46.566666 2691 2692 -1
-2 -2.000000 -1 -1 4
8 3988.500000 2693 2694 -1
-2 -2.000000 -1 -1 3
-2 -2.000000 -1 -1 4
-2 -2.000000 -1 -1 3
13 2.900000 2697 2702 -1
6 3.500000 2698 2701 -1
1 1067.500000 2699 2700 -1
-2 -2.000000 -1 -1 3
-2 -2.000000 -1 -1 4
-2 -2.000000 -1 -1 4
12 917.000000 2703 2708 -1
12 915.500000 2704 2707 -1
12 913.000000 2705 2706 -1
-2 -2.000000 -1 -1 4
-2 -2.000000 -1 -1 3
-2 -2.000000 -1 -1 4
1 1066.500000 2709 2710 -1
-2 -2.000000 -1 -1 3
-2 -2.000000 -1 -1 4
-2 -2.000000 -1 -1 4
1 1065.500000 2713 2820 -1
11 4002.500000 2714 2817 -1
1 1064.500000 2715 2778 -1
2 4.500000 2716 2763 -1
8 3984.500000 2717 2744 -1
0 1.500000 2718 2743 -1
11 3475.500000 2719 2728 -1
1 926.500000 2720 2727 -1
12 1519.500000 2721 2724 -1
4 1454.500000 2722 2723 -1
-2 -2.000000 -1 -1 3
-2 -2.000000 -1 -1 3
7 0.500000 2725 2726 -1
-2 -2.000000 -1 -1 3
-2 -2.000000 -1 -1 3
-2 -2.000000 -1 -1 4
12 1064.500000 2729 2736 -1
7 0.500000 2730 2733 -1
12 1059.000000 2731 2732 -1
-2 -2.000000 -1 -1 3
-2 -2.000000 -1 -1 4
6 4.500000 2734 2735 -1
-2 -2.000000 -1 -1 3
-2 -2.000000 -1 -1 3
9 64.500000 2737 2740 -1
12 1451.500000 2738 2739 -1
-2 -2.000000 -1 -1 3
-2 -2.000000 -1 -1 3
5 3529.500000 2741 2742 -1
-2 -2.000000 -1 -1 3
-2 -2.000000 -1 -1 3
-2 -2.000000 -1 -1 3
0 1.500000 2745 2762 -1
8 3985.500000 2746 2751 -1
1 1061.500000 2747 2750 -1
9 1.500000 2748 2749 -1
-2 -2.000000 -1 -1 4
-2 -2.000000 -1 -1 3
-2 -2.000000 -1 -1 4
13 3.500000 2752 2757 -1
11 4000.500000 2753 2754 -1
-2 -2.000000 -1 -1 3
6 3.500000 2755 2756 -1
-2 -2.000000 -1 -1 4
-2 -2.000000 -1 -1 3
11 3998.000000 2758 2761 -1
12 1066.000000 2759 2760 -1
-2 -2.000000 -1 -1 4
-2 -2.000000 -1 -1 3
-2 -2.000000 -1 -1 3
-2 -2.000000 -1 -1 3
0 1.500000 2764 2777 -1
13 65.000000 2765 2776 -1
1 955.500000 2766 2767 -1
-2 -2.000000 -1 -1 3
8 3793.500000 2768 2773 -1
1 990.500000 2769 2772 -1
4 1400.500000 2770 2771 -1
-2 -2.000000 -1 -1 3
-2 -2.000000 -1 -1 4
-2 -2.000000 -1 -1 4
1 1026.500000 2774 2775 -1
-2 -2.000000 -1 -1 3
-2 -2.000000 -1 -1 4
-2 -2.000000 -1 -1 3
-2 -2.000000 -1 -1 3
4 1068.000000 2779 2806 -1
11 4001.500000 2780 2791 -1
12 1072.500000 2781 2782 -1
-2 -2.000000 -1 -1 3
11 3983.500000 2783 2784 -1
-2 -2.000000 -1 -1 3
10 0.500000 2785 2786 -1
-2 -2.000000 -1 -1 4
13 2.125000 2787 2788 -1
-2 -2.000000 -1 -1 4
13 14.475000 2789 2790 -1
-2 -2.000000 -1 -1 3
-2 -2.000000 -1 -1 3
13 2.125000 2792 2793 -1
-2 -2.000000 -1 -1 4
6 3.000000 2794 2801 -1
13 3.416667 2795 2800 -1
0 4.000000 2796 2797 -1
-2 -2.000000 -1 -1 4
13 2.600000 2798 2799 -1
-2 -2.000000 -1 -1 4
-2 -2.000000 -1 -1 3
-2 -2.000000 -1 -1 3
13 3.166667 2802 2805 -1
13 2.500000 2803 2804 -1
-2 -2.000000 -1 -1 3
-2 -2.000000 -1 -1 4
-2 -2.000000 -1 -1 3
12 1075.500000 2807 2816 -1
11 3984.500000 2808 2813 -1
13 30.100000 2809 2810 -1
-2 -2.000000 -1 -1 4
4 1073.500000 2811 2812 -1
-2 -2.000000 -1 -1 3
-2 -2.000000 -1 -1 4
12 1073.500000 2814 2815 -1
-2 -2.000000 -1 -1 4
-2 -2.000000 -1 -1 3
-2 -2.000000 -1 -1 3
13 1.250000 2818 2819 -1
-2 -2.000000 -1 -1 3
-2 -2.000000 -1 -1 4
1 1067.500000 2821 2858 -1
5 3995.500000 2822 2843 -1
13 47.500000 2823 2834 -1
13 1.400000 2824 2825 -1
-2 -2.000000 -1 -1 3
11 3983.500000 2826 2827 -1
-2 -2.000000 -1 -1 3
12 1060.500000 2828 2833 -1
11 4002.500000 2829 2832 -1
0 2.500000 2830 2831 -1
-2 -2.000000 -1 -1 3
-2 -2.000000 -1 -1 3
-2 -2.000000 -1 -1 4
-2 -2.000000 -1 -1 4
0 3.500000 2835 2836 -1
-2 -2.000000 -1 -1 4
13 51.900000 2837 2838 -1
-2 -2.000000 -1 -1 3
8 3986.500000 2839 2840 -1
-2 -2.000000 -1 -1 3
13 69.424999 2841 2842 -1
-2 -2.000000 -1 -1 4
-2 -2.000000 -1 -1 3
11 4002.500000 2844 2857 -1
13 2.300000 2845 2852 -1
5 4001.000000 2846 2847 -1
-2 -2.000000 -1 -1 3
12 1056.500000 2848 2851 -1
13 1.800000 2849 2850 -1
-2 -2.000000 -1 -1 4
-2 -2.000000 -1 -1 3
-2 -2.000000 -1 -1 4
2 4.000000 2853 2854 -1
-2 -2.000000 -1 -1 3
13 30.100000 2855 2856 -1
-2 -2.000000 -1 -1 3
-2 -2.000000 -1 -1 4
-2 -2.000000 -1 -1 4
11 3986.000000 2859 2862 -1
13 39.400001 2860 2861 -1
-2 -2.000000 -1 -1 4
-2 -2.000000 -1 -1 3
3 4002.500000 2863 2870 -1
0 1.500000 2864 2869 -1
12 1059.500000 2865 2868 -1
7 0.500000 2866 2867 -1
-2 -2.000000 -1 -1 4
-2 -2.000000 -1 -1 4
-2 -2.000000 -1 -1 3
-2 -2.000000 -1 -1 4
11 3999.000000 2871 2872 -1
-2 -2.000000 -1 -1 3
-2 -2.000000 -1 -1 4
